{"learner":{"attributes":{"scikit_learn":"{\"_estimator_type\": \"regressor\"}"},"feature_names":["Age","RenovAge","IsRenovated","SubType","SquareMeters","LandplotSize","NoView","ViewForest","ViewMountain","ViewSea","ViewUnlimited","NoFacade","FacadeCorner","FacadeFrontage","FacadeInterior","FacadeThrough","HeatType","HeatFrom","EnergyPerformance","WC","AC","Elevator","Parking","StorageRoom","AluminumFrames","Bedrooms","Pool","Garden","FloorLevel","FloorCount","MarketabillityFactor","AdminName","geo_premium"],"feature_types":["int","int","int","c","int","int","int","int","int","int","int","int","int","int","int","int","c","c","c","int","int","int","int","int","int","int","int","int","int","int","float","c","float"],"gradient_booster":{"model":{"cats":{"enc":[{"offsets":[],"values":[]},{"offsets":[],"values":[]},{"offsets":[],"values":[]},{"offsets":[0,9,23,33],"values":[97,112,97,114,116,109,101,110,116,100,101,116,97,99,104,101,100,95,104,111,117,115,101,109,97,105,115,111,110,101,116,116,101]},{"offsets":[],"values":[]},{"offsets":[],"values":[]},{"offsets":[],"values":[]},{"offsets":[],"values":[]},{"offsets":[],"values":[]},{"offsets":[],"values":[]},{"offsets":[],"values":[]},{"offsets":[],"values":[]},{"offsets":[],"values":[]},{"offsets":[],"values":[]},{"offsets":[],"values":[]},{"offsets":[],"values":[]},{"offsets":[0,18,39,54,64],"values":[97,117,116,111,110,111,109,111,117,115,95,99,101,110,116,114,97,108,97,117,116,111,110,111,109,111,117,115,95,105,110,100,105,118,105,100,117,97,108,99,101,110,116,114,97,108,95,104,101,97,116,105,110,103,110,111,95,104,101,97,116,105,110,103]},{"offsets":[0,11,22,25,31],"values":[101,108,101,99,116,114,105,99,105,116,121,110,97,116,117,114,97,108,95,103,97,115,111,105,108,112,101,108,108,101,116]},{"offsets":[0,1,3,6,7,9,10,11,12,13,14,26,27,29,30,32,33,34,35,45,46,47],"values":[65,65,43,65,43,43,66,66,43,67,68,69,70,71,78,111,116,32,82,101,113,117,105,114,101,100,-50,-111,-50,-111,43,-50,-110,-50,-110,43,-50,-109,-50,-108,-50,-107,-50,-107,-50,-66,-50]},{"offsets":[],"values":[]},{"offsets":[],"values":[]},{"offsets":[],"values":[]},{"offsets":[],"values":[]},{"offsets":[],"values":[]},{"offsets":[],"values":[]},{"offsets":[],"values":[]},{"offsets":[],"values":[]},{"offsets":[],"values":[]},{"offsets":[],"values":[]},{"offsets":[],"values":[]},{"offsets":[],"values":[]},{"offsets":[0,34,61,87,113,150,189,219,248,275,304,345,374,401,437,478,506,537,566,593,621,651,677,703,734,761,789,819,853,882,910,939,969,1018,1048,1091,1123,1150,1178,1208,1231,1259,1286,1313,1342,1371,1400,1426,1456,1486,1514,1540,1566,1606,1633,1659,1686,1715,1743,1772,1801,1829,1855,1881,1908,1937,1963,1989,2018,2048,2077,2105,2130,2161,2188],"values":[-50,-100,-50,-73,-49,-124,-49,-127,-50,-65,-49,-128,-50,-65,-50,-69,-50,-71,-49,-124,-50,-71,-50,-70,-50,-82,32,-50,-107,-50,-67,-49,-116,-49,-124,-50,-73,-49,-124,-50,-79,32,-50,-104,-50,-75,-49,-125,-49,-125,-50,-79,-50,-69,-50,-65,-50,-67,-50,-81,-50,-70,-50,-73,-49,-126,-50,-96,-50,-75,-49,-127,-50,-71,-49,-122,-50,-75,-49,-127,-50,-75,-50,-71,-50,-79,-50,-70,-50,-82,32,-50,-107,-50,-67,-49,-116,-49,-124,-50,-73,-49,-124,-50,-79,32,-50,-122,-50,-67,-50,-76,-49,-127,-50,-65,-49,-123,-50,-96,-50,-75,-49,-127,-50,-71,-49,-122,-50,-75,-49,-127,-50,-75,-50,-71,-50,-79,-50,-70,-50,-82,32,-50,-107,-50,-67,-49,-116,-49,-124,-50,-73,-49,-124,-50,-79,32,-50,-122,-49,-127,-49,-124,-50,-79,-49,-126,-50,-96,-50,-75,-49,-127,-50,-71,-49,-122,-50,-75,-49,-127,-50,-75,-50,-71,-50,-79,-50,-70,-50,-82,32,-50,-107,-50,-67,-49,-116,-49,-124,-50,-73,-49,-124,-50,-79,32,-50,-120,-50,-78,-49,-127,-50,-65,-49,-123,-50,-96,-50,-75,-49,-127,-50,-71,-49,-122,-50,-75,-49,-127,-50,-75,-50,-71,-50,-79,-50,-70,-50,-82,32,-50,-107,-50,-67,-49,-116,-49,-124,-50,-73,-49,-124,-50,-79,32,-50,-111,-50,-71,-49,-124,-49,-119,-50,-69,-50,-65,-50,-79,-50,-70,-50,-79,-49,-127,-50,-67,-50,-79,-50,-67,-50,-81,-50,-79,-49,-126,-50,-96,-50,-75,-49,-127,-50,-71,-49,-122,-50,-75,-49,-127,-50,-75,-50,-71,-50,-79,-50,-70,-50,-82,32,-50,-107,-50,-67,-49,-116,-49,-124,-50,-73,-49,-124,-50,-79,32,-50,-111,-50,-67,-50,-79,-49,-124,-50,-65,-50,-69,-50,-71,-50,-70,-50,-82,-49,-126,32,-50,-111,-49,-124,-49,-124,-50,-71,-50,-70,-50,-82,-49,-126,-50,-96,-50,-75,-49,-127,-50,-71,-49,-122,-50,-75,-49,-127,-50,-75,-50,-71,-50,-79,-50,-70,-50,-82,32,-50,-107,-50,-67,-49,-116,-49,-124,-50,-73,-49,-124,-50,-79,32,-50,-111,-49,-127,-50,-77,-50,-65,-50,-69,-50,-81,-50,-76,-50,-65,-49,-126,-50,-96,-50,-75,-49,-127,-50,-71,-49,-122,-50,-75,-49,-127,-50,-75,-50,-71,-50,-79,-50,-70,-50,-82,32,-50,-107,-50,-67,-49,-116,-49,-124,-50,-73,-49,-124,-50,-79,32,-50,-111,-49,-127,-50,-70,-50,-79,-50,-76,-50,-81,-50,-79,-49,-126,-50,-96,-50,-75,-49,-127,-50,-71,-49,-122,-50,-75,-49,-127,-50,-75,-50,-71,-50,-79,-50,-70,-50,-82,32,-50,-107,-50,-67,-49,-116,-49,-124,-50,-73,-49,-124,-50,-79,32,-50,-111,-49,-121,-50,-79,-50,-112,-50,-79,-49,-126,-50,-96,-50,-75,-49,-127,-50,-71,-49,-122,-50,-75,-49,-127,-50,-75,-50,-71,-50,-79,-50,-70,-50,-82,32,-50,-107,-50,-67,-49,-116,-49,-124,-50,-73,-49,-124,-50,-79,32,-50,-110,-50,-65,-50,-71,-49,-119,-49,-124,-50,-81,-50,-79,-49,-126,-50,-96,-50,-75,-49,-127,-50,-71,-49,-122,-50,-75,-49,-127,-50,-75,-50,-71,-50,-79,-50,-70,-50,-82,32,-50,-107,-50,-67,-49,-116,-49,-124,-50,-73,-49,-124,-50,-79,32,-50,-110,-50,-65,-49,-127,-50,-75,-50,-81,-50,-65,-49,-123,32,-50,-92,-50,-65,-50,-68,-50,-83,-50,-79,32,-50,-111,-50,-72,-50,-73,-50,-67,-49,-114,-50,-67,-50,-96,-50,-75,-49,-127,-50,-71,-49,-122,-50,-75,-49,-127,-50,-75,-50,-71,-50,-79,-50,-70,-50,-82,32,-50,-107,-50,-67,-49,-116,-49,-124,-50,-73,-49,-124,-50,-79,32,-50,-109,-49,-127,-50,-75,-50,-78,-50,-75,-50,-67,-49,-114,-50,-67,-50,-96,-50,-75,-49,-127,-50,-71,-49,-122,-50,-75,-49,-127,-50,-75,-50,-71,-50,-79,-50,-70,-50,-82,32,-50,-107,-50,-67,-49,-116,-49,-124,-50,-73,-49,-124,-50,-79,32,-50,-108,-49,-127,-50,-84,-50,-68,-50,-79,-49,-126,-50,-96,-50,-75,-49,-127,-50,-71,-49,-122,-50,-75,-49,-127,-50,-75,-50,-71,-50,-79,-50,-70,-50,-82,32,-50,-107,-50,-67,-49,-116,-49,-124,-50,-73,-49,-124,-50,-79,32,-50,-108,-49,-123,-49,-124,-50,-71,-50,-70,-50,-82,-49,-126,32,-50,-111,-49,-124,-49,-124,-50,-71,-50,-70,-50,-82,-49,-126,-50,-96,-50,-75,-49,-127,-50,-71,-49,-122,-50,-75,-49,-127,-50,-75,-50,-71,-50,-79,-50,-70,-50,-82,32,-50,-107,-50,-67,-49,-116,-49,-124,-50,-73,-49,-124,-50,-79,32,-50,-108,-49,-123,-49,-124,-50,-71,-50,-70,-50,-65,-49,-115,32,-50,-92,-50,-65,-50,-68,-50,-83,-50,-79,32,-50,-111,-50,-72,-50,-73,-50,-67,-49,-114,-50,-67,-50,-96,-50,-75,-49,-127,-50,-71,-49,-122,-50,-75,-49,-127,-50,-75,-50,-71,-50,-79,-50,-70,-50,-82,32,-50,-107,-50,-67,-49,-116,-49,-124,-50,-73,-49,-124,-50,-79,32,-50,-107,-49,-123,-50,-78,-50,-65,-50,-81,-50,-79,-49,-126,-50,-96,-50,-75,-49,-127,-50,-71,-49,-122,-50,-75,-49,-127,-50,-75,-50,-71,-50,-79,-50,-70,-50,-82,32,-50,-107,-50,-67,-49,-116,-49,-124,-50,-73,-49,-124,-50,-79,32,-50,-107,-49,-123,-49,-127,-49,-123,-49,-124,-50,-79,-50,-67,-50,-81,-50,-79,-49,-126,-50,-96,-50,-75,-49,-127,-50,-71,-49,-122,-50,-75,-49,-127,-50,-75,-50,-71,-50,-79,-50,-70,-50,-82,32,-50,-107,-50,-67,-49,-116,-49,-124,-50,-73,-49,-124,-50,-79,32,-50,-106,-50,-79,-50,-70,-49,-115,-50,-67,-50,-72,-50,-65,-49,-123,-50,-96,-50,-75,-49,-127,-50,-71,-49,-122,-50,-75,-49,-127,-50,-75,-50,-71,-50,-79,-50,-70,-50,-82,32,-50,-107,-50,-67,-49,-116,-49,-124,-50,-73,-49,-124,-50,-79,32,-50,-105,-50,-69,-50,-75,-50,-81,-50,-79,-49,-126,-50,-96,-50,-75,-49,-127,-50,-71,-49,-122,-50,-75,-49,-127,-50,-75,-50,-71,-50,-79,-50,-70,-50,-82,32,-50,-107,-50,-67,-49,-116,-49,-124,-50,-73,-49,-124,-50,-79,32,-50,-105,-50,-68,-50,-79,-50,-72,-50,-81,-50,-79,-49,-126,-50,-96,-50,-75,-49,-127,-50,-71,-49,-122,-50,-75,-49,-127,-50,-75,-50,-71,-50,-79,-50,-70,-50,-82,32,-50,-107,-50,-67,-49,-116,-49,-124,-50,-73,-49,-124,-50,-79,32,-50,-105,-49,-127,-50,-79,-50,-70,-50,-69,-50,-75,-50,-81,-50,-65,-49,-123,-50,-96,-50,-75,-49,-127,-50,-71,-49,-122,-50,-75,-49,-127,-50,-75,-50,-71,-50,-79,-50,-70,-50,-82,32,-50,-107,-50,-67,-49,-116,-49,-124,-50,-73,-49,-124,-50,-79,32,-50,-104,-50,-84,-49,-125,-50,-65,-49,-123,-50,-96,-50,-75,-49,-127,-50,-71,-49,-122,-50,-75,-49,-127,-50,-75,-50,-71,-50,-79,-50,-70,-50,-82,32,-50,-107,-50,-67,-49,-116,-49,-124,-50,-73,-49,-124,-50,-79,32,-50,-104,-50,-82,-49,-127,-50,-79,-49,-126,-50,-96,-50,-75,-49,-127,-50,-71,-49,-122,-50,-75,-49,-127,-50,-75,-50,-71,-50,-79,-50,-70,-50,-82,32,-50,-107,-50,-67,-49,-116,-49,-124,-50,-73,-49,-124,-50,-79,32,-50,-104,-50,-75,-49,-125,-49,-128,-49,-127,-49,-119,-49,-124,-50,-81,-50,-79,-49,-126,-50,-96,-50,-75,-49,-127,-50,-71,-49,-122,-50,-75,-49,-127,-50,-75,-50,-71,-50,-79,-50,-70,-50,-82,32,-50,-107,-50,-67,-49,-116,-49,-124,-50,-73,-49,-124,-50,-79,32,-50,-103,-50,-72,-50,-84,-50,-70,-50,-73,-49,-126,-50,-96,-50,-75,-49,-127,-50,-71,-49,-122,-50,-75,-49,-127,-50,-75,-50,-71,-50,-79,-50,-70,-50,-82,32,-50,-107,-50,-67,-49,-116,-49,-124,-50,-73,-49,-124,-50,-79,32,-50,-103,-50,-70,-50,-79,-49,-127,-50,-81,-50,-79,-49,-126,-50,-96,-50,-75,-49,-127,-50,-71,-49,-122,-50,-75,-49,-127,-50,-75,-50,-71,-50,-79,-50,-70,-50,-82,32,-50,-107,-50,-67,-49,-116,-49,-124,-50,-73,-49,-124,-50,-79,32,-50,-103,-49,-119,-50,-79,-50,-67,-50,-67,-50,-81,-50,-67,-49,-119,-50,-67,-50,-96,-50,-75,-49,-127,-50,-71,-49,-122,-50,-75,-49,-127,-50,-75,-50,-71,-50,-79,-50,-70,-50,-82,32,-50,-107,-50,-67,-49,-116,-49,-124,-50,-73,-49,-124,-50,-79,32,-50,-102,-50,-83,-50,-79,-49,-126,32,45,32,-50,-102,-49,-115,-50,-72,-50,-67,-50,-65,-49,-123,-50,-96,-50,-75,-49,-127,-50,-71,-49,-122,-50,-75,-49,-127,-50,-75,-50,-71,-50,-79,-50,-70,-50,-82,32,-50,-107,-50,-67,-49,-116,-49,-124,-50,-73,-49,-124,-50,-79,32,-50,-102,-50,-83,-49,-127,-50,-70,-49,-123,-49,-127,-50,-79,-49,-126,-50,-96,-50,-75,-49,-127,-50,-71,-49,-122,-50,-75,-49,-127,-50,-75,-50,-71,-50,-79,-50,-70,-50,-82,32,-50,-107,-50,-67,-49,-116,-49,-124,-50,-73,-49,-124,-50,-79,32,-50,-102,-50,-79,-50,-78,-50,-84,-50,-69,-50,-79,-49,-126,-50,-96,-50,-75,-49,-127,-50,-71,-49,-122,-50,-75,-49,-127,-50,-75,-50,-71,-50,-79,-50,-70,-50,-82,32,-50,-107,-50,-67,-49,-116,-49,-124,-50,-73,-49,-124,-50,-79,32,-50,-102,-50,-79,-50,-69,-49,-115,-50,-68,-50,-67,-50,-65,-49,-123,-50,-96,-50,-75,-49,-127,-50,-71,-49,-122,-50,-75,-49,-127,-50,-75,-50,-71,-50,-79,-50,-70,-50,-82,32,-50,-107,-50,-67,-49,-116,-49,-124,-50,-73,-49,-124,-50,-79,32,-50,-102,-50,-79,-49,-127,-50,-76,-50,-81,-49,-124,-49,-125,-50,-79,-49,-126,-50,-96,-50,-75,-49,-127,-50,-71,-49,-122,-50,-75,-49,-127,-50,-75,-50,-71,-50,-79,-50,-70,-50,-82,32,-50,-107,-50,-67,-49,-116,-49,-124,-50,-73,-49,-124,-50,-79,32,-50,-102,-50,-79,-49,-127,-49,-128,-50,-84,-50,-72,-50,-65,-49,-123,45,-50,-105,-49,-127,-49,-119,-50,-71,-50,-70,-50,-82,-49,-126,32,-50,-99,-50,-82,-49,-125,-50,-65,-49,-123,32,-50,-102,-50,-84,-49,-125,-50,-65,-49,-123,-50,-96,-50,-75,-49,-127,-50,-71,-49,-122,-50,-75,-49,-127,-50,-75,-50,-71,-50,-79,-50,-70,-50,-82,32,-50,-107,-50,-67,-49,-116,-49,-124,-50,-73,-49,-124,-50,-79,32,-50,-102,-50,-79,-49,-125,-49,-124,-50,-65,-49,-127,-50,-71,-50,-84,-49,-126,-50,-96,-50,-75,-49,-127,-50,-71,-49,-122,-50,-75,-49,-127,-50,-75,-50,-71,-50,-79,-50,-70,-50,-82,32,-50,-107,-50,-67,-49,-116,-49,-124,-50,-73,-49,-124,-50,-79,32,-50,-102,-50,-75,-50,-67,-49,-124,-49,-127,-50,-71,-50,-70,-50,-65,-49,-115,32,-50,-92,-50,-65,-50,-68,-50,-83,-50,-79,32,-50,-111,-50,-72,-50,-73,-50,-67,-49,-114,-50,-67,-50,-96,-50,-75,-49,-127,-50,-71,-49,-122,-50,-75,-49,-127,-50,-75,-50,-71,-50,-79,-50,-70,-50,-82,32,-50,-107,-50,-67,-49,-116,-49,-124,-50,-73,-49,-124,-50,-79,32,-50,-102,-50,-75,-49,-122,-50,-79,-50,-69,-50,-69,-50,-73,-50,-67,-50,-81,-50,-79,-49,-126,-50,-96,-50,-75,-49,-127,-50,-71,-49,-122,-50,-75,-49,-127,-50,-75,-50,-71,-50,-79,-50,-70,-50,-82,32,-50,-107,-50]},{"offsets":[],"values":[]}],"feature_segments":[0,0,0,0,3,3,3,3,3,3,3,3,3,3,3,3,3,7,11,32,32,32,32,32,32,32,32,32,32,32,32,32,106,106],"sorted_idx":[0,1,2,0,1,2,3,0,1,2,3,13,12,15,17,19,11,16,20,14,18,0,1,2,3,4,5,6,7,8,9,10,24,66,41,56,4,15,13,38,5,42,1,69,72,12,43,8,73,7,35,32,31,9,64,21,23,44,28,20,45,71,11,3,6,59,2,53,25,29,0,65,58,61,50,62,55,57,10,14,34,68,36,48,30,54,26,63,27,19,17,49,51,52,60,16,70,46,39,22,47,33,18,40,67,37]},"gbtree_model_param":{"num_parallel_tree":"1","num_trees":"500"},"iteration_indptr":[0,1,2,3,4,5,6,7,8,9,10,11,12,13,14,15,16,17,18,19,20,21,22,23,24,25,26,27,28,29,30,31,32,33,34,35,36,37,38,39,40,41,42,43,44,45,46,47,48,49,50,51,52,53,54,55,56,57,58,59,60,61,62,63,64,65,66,67,68,69,70,71,72,73,74,75,76,77,78,79,80,81,82,83,84,85,86,87,88,89,90,91,92,93,94,95,96,97,98,99,100,101,102,103,104,105,106,107,108,109,110,111,112,113,114,115,116,117,118,119,120,121,122,123,124,125,126,127,128,129,130,131,132,133,134,135,136,137,138,139,140,141,142,143,144,145,146,147,148,149,150,151,152,153,154,155,156,157,158,159,160,161,162,163,164,165,166,167,168,169,170,171,172,173,174,175,176,177,178,179,180,181,182,183,184,185,186,187,188,189,190,191,192,193,194,195,196,197,198,199,200,201,202,203,204,205,206,207,208,209,210,211,212,213,214,215,216,217,218,219,220,221,222,223,224,225,226,227,228,229,230,231,232,233,234,235,236,237,238,239,240,241,242,243,244,245,246,247,248,249,250,251,252,253,254,255,256,257,258,259,260,261,262,263,264,265,266,267,268,269,270,271,272,273,274,275,276,277,278,279,280,281,282,283,284,285,286,287,288,289,290,291,292,293,294,295,296,297,298,299,300,301,302,303,304,305,306,307,308,309,310,311,312,313,314,315,316,317,318,319,320,321,322,323,324,325,326,327,328,329,330,331,332,333,334,335,336,337,338,339,340,341,342,343,344,345,346,347,348,349,350,351,352,353,354,355,356,357,358,359,360,361,362,363,364,365,366,367,368,369,370,371,372,373,374,375,376,377,378,379,380,381,382,383,384,385,386,387,388,389,390,391,392,393,394,395,396,397,398,399,400,401,402,403,404,405,406,407,408,409,410,411,412,413,414,415,416,417,418,419,420,421,422,423,424,425,426,427,428,429,430,431,432,433,434,435,436,437,438,439,440,441,442,443,444,445,446,447,448,449,450,451,452,453,454,455,456,457,458,459,460,461,462,463,464,465,466,467,468,469,470,471,472,473,474,475,476,477,478,479,480,481,482,483,484,485,486,487,488,489,490,491,492,493,494,495,496,497,498,499,500],"tree_info":[0,0,0,0,0,0,0,0,0,0,0,0,0,0,0,0,0,0,0,0,0,0,0,0,0,0,0,0,0,0,0,0,0,0,0,0,0,0,0,0,0,0,0,0,0,0,0,0,0,0,0,0,0,0,0,0,0,0,0,0,0,0,0,0,0,0,0,0,0,0,0,0,0,0,0,0,0,0,0,0,0,0,0,0,0,0,0,0,0,0,0,0,0,0,0,0,0,0,0,0,0,0,0,0,0,0,0,0,0,0,0,0,0,0,0,0,0,0,0,0,0,0,0,0,0,0,0,0,0,0,0,0,0,0,0,0,0,0,0,0,0,0,0,0,0,0,0,0,0,0,0,0,0,0,0,0,0,0,0,0,0,0,0,0,0,0,0,0,0,0,0,0,0,0,0,0,0,0,0,0,0,0,0,0,0,0,0,0,0,0,0,0,0,0,0,0,0,0,0,0,0,0,0,0,0,0,0,0,0,0,0,0,0,0,0,0,0,0,0,0,0,0,0,0,0,0,0,0,0,0,0,0,0,0,0,0,0,0,0,0,0,0,0,0,0,0,0,0,0,0,0,0,0,0,0,0,0,0,0,0,0,0,0,0,0,0,0,0,0,0,0,0,0,0,0,0,0,0,0,0,0,0,0,0,0,0,0,0,0,0,0,0,0,0,0,0,0,0,0,0,0,0,0,0,0,0,0,0,0,0,0,0,0,0,0,0,0,0,0,0,0,0,0,0,0,0,0,0,0,0,0,0,0,0,0,0,0,0,0,0,0,0,0,0,0,0,0,0,0,0,0,0,0,0,0,0,0,0,0,0,0,0,0,0,0,0,0,0,0,0,0,0,0,0,0,0,0,0,0,0,0,0,0,0,0,0,0,0,0,0,0,0,0,0,0,0,0,0,0,0,0,0,0,0,0,0,0,0,0,0,0,0,0,0,0,0,0,0,0,0,0,0,0,0,0,0,0,0,0,0,0,0,0,0,0,0,0,0,0,0,0,0,0,0,0,0,0,0,0,0,0,0,0,0,0,0,0,0,0,0,0,0,0,0,0,0,0,0,0,0,0,0,0,0,0,0,0,0,0,0,0,0,0,0,0,0,0,0,0,0,0,0,0,0,0,0,0,0,0,0],"trees":[{"base_weights":[8.0966085E-1,1.5932717E3,-3.2113437E2,1.2650123E3,3.3846863E3,1.4862117E2,-5.431397E2,1.18193E3,2.327285E3,3.9133298E3,2.2598096E3,6.866468E1,1.5091448E3,-3.3452405E2,-8.701285E2,1.3463737E3,8.92432E2,1.769314E3,4.448815E3,4.2526157E3,2.7133718E3,1.8850791E3,2.7433718E3,7.2377875E2,-2.9643948E1,2.175671E3,8.781563E2,-3.9861505E2,7.967481E2,-6.2646436E2,-1.1056254E3,1.1586995E3,1.7246938E3,1.01371484E3,2.7916232E2,2.422156E3,8.240718E2,2.574878E3,6.750401E3,3.2666892E3,5.029263E3,1.8053058E3,3.5195208E3,2.9099988E3,1.7660204E3,3.7141929E3,2.3055408E3,1.5586659E3,3.9066193E2,1.659417E2,-2.3026927E2,4.131651E3,1.9437972E3,4.060319E2,1.2062478E3,-5.1440076E2,-2.1008054E2,1.2172684E3,4.3735028E2,-6.511261E2,5.385184E2,-1.2024907E3,-3.799549E2,6.873098E1,5.3148914E1,8.096308E1,1.16868095E2,8.3324265E1,4.614262E1,2.3720428E1,-2.2906313E1,1.3570973E2,6.425749E1,8.486617E1,1.0896013E1,9.165952E1,1.4526848E2,2.9328964E2,5.1269763E2,1.4168059E2,1.8720029E2,3.2117392E2,2.2259001E2,7.7144356E1,1.4200174E2,1.2765547E2,2.3370654E2,2.2243013E2,8.664444E1,1.1567554E2,7.505866E1,1.3503923E2,2.3174515E2,8.5561455E1,1.4637593E2,1.0363253E2,4.854214E1,3.750373E1,9.125779E0,7.3520722E0,1.1493548E2,-1.4668225E1,1.2227419E1,2.613035E2,1.765731E2,8.377076E1,1.8696498E2,4.459769E1,-3.2967145E0,1.0585085E2,5.1161247E1,-1.7630905E1,-3.5331226E1,1.513888E1,-1.2272513E1,1.8319931E2,5.6676495E1,1.5790244E1,5.5113323E1,-3.8338364E1,-2.3998396E1,1.6991354E1,8.5947395E1,-4.8465557E1,-6.595962E1,7.810543E1,-2.4308718E1],"categories":[0,2,3,4,5,6,7,8,9,10,11,14,15,16,17,18,19,20,18,19,20,2,3,4,5,6,7,8,9,10,11,13,15,16,17,18,19,0,1,3,0,1,2,3,4,5,6,7,8,9,10,11,13,15,16,17,18,19,20,0,1,2,3,4,5,6,7,8,9,10,11,12,13,16,17,18,19,20,0,1,2,3,4,5,6,7,8,9,10,15,16,17,18,19,20,5,6,16,17,18,19,20,0,1,2,3,2,3,9,13,14,15,16,17,18,20],"categories_nodes":[4,6,7,8,9,14,17,21,23,24,39,44,55,56,61],"categories_segments":[0,18,21,37,38,39,40,59,78,95,102,103,106,108,114],"categories_sizes":[18,3,16,1,1,1,19,19,17,7,1,3,2,6,2],"default_left":[0,0,0,0,0,0,0,0,1,1,0,0,0,0,0,0,0,0,0,0,0,0,0,0,0,0,0,0,0,0,0,0,0,0,0,0,0,0,0,1,0,0,0,0,0,0,0,0,0,0,0,0,0,0,0,0,1,0,0,0,0,1,0,0,0,0,0,0,0,0,0,0,0,0,0,0,0,0,0,0,0,0,0,0,0,0,0,0,0,0,0,0,0,0,0,0,0,0,0,0,0,0,0,0,0,0,0,0,0,0,0,0,0,0,0,0,0,0,0,0,0,0,0,0,0,0,0],"id":0,"left_children":[1,3,5,7,9,11,13,15,17,19,21,23,25,27,29,31,33,35,37,39,41,43,45,47,49,51,53,55,57,59,61,63,65,67,69,71,73,75,77,79,81,83,85,87,89,91,93,95,97,99,101,103,105,107,109,111,113,115,117,119,121,123,125,-1,-1,-1,-1,-1,-1,-1,-1,-1,-1,-1,-1,-1,-1,-1,-1,-1,-1,-1,-1,-1,-1,-1,-1,-1,-1,-1,-1,-1,-1,-1,-1,-1,-1,-1,-1,-1,-1,-1,-1,-1,-1,-1,-1,-1,-1,-1,-1,-1,-1,-1,-1,-1,-1,-1,-1,-1,-1,-1,-1,-1,-1,-1,-1],"loss_changes":[4.6293287E10,8.925233E9,7.833276E9,1.1300168E9,1.3891994E9,2.622212E9,3.479083E9,5.6559616E8,1.0930176E9,6.390538E8,1.3145779E8,1.4664216E9,5.6081254E8,2.258176E9,1.1392604E9,5.369692E8,3.2073702E8,4.5341952E8,8.150328E8,9.361224E8,2.535191E8,4.7087744E7,1.3042995E8,8.256705E8,7.769398E8,2.8676966E8,1.0623638E8,6.432543E8,2.5186163E8,2.8093312E8,7.095675E8,1.0347059E8,1.5867136E8,2.121646E8,1.0299966E8,1.4128538E8,1.6001491E8,2.1146944E7,2.0639002E8,1.0329088E8,5.3014938E8,4.150707E7,1.9672653E8,7.016861E7,5.249741E7,8.078758E7,7.927014E7,2.5389389E8,1.5883526E8,4.0380835E8,2.9288832E8,2.6210688E7,2.7467136E8,6.5190996E7,6.551059E7,5.675469E8,2.035105E8,1.53403E8,7.25493E7,1.8893133E8,4.7027684E7,2.4121037E8,2.464448E8,0E0,0E0,0E0,0E0,0E0,0E0,0E0,0E0,0E0,0E0,0E0,0E0,0E0,0E0,0E0,0E0,0E0,0E0,0E0,0E0,0E0,0E0,0E0,0E0,0E0,0E0,0E0,0E0,0E0,0E0,0E0,0E0,0E0,0E0,0E0,0E0,0E0,0E0,0E0,0E0,0E0,0E0,0E0,0E0,0E0,0E0,0E0,0E0,0E0,0E0,0E0,0E0,0E0,0E0,0E0,0E0,0E0,0E0,0E0,0E0,0E0,0E0,0E0,0E0],"parents":[2147483647,0,0,1,1,2,2,3,3,4,4,5,5,6,6,7,7,8,8,9,9,10,10,11,11,12,12,13,13,14,14,15,15,16,16,17,17,18,18,19,19,20,20,21,21,22,22,23,23,24,24,25,25,26,26,27,27,28,28,29,29,30,30,31,31,32,32,33,33,34,34,35,35,36,36,37,37,38,38,39,39,40,40,41,41,42,42,43,43,44,44,45,45,46,46,47,47,48,48,49,49,50,50,51,51,52,52,53,53,54,54,55,55,56,56,57,57,58,58,59,59,60,60,61,61,62,62],"right_children":[2,4,6,8,10,12,14,16,18,20,22,24,26,28,30,32,34,36,38,40,42,44,46,48,50,52,54,56,58,60,62,64,66,68,70,72,74,76,78,80,82,84,86,88,90,92,94,96,98,100,102,104,106,108,110,112,114,116,118,120,122,124,126,-1,-1,-1,-1,-1,-1,-1,-1,-1,-1,-1,-1,-1,-1,-1,-1,-1,-1,-1,-1,-1,-1,-1,-1,-1,-1,-1,-1,-1,-1,-1,-1,-1,-1,-1,-1,-1,-1,-1,-1,-1,-1,-1,-1,-1,-1,-1,-1,-1,-1,-1,-1,-1,-1,-1,-1,-1,-1,-1,-1,-1,-1,-1,-1],"split_conditions":[1.1E1,1E0,1.8E1,3E0,1E-45,1E0,1E-45,1E-45,1E-45,1E-45,3E0,4.8E1,1.3E1,1E0,1E-45,2E0,1.75E2,1E-45,1.53E2,1.48E2,1E0,1E-45,2.34E2,1E-45,1E-45,7.4E1,1E0,1E0,2.52E2,1E0,1E0,2E0,1E0,5E1,1.99E2,2.9E2,1E0,1.2E2,2.16E2,1E-45,1E0,2.154E3,9.8E2,2E0,1E-45,1.64E2,9.8E2,2E0,2E0,3E0,1E0,3.6E1,5E0,2.65E2,1.36E2,1E-45,1E-45,5.3E1,5E0,1E0,4.3E1,1E-45,3.8E1,6.873098E1,5.3148914E1,8.096308E1,1.16868095E2,8.3324265E1,4.614262E1,2.3720428E1,-2.2906313E1,1.3570973E2,6.425749E1,8.486617E1,1.0896013E1,9.165952E1,1.4526848E2,2.9328964E2,5.1269763E2,1.4168059E2,1.8720029E2,3.2117392E2,2.2259001E2,7.7144356E1,1.4200174E2,1.2765547E2,2.3370654E2,2.2243013E2,8.664444E1,1.1567554E2,7.505866E1,1.3503923E2,2.3174515E2,8.5561455E1,1.4637593E2,1.0363253E2,4.854214E1,3.750373E1,9.125779E0,7.3520722E0,1.1493548E2,-1.4668225E1,1.2227419E1,2.613035E2,1.765731E2,8.377076E1,1.8696498E2,4.459769E1,-3.2967145E0,1.0585085E2,5.1161247E1,-1.7630905E1,-3.5331226E1,1.513888E1,-1.2272513E1,1.8319931E2,5.6676495E1,1.5790244E1,5.5113323E1,-3.8338364E1,-2.3998396E1,1.6991354E1,8.5947395E1,-4.8465557E1,-6.595962E1,7.810543E1,-2.4308718E1],"split_indices":[0,26,1,19,18,26,18,18,3,3,19,4,1,26,16,19,5,18,4,4,9,18,5,18,18,5,20,20,4,26,20,25,9,4,4,5,27,5,4,3,27,5,5,19,16,4,5,1,1,30,9,4,19,4,4,16,18,4,19,24,0,18,4,0,0,0,0,0,0,0,0,0,0,0,0,0,0,0,0,0,0,0,0,0,0,0,0,0,0,0,0,0,0,0,0,0,0,0,0,0,0,0,0,0,0,0,0,0,0,0,0,0,0,0,0,0,0,0,0,0,0,0,0,0,0,0,0],"split_type":[0,0,0,0,1,0,1,1,1,1,0,0,0,0,1,0,0,1,0,0,0,1,0,1,1,0,0,0,0,0,0,0,0,0,0,0,0,0,0,1,0,0,0,0,1,0,0,0,0,0,0,0,0,0,0,1,1,0,0,0,0,1,0,0,0,0,0,0,0,0,0,0,0,0,0,0,0,0,0,0,0,0,0,0,0,0,0,0,0,0,0,0,0,0,0,0,0,0,0,0,0,0,0,0,0,0,0,0,0,0,0,0,0,0,0,0,0,0,0,0,0,0,0,0,0,0,0],"sum_hessian":[9.0294E4,1.5184E4,7.511E4,1.2834E4,2.35E3,2.4105E4,5.1005E4,1.1905E4,9.29E2,1.597E3,7.53E2,2.2768E4,1.337E3,3.114E4,1.9865E4,7.59E3,4.315E3,7.37E2,1.92E2,1.243E3,3.54E2,4.27E2,3.26E2,2.97E3,1.9798E4,6.49E2,6.88E2,2.9471E4,1.669E3,9.765E3,1.01E4,5.076E3,2.514E3,3.602E3,7.13E2,4.35E2,3.02E2,1.07E2,8.5E1,5.5E2,6.93E2,1.68E2,1.86E2,4.2E1,3.85E2,9.9E1,2.27E2,8.46E2,2.124E3,1.0025E4,9.773E3,6.7E1,5.82E2,2.83E2,4.05E2,1.8257E4,1.1214E4,7.68E2,9.01E2,9.563E3,2.02E2,8.91E3,1.19E3,1.555E3,3.521E3,2.148E3,3.66E2,4.38E2,3.164E3,5.64E2,1.49E2,3.45E2,9E1,1.23E2,1.79E2,3.5E1,7.2E1,7E1,1.5E1,2.92E2,2.58E2,2E2,4.93E2,1.36E2,3.2E1,1.03E2,8.3E1,1.7E1,2.5E1,1.23E2,2.62E2,4.9E1,5E1,1.18E2,1.09E2,4.5E2,3.96E2,7.78E2,1.346E3,9.938E3,8.7E1,8.627E3,1.146E3,2.1E1,4.6E1,5.08E2,7.4E1,1.39E2,1.44E2,6.6E1,3.39E2,9.915E3,8.342E3,7.23E2,1.0491E4,2.4E1,7.44E2,7.63E2,1.38E2,5.705E3,3.858E3,1.74E2,2.8E1,2.975E3,5.935E3,6.1E1,1.129E3],"tree_param":{"num_deleted":"0","num_feature":"33","num_nodes":"127","size_leaf_vector":"1"}},{"base_weights":[-3.7331548E0,1.5301554E3,-3.0803775E2,2.1783994E3,3.0242676E2,1.1025694E2,-9.5521606E2,1.7965531E3,3.8682534E3,6.533835E2,-6.0536602E1,3.3039375E3,5.917604E1,-6.363349E2,-1.3560271E3,2.4138848E3,1.5318345E3,3.2144495E3,5.4300845E3,5.1416705E2,1.5938386E3,-1.3580074E2,3.5833737E2,4.3997495E3,2.5460476E3,4.670901E2,-1.5545862E2,1.6624649E2,-7.637091E2,-1.091363E3,-1.6450885E3,2.1581243E3,3.8998972E3,1.130247E3,1.8168431E3,4.6203687E3,2.792693E3,6.038705E3,3.0513643E3,1.2663763E3,4.3873523E2,1.7115446E2,1.4240223E3,-2.388366E2,2.286898E2,8.352775E1,2.669771E2,4.226035E3,3.4857306E2,2.2679443E3,3.9601218E3,1.2448137E3,2.9266504E2,2.3782428E2,-3.3184412E2,7.5754266E2,-2.1955962E2,-8.609205E2,-7.1072266E1,-1.1381436E3,-2.1006033E2,-1.7355225E3,-1.1508973E3,1.0241235E2,1.4743893E2,2.1450581E2,1.3877098E2,6.8180504E1,3.8345375E1,1.4463779E2,8.147308E1,2.1306953E2,2.792276E2,1.5509709E2,1.0629539E2,2.3935152E2,3.504511E2,1.25004234E2,2.51397E2,7.505408E1,5.1655216E0,1.3747362E1,3.0344236E1,6.1265034E1,1.5591681E2,-8.677228E0,-2.894608E1,4.1725802E0,2.6399902E1,2.3931273E1,-2.1859508E0,1.754522E2,2.360415E2,9.5831055E1,1.5046254E2,2.305743E2,1.4798163E2,5.5702442E1,1.4744762E2,4.4917088E0,3.6620678E1,5.886498E0,4.1222317E1,-2.3318548E1,2.189793E0,8.853791E1,1.7425821E1,-1.7632542E1,2.6154774E1,-4.6757732E1,-9.116801E0,-9.152528E0,2.4319324E1,-4.6139217E1,-6.3664734E1,2.3518839E1,-1.8757437E1,-7.9781876E1,-9.9165184E1,-4.1640594E1,-6.174687E1],"categories":[0,1,2,3,4,6,7,8,9,11,12,13,14,15,16,17,18,19,21,23,24,25,26,29,30,31,32,33,35,36,37,38,39,40,41,42,43,46,47,48,51,53,55,56,57,58,60,61,62,63,64,65,67,68,69,70,71,72,0,1,2,3,4,6,7,8,9,11,12,13,14,15,16,18,19,20,21,23,26,29,31,33,36,37,38,40,41,43,44,47,48,53,55,56,57,58,59,60,61,62,63,67,68,69,70,71,0,2,3,4,5,7,8,9,10,11,12,13,15,16,17,18,19,20,21,22,23,24,25,26,27,28,29,30,31,32,33,34,35,36,37,38,39,40,41,42,43,44,45,46,47,49,50,52,53,54,55,57,58,59,60,62,63,64,66,67,68,69,70,73,0,1,2,3,4,5,6,7,8,9,10,11,12,13,14,15,16,17,18,19,20,21,23,24,25,26,27,28,29,30,31,32,33,34,35,36,37,38,39,40,41,42,43,44,45,46,47,48,50,51,52,53,55,56,57,58,59,60,61,62,63,64,65,66,67,68,69,70,71,72,73,2,3,4,7,8,9,11,12,13,15,16,18,19,20,21,23,26,31,33,36,37,38,40,41,43,47,53,55,57,58,60,62,63,67,68,69,70,71,0,1,2,3,4,5,6,7,8,9,10,11,12,13,14,15,16,17,18,19,20,21,22,23,24,25,26,27,28,29,30,31,32,33,34,35,36,37,38,39,40,41,42,43,44,45,46,47,48,50,51,53,55,56,57,58,59,60,61,62,63,64,65,66,67,68,69,70,71,72,73,0,1,2,3,4,5,6,7,8,9,10,11,12,13,14,15,16,17,18,19,20,21,22,23,24,25,26,27,28,29,30,31,32,33,34,35,36,37,38,39,40,41,42,43,44,45,46,47,48,50,51,52,53,54,55,56,57,58,59,60,61,62,63,64,65,66,67,68,69,70,71,72,73,1,2,4,7,8,9,10,16,17,18,19,20,17,18,19,20,0,1,2,3,4,5,6,7,8,9,10,11,12,13,14,15,16,17,18,19,20,21,22,23,24,25,26,27,29,30,31,32,33,34,35,36,37,38,39,40,41,42,43,44,45,46,47,48,50,51,53,54,55,56,57,58,59,60,61,62,63,64,65,66,67,68,69,70,71,72,73,0,1,2,3,4,6,7,8,9,10,11,12,13,14,15,16,17,18,19,20,21,22,23,24,25,26,27,28,29,30,31,32,33,34,35,36,37,38,39,40,41,42,43,44,45,46,47,48,49,50,51,53,54,55,56,57,58,59,60,61,62,63,64,65,66,67,68,69,70,71,72,73,0,1,2,3,4,5,6,7,8,9,10,11,12,13,14,15,16,17,18,19,20,21,22,23,24,25,26,27,28,29,30,31,32,33,34,35,36,37,38,39,40,41,42,43,44,45,46,47,48,49,50,51,52,53,54,55,57,58,59,60,61,62,63,64,65,66,67,68,69,70,71,72,73,0,1,2,3,4,5,6,7,8,9,10,11,12,13,14,15,16,17,18,19,20,21,22,23,24,25,26,28,29,30,31,32,33,34,36,37,38,39,40,41,42,43,44,47,48,49,50,51,53,54,55,56,57,58,59,60,61,62,63,64,65,67,68,69,70,71,72,73,0,1,2,3,4,5,6,7,8,9,11,12,13,14,15,16,17,18,19,20,21,22,23,24,25,26,28,29,31,32,33,34,35,36,37,38,39,40,41,42,45,51,65,72,73,0,1,2,3,4,5,6,7,8,9,10,11,13,15,16,17,18,19,20,0,1,2,3,4,5,6,7,8,9,10,11,13,15,16,17,18,19,20,0,1,2,3,4,6,7,8,9,10,11,12,13,14,15,16,17,18,19,20,21,22,23,24,25,26,27,28,29,30,31,32,33,34,35,36,37,38,39,40,41,42,43,44,45,46,47,48,49,50,51,52,53,54,55,56,57,58,59,60,61,62,63,64,65,66,67,68,69,70,71,72,73,0,2,3,4,5,6,7,8,9,10,11,13,14,15,16,17,19,20,0,1,2,3,4,5,6,7,8,9,10,11,12,13,15,16,17,18,19,20,21,22,23,24,25,26,27,28,29,30,31,32,33,34,35,36,37,38,39,40,41,42,43,44,45,46,47,48,49,50,51,52,53,54,55,57,58,59,60,61,62,63,64,65,66,67,68,69,70,71,72,73,0,1,2,3,4,5,6,7,8,9,10,11,14,15,16,17,18,19,20,1,1,0,1,2,3,4,5,6,7,8,9,10,11,12,13,14,15,16,17,18,19,20,21,22,23,24,25,26,27,28,29,30,31,32,33,34,35,36,37,38,39,40,41,42,43,44,45,46,47,48,49,50,51,52,53,54,55,57,58,59,60,61,62,63,64,65,66,67,68,69,70,71,72,73,4,7,8,12,13,18,19,26,31,36,37,40,47,53,55,57,62,63,67,68,70,2,4,7,12,18,19,31,33,36,37,40,41,43,53,55,57,62,63,67,68],"categories_nodes":[1,2,4,5,6,7,11,12,14,17,18,20,25,26,32,33,34,36,39,46,47,53,55,59,61],"categories_segments":[0,58,106,170,241,279,350,423,435,439,510,582,655,723,768,787,806,879,897,969,988,989,990,1063,1084],"categories_sizes":[58,48,64,71,38,71,73,12,4,71,72,73,68,45,19,19,73,18,72,19,1,1,73,21,20],"default_left":[0,1,1,0,0,0,1,0,0,0,0,0,0,0,0,0,0,0,0,0,0,0,0,0,0,0,1,0,0,0,0,0,0,0,0,0,0,0,0,0,0,0,0,0,0,0,1,1,0,0,0,0,0,1,0,0,0,0,0,1,0,1,0,0,0,0,0,0,0,0,0,0,0,0,0,0,0,0,0,0,0,0,0,0,0,0,0,0,0,0,0,0,0,0,0,0,0,0,0,0,0,0,0,0,0,0,0,0,0,0,0,0,0,0,0,0,0,0,0,0,0],"id":1,"left_children":[1,3,5,7,9,11,13,15,17,19,21,23,25,27,29,31,33,35,37,39,41,43,45,47,49,51,53,55,57,59,61,63,65,67,69,71,73,75,77,79,81,-1,83,85,87,-1,89,91,-1,93,95,97,99,101,103,105,107,109,111,113,115,117,119,-1,-1,-1,-1,-1,-1,-1,-1,-1,-1,-1,-1,-1,-1,-1,-1,-1,-1,-1,-1,-1,-1,-1,-1,-1,-1,-1,-1,-1,-1,-1,-1,-1,-1,-1,-1,-1,-1,-1,-1,-1,-1,-1,-1,-1,-1,-1,-1,-1,-1,-1,-1,-1,-1,-1,-1,-1,-1],"loss_changes":[4.211894E10,1.1888013E10,2.0383848E10,6.3011594E9,6.577253E8,7.46116E9,3.777364E9,1.2997325E9,1.8216018E9,3.4286336E8,8.009365E7,5.867617E8,3.9415104E9,1.6833137E9,1.00017766E9,9.00694E8,6.3718195E8,7.413371E8,7.4887475E8,1.2926669E8,1.0012058E8,8.091182E7,4.5949324E7,1.0143386E8,1.5933338E8,2.1051287E9,2.0463375E9,5.1481792E8,9.5672934E8,2.8175923E8,2.776832E8,1.7144525E8,1.4167091E8,1.9575168E8,6.5353114E8,7.726848E7,1.9568998E8,4.777605E8,1.0729082E8,5.662429E7,5.7145664E7,0E0,1.0089184E8,3.7181464E7,2.0604656E7,0E0,2.3891196E7,8.170394E7,0E0,8.799014E7,3.131776E7,6.3025306E8,1.130832E9,6.43393E8,1.0291384E9,3.6864157E8,1.3520109E8,6.27542E8,1.0932977E8,1.8786867E8,3.9043428E7,1.801216E8,2.4928128E7,0E0,0E0,0E0,0E0,0E0,0E0,0E0,0E0,0E0,0E0,0E0,0E0,0E0,0E0,0E0,0E0,0E0,0E0,0E0,0E0,0E0,0E0,0E0,0E0,0E0,0E0,0E0,0E0,0E0,0E0,0E0,0E0,0E0,0E0,0E0,0E0,0E0,0E0,0E0,0E0,0E0,0E0,0E0,0E0,0E0,0E0,0E0,0E0,0E0,0E0,0E0,0E0,0E0,0E0,0E0,0E0,0E0,0E0],"parents":[2147483647,0,0,1,1,2,2,3,3,4,4,5,5,6,6,7,7,8,8,9,9,10,10,11,11,12,12,13,13,14,14,15,15,16,16,17,17,18,18,19,19,20,20,21,21,22,22,23,23,24,24,25,25,26,26,27,27,28,28,29,29,30,30,31,31,32,32,33,33,34,34,35,35,36,36,37,37,38,38,39,39,40,40,42,42,43,43,44,44,46,46,47,47,49,49,50,50,51,51,52,52,53,53,54,54,55,55,56,56,57,57,58,58,59,59,60,60,61,61,62,62],"right_children":[2,4,6,8,10,12,14,16,18,20,22,24,26,28,30,32,34,36,38,40,42,44,46,48,50,52,54,56,58,60,62,64,66,68,70,72,74,76,78,80,82,-1,84,86,88,-1,90,92,-1,94,96,98,100,102,104,106,108,110,112,114,116,118,120,-1,-1,-1,-1,-1,-1,-1,-1,-1,-1,-1,-1,-1,-1,-1,-1,-1,-1,-1,-1,-1,-1,-1,-1,-1,-1,-1,-1,-1,-1,-1,-1,-1,-1,-1,-1,-1,-1,-1,-1,-1,-1,-1,-1,-1,-1,-1,-1,-1,-1,-1,-1,-1,-1,-1,-1,-1,-1],"split_conditions":[9E0,1E-45,1E-45,1E0,1E-45,1E-45,1E-45,1E-45,2E0,1E0,1E0,1E-45,1E-45,3E0,1E-45,1.43E2,2E0,1E-45,1E-45,5E1,1E-45,4E0,4.4E1,3.9E1,1E0,1E-45,1E-45,5.1E1,4E0,1E0,1E0,1E0,1E-45,1E-45,1E-45,1E0,1E-45,1.53E2,2.05E2,1E-45,3E0,1.7115446E2,5E0,3E0,6E0,8.352775E1,1E-45,1E-45,3.4857306E2,1E0,4E0,1E0,2E0,1E-45,1E0,1E-45,4E0,1E0,1E0,1E-45,1.3E1,1E-45,1.7E1,1.0241235E2,1.4743893E2,2.1450581E2,1.3877098E2,6.8180504E1,3.8345375E1,1.4463779E2,8.147308E1,2.1306953E2,2.792276E2,1.5509709E2,1.0629539E2,2.3935152E2,3.504511E2,1.25004234E2,2.51397E2,7.505408E1,5.1655216E0,1.3747362E1,3.0344236E1,6.1265034E1,1.5591681E2,-8.677228E0,-2.894608E1,4.1725802E0,2.6399902E1,2.3931273E1,-2.1859508E0,1.754522E2,2.360415E2,9.5831055E1,1.5046254E2,2.305743E2,1.4798163E2,5.5702442E1,1.4744762E2,4.4917088E0,3.6620678E1,5.886498E0,4.1222317E1,-2.3318548E1,2.189793E0,8.853791E1,1.7425821E1,-1.7632542E1,2.6154774E1,-4.6757732E1,-9.116801E0,-9.152528E0,2.4319324E1,-4.6139217E1,-6.3664734E1,2.3518839E1,-1.8757437E1,-7.9781876E1,-9.9165184E1,-4.1640594E1,-6.174687E1],"split_indices":[0,31,31,26,31,31,31,31,28,26,9,31,18,1,18,4,28,31,31,4,31,28,4,1,26,31,31,4,28,26,9,9,18,18,31,9,18,4,4,31,28,0,0,0,28,0,18,3,0,2,25,26,28,3,2,31,28,9,9,31,1,31,1,0,0,0,0,0,0,0,0,0,0,0,0,0,0,0,0,0,0,0,0,0,0,0,0,0,0,0,0,0,0,0,0,0,0,0,0,0,0,0,0,0,0,0,0,0,0,0,0,0,0,0,0,0,0,0,0,0,0],"split_type":[0,1,1,0,1,1,1,1,0,0,0,1,1,0,1,0,0,1,1,0,1,0,0,0,0,1,1,0,0,0,0,0,1,1,1,0,1,0,0,1,0,0,0,0,0,0,1,1,0,0,0,0,0,1,0,1,0,0,0,1,0,1,0,0,0,0,0,0,0,0,0,0,0,0,0,0,0,0,0,0,0,0,0,0,0,0,0,0,0,0,0,0,0,0,0,0,0,0,0,0,0,0,0,0,0,0,0,0,0,0,0,0,0,0,0,0,0,0,0,0,0],"sum_hessian":[9.0233E4,1.4937E4,7.5296E4,9.775E3,5.162E3,4.5736E4,2.956E4,7.975E3,1.8E3,2.624E3,2.538E3,7.19E2,4.5017E4,1.6464E4,1.3096E4,2.391E3,5.584E3,1.271E3,5.29E2,2.287E3,3.37E2,2.152E3,3.86E2,2.92E2,4.27E2,1.552E4,2.9497E4,2.255E3,1.4209E4,6.839E3,6.257E3,2.042E3,3.49E2,2.32E3,3.264E3,2.91E2,9.8E2,4.2E2,1.09E2,2.07E2,2.08E3,2.7E1,3.1E2,1.678E3,4.74E2,2.4E1,3.62E2,2.76E2,1.6E1,3.59E2,6.8E1,2.842E3,1.2678E4,9.133E3,2.0364E4,8.9E2,1.365E3,1.246E4,1.749E3,6.494E3,3.45E2,5.287E3,9.7E2,1.796E3,2.46E2,2.57E2,9.2E1,1.411E3,9.09E2,4.82E2,2.782E3,2.16E2,7.5E1,6.67E2,3.13E2,1.86E2,2.34E2,8.7E1,2.2E1,1.72E2,3.5E1,1.055E3,1.025E3,2.79E2,3.1E1,1.409E3,2.69E2,3.2E2,1.54E2,2.15E2,1.47E2,1.16E2,1.6E2,2.46E2,1.13E2,3.9E1,2.9E1,2.641E3,2.01E2,8.677E3,4.001E3,7.582E3,1.551E3,1.4994E4,5.37E3,2.55E2,6.35E2,1.158E3,2.07E2,1.1231E4,1.229E3,1.457E3,2.92E2,2.507E3,3.987E3,6.7E1,2.78E2,3.384E3,1.903E3,2.05E2,7.65E2],"tree_param":{"num_deleted":"0","num_feature":"33","num_nodes":"121","size_leaf_vector":"1"}},{"base_weights":[5.4649906E0,1.457974E3,-2.8364713E2,1.1121406E3,3.886342E3,-4.767468E2,1.270073E3,9.4426514E2,2.2847573E3,2.905158E3,5.0909404E3,-8.874738E2,-2.9020175E2,9.056572E2,2.5360493E3,5.968097E2,1.1640958E3,1.9932699E3,3.984083E3,2.3124944E3,3.6572117E3,4.0178113E3,6.4273203E3,-6.3663E2,-1.1124923E3,1.7786674E2,-4.5790063E2,6.439752E2,1.4646987E3,1.7958904E3,4.1312466E3,4.9531598E2,1.1268335E3,1.0065017E3,1.7125767E3,1.2447461E3,2.2045347E3,3.4052336E3,5.1206597E3,2.124479E3,3.6768345E3,2.830761E3,4.388827E3,4.569943E3,1.9402667E3,5.279508E3,7.5467485E3,-8.5792505E2,-4.707318E2,-1.2884316E3,-9.526397E2,1.0097359E2,1.6716951E3,-3.0038733E2,-7.9525366E2,4.8383362E2,1.877406E3,2.213711E3,1.2510483E3,6.478466E2,2.1993926E3,3.7454485E3,8.22296E3,3.1688969E1,3.4727166E0,6.954284E1,3.1149378E1,1.7968218E1,5.4438446E1,7.065774E1,1.0741155E2,1.1861391E2,5.2784492E1,9.9871056E1,1.5077582E2,2.012942E2,1.5242912E2,2.0506725E2,2.919133E2,3.876231E1,1.1841451E2,1.5673677E2,2.4241199E2,1.5619096E2,5.2402863E1,2.0411954E2,3.424314E2,2.5539482E2,1.3562262E2,3.2596813E1,1.2970372E2,2.0983238E2,3.1100494E2,3.1801123E2,4.136957E2,-4.8898098E1,-3.4329514E1,8.299161E0,-2.796469E1,-5.7336315E1,-7.231414E1,-3.657371E1,-5.334271E1,3.393129E1,-7.307598E-1,1.0756364E2,3.5926937E1,-1.7954905E1,3.2736965E1,-4.6656536E1,-1.5122072E1,4.861465E1,1.5379437E1,3.3771744E2,8.263881E1,1.0027765E2,1.7418451E2,5.3810635E1,9.627041E1,1.599614E2,2.5448904E1,1.0675492E2,2.787974E2,2.2847151E2,1.5391133E2,2.3947697E2,7.6098157E2],"categories":[1,18,19,20,0,1,2,3,4,5,6,7,8,9,10,15,16,17,18,19,20,0,1,2,3,4,5,6,7,8,9,10,11,13,15,16,17,18,19,20,3,0,1,2,3,4,5,6,7,8,9,10,13,15,16,17,18,19,20,0,2,3,4,5,6,7,8,9,10,11,13,14,15,16,17,18,19,20,0,1,2,3,4,5,6,7,8,9,10,13,15,16,17,18,19,20,18,19,20,9,17,18,19,20,0,1,2,3,4,5,6,7,8,9,10,11,12,13,14],"categories_nodes":[21,26,28,32,34,41,43,48,49,50,62],"categories_segments":[0,1,4,21,40,41,59,78,96,99,104],"categories_sizes":[1,3,17,19,1,18,19,18,3,5,15],"default_left":[0,0,0,0,0,0,0,0,0,0,0,0,0,0,0,0,0,0,0,0,0,1,0,0,0,0,1,0,0,0,0,0,0,0,0,0,0,0,0,0,0,0,0,0,0,0,0,0,0,1,0,0,0,0,0,0,0,0,0,0,0,0,0,0,0,0,0,0,0,0,0,0,0,0,0,0,0,0,0,0,0,0,0,0,0,0,0,0,0,0,0,0,0,0,0,0,0,0,0,0,0,0,0,0,0,0,0,0,0,0,0,0,0,0,0,0,0,0,0,0,0,0,0,0,0,0,0],"id":2,"left_children":[1,3,5,7,9,11,13,15,17,19,21,23,25,27,29,31,33,35,37,39,41,43,45,47,49,51,53,55,57,59,61,63,65,67,69,71,73,75,77,79,81,83,85,87,89,91,93,95,97,99,101,103,105,107,109,111,113,115,117,119,121,123,125,-1,-1,-1,-1,-1,-1,-1,-1,-1,-1,-1,-1,-1,-1,-1,-1,-1,-1,-1,-1,-1,-1,-1,-1,-1,-1,-1,-1,-1,-1,-1,-1,-1,-1,-1,-1,-1,-1,-1,-1,-1,-1,-1,-1,-1,-1,-1,-1,-1,-1,-1,-1,-1,-1,-1,-1,-1,-1,-1,-1,-1,-1,-1,-1],"loss_changes":[3.7996397E10,1.2609636E10,2.2640632E10,2.5862707E9,2.1977866E9,5.1424164E9,3.8462157E9,8.7799706E8,8.0737485E8,4.524124E8,1.1773932E9,1.1825357E9,3.6232333E9,9.4687744E8,2.193404E9,2.3936333E8,6.072279E8,2.1975398E8,1.4046054E8,1.4122496E8,2.620846E8,5.279652E8,4.3813888E8,3.6359987E8,3.0951834E8,1.3984294E9,1.8055368E9,8.71158E8,3.2768563E8,5.892037E8,9.005619E8,2.2078451E8,9.438093E7,2.9108787E8,2.0189235E8,6.4003744E7,1.7806643E8,2.3586432E7,3.384128E7,1.6691968E8,2.8618304E7,1.0957222E8,1.5219302E8,3.5486618E8,8.25409E7,1.6436173E8,1.0785587E8,8.667469E7,3.1976064E8,1.1593216E8,1.455529E8,7.732746E8,2.7089344E8,1.2994084E9,7.346376E8,3.362208E8,5.442587E8,1.1382426E8,1.8763238E8,1.1635574E8,1.9281357E8,2.8336538E8,1.1282301E9,0E0,0E0,0E0,0E0,0E0,0E0,0E0,0E0,0E0,0E0,0E0,0E0,0E0,0E0,0E0,0E0,0E0,0E0,0E0,0E0,0E0,0E0,0E0,0E0,0E0,0E0,0E0,0E0,0E0,0E0,0E0,0E0,0E0,0E0,0E0,0E0,0E0,0E0,0E0,0E0,0E0,0E0,0E0,0E0,0E0,0E0,0E0,0E0,0E0,0E0,0E0,0E0,0E0,0E0,0E0,0E0,0E0,0E0,0E0,0E0,0E0,0E0,0E0,0E0],"parents":[2147483647,0,0,1,1,2,2,3,3,4,4,5,5,6,6,7,7,8,8,9,9,10,10,11,11,12,12,13,13,14,14,15,15,16,16,17,17,18,18,19,19,20,20,21,21,22,22,23,23,24,24,25,25,26,26,27,27,28,28,29,29,30,30,31,31,32,32,33,33,34,34,35,35,36,36,37,37,38,38,39,39,40,40,41,41,42,42,43,43,44,44,45,45,46,46,47,47,48,48,49,49,50,50,51,51,52,52,53,53,54,54,55,55,56,56,57,57,58,58,59,59,60,60,61,61,62,62],"right_children":[2,4,6,8,10,12,14,16,18,20,22,24,26,28,30,32,34,36,38,40,42,44,46,48,50,52,54,56,58,60,62,64,66,68,70,72,74,76,78,80,82,84,86,88,90,92,94,96,98,100,102,104,106,108,110,112,114,116,118,120,122,124,126,-1,-1,-1,-1,-1,-1,-1,-1,-1,-1,-1,-1,-1,-1,-1,-1,-1,-1,-1,-1,-1,-1,-1,-1,-1,-1,-1,-1,-1,-1,-1,-1,-1,-1,-1,-1,-1,-1,-1,-1,-1,-1,-1,-1,-1,-1,-1,-1,-1,-1,-1,-1,-1,-1,-1,-1,-1,-1,-1,-1,-1,-1,-1,-1],"split_conditions":[9E0,1.5070912E-1,1.4397721E-1,1E0,1.41E2,-1.6802157E-1,4.5329908E-1,2E0,5.5313E-2,2.765319E-1,2E0,2.6E1,1.6E1,2E0,2E0,2.8802725E-2,7.989798E-3,-1.1075533E-1,2E0,1E0,2E0,1E-45,1E0,-2.891905E-1,-2.8478405E-1,1E0,1E-45,1E0,1E-45,2.7E1,6E0,1.22E2,1E-45,-2.3404296E-1,1E-45,1E0,2E0,1E0,1E0,1E0,1.35E2,1E-45,1E0,1E-45,1E0,2.765319E-1,1E0,1E0,1E-45,1E-45,1E-45,5E1,2.8E2,1E0,1E0,1.5E1,5.1E1,3.649795E-1,3.231633E-1,1.4E1,1.08E2,1.8E1,1E-45,3.1688969E1,3.4727166E0,6.954284E1,3.1149378E1,1.7968218E1,5.4438446E1,7.065774E1,1.0741155E2,1.1861391E2,5.2784492E1,9.9871056E1,1.5077582E2,2.012942E2,1.5242912E2,2.0506725E2,2.919133E2,3.876231E1,1.1841451E2,1.5673677E2,2.4241199E2,1.5619096E2,5.2402863E1,2.0411954E2,3.424314E2,2.5539482E2,1.3562262E2,3.2596813E1,1.2970372E2,2.0983238E2,3.1100494E2,3.1801123E2,4.136957E2,-4.8898098E1,-3.4329514E1,8.299161E0,-2.796469E1,-5.7336315E1,-7.231414E1,-3.657371E1,-5.334271E1,3.393129E1,-7.307598E-1,1.0756364E2,3.5926937E1,-1.7954905E1,3.2736965E1,-4.6656536E1,-1.5122072E1,4.861465E1,1.5379437E1,3.3771744E2,8.263881E1,1.0027765E2,1.7418451E2,5.3810635E1,9.627041E1,1.599614E2,2.5448904E1,1.0675492E2,2.787974E2,2.2847151E2,1.5391133E2,2.3947697E2,7.6098157E2],"split_indices":[0,32,32,26,4,32,32,28,32,32,28,1,1,28,28,32,32,32,28,26,28,3,26,32,32,26,18,26,18,0,28,4,18,32,17,0,28,24,9,28,5,18,26,18,26,32,20,20,18,18,18,4,4,26,20,1,4,32,32,0,1,1,18,0,0,0,0,0,0,0,0,0,0,0,0,0,0,0,0,0,0,0,0,0,0,0,0,0,0,0,0,0,0,0,0,0,0,0,0,0,0,0,0,0,0,0,0,0,0,0,0,0,0,0,0,0,0,0,0,0,0,0,0,0,0,0,0],"split_type":[0,0,0,0,0,0,0,0,0,0,0,0,0,0,0,0,0,0,0,0,0,1,0,0,0,0,1,0,1,0,0,0,1,0,1,0,0,0,0,0,0,1,0,1,0,0,0,0,1,1,1,0,0,0,0,0,0,0,0,0,0,0,1,0,0,0,0,0,0,0,0,0,0,0,0,0,0,0,0,0,0,0,0,0,0,0,0,0,0,0,0,0,0,0,0,0,0,0,0,0,0,0,0,0,0,0,0,0,0,0,0,0,0,0,0,0,0,0,0,0,0,0,0,0,0,0,0],"sum_hessian":[9.0479E4,1.5019E4,7.546E4,1.3148E4,1.871E3,6.7119E4,8.341E3,1.1503E4,1.645E3,1.033E3,8.38E2,2.0962E4,4.6157E4,6.478E3,1.863E3,4.459E3,7.044E3,1.406E3,2.39E2,5.8E2,4.53E2,4.67E2,3.71E2,9.914E3,1.1048E4,1.2175E4,3.3982E4,4.414E3,2.064E3,1.274E3,5.89E2,3.744E3,7.15E2,5.474E3,1.57E3,3.11E2,1.095E3,1.61E2,7.8E1,5.12E2,6.8E1,2.15E2,2.38E2,3.68E2,9.9E1,1.86E2,1.85E2,4.246E3,5.668E3,5.256E3,5.792E3,1.158E4,5.95E2,2.3167E4,1.0815E4,3.908E3,5.06E2,4.56E2,1.608E3,3.32E2,9.42E2,5.4E2,4.9E1,2.825E3,9.19E2,4.68E2,2.47E2,6.18E2,4.856E3,9.33E2,6.37E2,4.3E1,2.68E2,8.75E2,2.2E2,5.5E1,1.06E2,3.5E1,4.3E1,7.9E1,4.33E2,4.9E1,1.9E1,1.84E2,3.1E1,2.14E2,2.4E1,2.84E2,8.4E1,3.4E1,6.5E1,8.9E1,9.7E1,7.4E1,1.11E2,2.494E3,1.752E3,6.92E2,4.976E3,2.774E3,2.482E3,1.975E3,3.817E3,1.93E3,9.65E3,3.95E2,2E2,2.1826E4,1.341E3,8.45E3,2.365E3,1.035E3,2.873E3,2.1E1,4.85E2,3.94E2,6.2E1,1.279E3,3.29E2,1.6E1,3.16E2,9.26E2,1.6E1,2.39E2,3.01E2,3.4E1,1.5E1],"tree_param":{"num_deleted":"0","num_feature":"33","num_nodes":"127","size_leaf_vector":"1"}},{"base_weights":[9.280545E-1,1.3744579E3,-2.7859604E2,1.01919794E3,3.4231492E3,-4.7019278E2,1.1119929E3,1.692724E3,2.4849644E2,4.8032188E3,1.236627E3,3.581787E2,-7.1393475E2,1.8185552E3,-3.806346E2,1.5052377E3,2.9611797E3,4.9976346E2,-2.0878496E2,3.9243616E3,5.660148E3,2.4717305E3,6.409421E2,3.4092578E3,2.6577325E2,-5.3649536E2,-1.2994275E3,1.3868817E3,2.9821865E3,2.9713516E2,-8.2207837E2,1.0182984E3,1.8549888E3,3.724235E3,1.830511E3,3.8288547E2,1.1701025E3,-6.4910675E2,-1.0055104E2,4.150061E3,1.8394645E3,4.896353E3,6.8368667E3,2.0403417E3,3.4796926E3,3.9861682E2,2.1251262E3,4.193966E3,2.153065E3,-1.9407391E2,4.52717E2,-8.411957E2,-2.7376285E2,-1.1128348E3,-1.6032615E3,2.7336516E3,1.15102E3,2.754555E3,6.2552314E3,-2.1846579E2,6.166227E2,-6.1123535E2,-1.2154817E3,6.019412E1,3.1307379E1,1.25340614E2,7.807344E1,2.9884375E2,1.7212608E2,8.392795E1,1.6257501E2,1.4461736E1,4.026516E1,1.366272E2,5.0272198E1,-4.8414297E0,-3.7145504E1,-9.213408E0,2.133985E1,1.8448625E2,2.4174612E2,1.2847923E2,4.5748177E1,1.9452475E2,2.8767255E2,3.081048E2,3.798993E2,1.355535E2,8.511621E1,2.0304062E2,1.2528345E2,2.6882385E1,-1.20211115E1,5.019789E1,1.4812663E2,1.7166125E2,2.3791206E2,9.5709595E1,1.486447E2,-1.8654355E0,-2.9336859E1,3.787261E1,1.04821E1,-3.1746702E1,-5.3271313E1,1.2478049E1,-1.9938416E1,-5.782485E1,-1.4318664E1,-7.405214E1,-9.294609E1,2.7163367E2,1.26563866E2,4.495056E1,8.6335106E1,1.0674229E2,1.6849803E2,2.5366801E2,5.6008984E2,8.276274E0,-3.0422285E1,8.835955E1,2.3432661E1,-3.436871E1,3.609158E1,-3.673306E1,-6.602283E1],"categories":[0,1,2,3,4,5,6,7,8,9,11,12,13,14,15,16,17,18,19,20,21,23,24,25,26,29,30,31,32,33,35,36,37,38,39,40,41,42,43,46,47,48,51,53,55,56,57,58,60,61,62,63,64,66,67,68,69,70,71,72,0,1,2,3,4,6,7,8,9,11,12,13,14,15,16,17,18,19,20,21,22,23,24,25,26,27,28,29,30,31,32,33,34,35,36,37,38,39,40,41,42,43,44,45,46,47,48,49,50,51,53,54,55,56,57,58,59,60,61,62,63,64,65,66,67,68,69,70,71,72,73,0,1,2,3,4,5,6,7,8,9,11,12,13,14,15,16,17,18,19,20,21,23,26,29,31,33,34,35,36,37,38,39,40,41,43,44,47,48,51,53,55,56,57,58,59,60,61,62,63,67,68,69,70,71,0,1,2,3,4,6,7,8,9,11,12,13,14,15,16,17,18,19,20,21,23,24,25,26,27,28,29,30,31,32,33,35,36,37,38,39,40,41,42,43,44,45,46,47,48,50,53,55,56,57,58,59,60,61,62,63,64,65,66,67,68,69,70,71,73,0,2,3,4,7,8,9,10,11,12,13,15,21,26,29,38,40,47,63,70,71,0,1,2,3,4,5,6,7,8,9,10,11,12,13,14,15,16,17,18,19,20,21,22,23,24,25,26,27,28,29,30,31,32,33,35,36,37,38,39,40,41,42,43,44,45,46,47,48,49,50,51,52,53,54,55,57,58,59,60,61,62,63,64,65,66,67,68,69,70,71,72,73,0,1,2,3,4,5,6,7,8,9,10,11,12,13,14,15,16,17,18,19,20,21,22,23,24,25,26,27,28,29,30,31,32,33,34,35,36,37,38,39,40,41,42,43,44,45,46,47,48,50,51,52,53,55,56,57,58,59,60,61,62,63,64,65,66,67,68,69,70,71,72,73,2,3,4,7,8,9,11,12,13,15,16,18,19,20,21,26,29,31,33,36,37,38,40,41,43,47,53,55,57,58,59,60,62,63,67,68,69,70,71,1,2,3,4,5,6,7,8,9,10,11,12,13,14,15,16,17,18,19,20,21,22,23,24,25,26,27,28,30,31,32,33,34,35,36,37,38,39,40,41,42,44,45,46,47,48,49,50,51,52,53,54,55,57,58,59,60,61,62,63,64,66,67,68,69,70,71,72,0,1,2,3,4,5,6,7,8,9,10,11,12,13,14,15,16,17,18,19,20,21,23,24,25,26,27,29,30,31,32,33,35,36,37,38,39,40,41,42,43,44,45,46,47,48,50,51,53,55,56,57,58,59,60,61,62,63,64,65,66,67,68,69,70,71,72,73,1,0,1,2,3,4,5,6,7,8,9,10,11,12,13,14,15,16,17,18,19,20,21,22,23,24,25,26,27,28,29,30,31,32,33,34,35,36,37,38,39,40,41,42,43,44,45,46,47,48,50,51,52,53,54,55,56,57,58,59,60,61,62,63,64,65,66,67,68,69,70,71,72,73,0,1,2,3,4,5,6,7,8,9,10,11,12,13,14,15,16,17,18,19,20,21,23,24,25,26,27,28,29,30,31,32,33,34,35,36,37,38,39,40,41,42,43,44,45,46,47,48,50,51,53,54,55,56,57,58,59,60,61,62,63,64,65,66,67,68,69,70,71,72,73,4,7,8,18,26,40,47,68,0,1,2,3,4,5,6,7,8,9,11,12,13,14,15,16,17,18,19,20,21,22,23,24,25,26,27,28,29,30,31,32,33,34,35,36,37,38,39,40,41,42,43,44,45,46,47,48,49,50,51,53,54,55,56,57,58,59,60,61,62,63,64,65,66,67,68,69,70,71,72,73,0,1,2,3,4,5,6,7,8,9,10,11,12,13,14,15,16,17,18,19,20,21,22,23,24,25,26,27,28,29,30,31,32,33,34,35,36,37,38,39,40,41,42,43,44,45,46,47,48,50,51,53,55,56,57,58,59,60,61,62,63,64,65,66,67,68,69,70,71,72,73,0,1,2,3,4,5,6,7,8,9,10,11,12,13,14,15,16,17,18,19,20,21,22,23,24,25,26,27,28,29,30,31,32,33,34,35,36,37,38,39,40,41,42,43,44,45,46,47,48,50,51,52,53,54,55,56,57,58,59,60,61,62,63,64,65,66,67,68,69,70,71,72,73,0,1,2,3,4,5,6,7,8,9,10,11,12,13,14,15,16,17,18,19,20,21,22,23,24,25,26,27,28,29,30,31,32,33,34,35,36,37,38,39,40,41,42,43,44,45,46,47,49,50,51,52,53,54,55,57,58,59,60,61,62,63,64,65,66,67,68,69,70,71,72,73,1,2,3,1,2,3,4,5,6,7,8,9,10,11,12,13,72,1,0,1,2,3,4,5,6,7,8,9,10,11,12,13,14,15,16,17,18,19,20,21,23,24,25,26,28,29,31,32,33,34,35,36,37,38,39,40,41,42,43,44,47,48,49,51,53,54,55,56,57,58,59,60,61,62,63,64,65,66,67,68,69,70,71,72,73,2,3,4,7,9,12,18,19,31,36,37,40,41,53,55,57,62,63,67,68,71,0,1,2,3,4,5,6,7,8,9,10,11,12,13,14,15,16,17,18,19,20,21,23,24,25,26,27,28,29,30,31,32,33,34,35,36,37,38,39,40,41,42,43,44,45,46,47,48,50,51,52,53,54,55,56,57,58,59,60,61,62,63,64,65,66,67,68,69,70,71,72,73,0],"categories_nodes":[3,4,5,6,8,10,11,12,14,16,19,23,27,30,31,32,33,36,44,45,47,50,54,55,59],"categories_segments":[0,60,131,185,250,271,343,415,454,522,590,591,664,735,743,815,886,959,1031,1034,1048,1049,1116,1137,1209],"categories_sizes":[60,71,54,65,21,72,72,39,68,68,1,73,71,8,72,71,73,72,3,14,1,67,21,72,1],"default_left":[0,0,0,1,0,1,0,0,1,0,0,0,1,0,0,0,0,0,0,1,0,0,0,0,0,0,0,0,0,0,1,0,0,0,0,0,0,0,0,0,0,0,0,0,1,1,0,1,0,0,0,0,0,0,1,0,0,0,0,1,0,0,0,0,0,0,0,0,0,0,0,0,0,0,0,0,0,0,0,0,0,0,0,0,0,0,0,0,0,0,0,0,0,0,0,0,0,0,0,0,0,0,0,0,0,0,0,0,0,0,0,0,0,0,0,0,0,0,0,0,0,0,0,0,0,0,0],"id":3,"left_children":[1,3,5,7,9,11,13,15,17,19,21,23,25,27,29,31,33,35,37,39,41,43,45,47,49,51,53,55,57,59,61,63,65,67,69,71,73,75,77,79,81,83,85,87,89,91,93,95,97,99,101,103,105,107,109,111,113,115,117,119,121,123,125,-1,-1,-1,-1,-1,-1,-1,-1,-1,-1,-1,-1,-1,-1,-1,-1,-1,-1,-1,-1,-1,-1,-1,-1,-1,-1,-1,-1,-1,-1,-1,-1,-1,-1,-1,-1,-1,-1,-1,-1,-1,-1,-1,-1,-1,-1,-1,-1,-1,-1,-1,-1,-1,-1,-1,-1,-1,-1,-1,-1,-1,-1,-1,-1],"loss_changes":[3.4775265E10,1.1143772E10,2.0052216E10,6.7757486E9,6.822783E9,1.3355923E10,9.612629E9,1.652183E9,6.997288E8,1.0223616E9,6.436531E8,4.2391352E9,5.3089894E9,3.103146E9,8.76593E8,1.0320476E9,7.662177E8,3.07459E8,1.0287548E8,3.1611085E8,5.956649E8,1.1682496E8,2.1242851E8,4.2666957E8,1.2550129E9,3.139835E9,6.720717E8,1.4307308E9,1.2292362E9,1.9056035E8,1.4640397E8,1.8409984E8,6.7184026E8,3.1830016E8,7.292198E7,1.3221312E8,1.4724064E8,2.1997216E7,7.6675544E7,1.7762509E8,4.422371E7,3.4660352E8,9.338778E7,4.118189E7,3.737107E7,4.5529656E7,7.495222E7,9.999514E7,2.799296E7,2.5974416E8,7.686501E8,8.392735E8,1.3780712E9,2.6550784E8,1.3848064E8,3.5330355E8,5.5597875E8,5.9003494E8,5.745592E8,6.6439464E7,1.207296E8,1.179295E8,3.0222784E7,0E0,0E0,0E0,0E0,0E0,0E0,0E0,0E0,0E0,0E0,0E0,0E0,0E0,0E0,0E0,0E0,0E0,0E0,0E0,0E0,0E0,0E0,0E0,0E0,0E0,0E0,0E0,0E0,0E0,0E0,0E0,0E0,0E0,0E0,0E0,0E0,0E0,0E0,0E0,0E0,0E0,0E0,0E0,0E0,0E0,0E0,0E0,0E0,0E0,0E0,0E0,0E0,0E0,0E0,0E0,0E0,0E0,0E0,0E0,0E0,0E0,0E0,0E0,0E0],"parents":[2147483647,0,0,1,1,2,2,3,3,4,4,5,5,6,6,7,7,8,8,9,9,10,10,11,11,12,12,13,13,14,14,15,15,16,16,17,17,18,18,19,19,20,20,21,21,22,22,23,23,24,24,25,25,26,26,27,27,28,28,29,29,30,30,31,31,32,32,33,33,34,34,35,35,36,36,37,37,38,38,39,39,40,40,41,41,42,42,43,43,44,44,45,45,46,46,47,47,48,48,49,49,50,50,51,51,52,52,53,53,54,54,55,55,56,56,57,57,58,58,59,59,60,60,61,61,62,62],"right_children":[2,4,6,8,10,12,14,16,18,20,22,24,26,28,30,32,34,36,38,40,42,44,46,48,50,52,54,56,58,60,62,64,66,68,70,72,74,76,78,80,82,84,86,88,90,92,94,96,98,100,102,104,106,108,110,112,114,116,118,120,122,124,126,-1,-1,-1,-1,-1,-1,-1,-1,-1,-1,-1,-1,-1,-1,-1,-1,-1,-1,-1,-1,-1,-1,-1,-1,-1,-1,-1,-1,-1,-1,-1,-1,-1,-1,-1,-1,-1,-1,-1,-1,-1,-1,-1,-1,-1,-1,-1,-1,-1,-1,-1,-1,-1,-1,-1,-1,-1,-1,-1,-1,-1,-1,-1,-1],"split_conditions":[1.1E1,1.2060299E-1,1.2596107E-1,1E-45,1E-45,1E-45,1E-45,1E0,1E-45,2E0,1E-45,1E-45,1E-45,4.1845626E-1,1E-45,-9.099218E-2,1E-45,1E0,-1.2813064E-1,1E-45,3E0,2.765319E-1,1E0,1E-45,-1.440579E-1,-1.19620636E-1,3.5E1,1E-45,5E0,1E0,1E-45,1E-45,1E-45,1E-45,5.5313E-2,2.3068024E-3,1E-45,2E0,5E0,3.0661565E-1,3E0,2.4256252E-1,2E2,6.2E1,1E-45,1E-45,3E0,1E-45,1E0,4.7E1,1E-45,2.9E1,6E0,1E0,1E-45,1E-45,2E0,1E0,1E0,1E-45,4.5E1,1E0,1.6E1,6.019412E1,3.1307379E1,1.25340614E2,7.807344E1,2.9884375E2,1.7212608E2,8.392795E1,1.6257501E2,1.4461736E1,4.026516E1,1.366272E2,5.0272198E1,-4.8414297E0,-3.7145504E1,-9.213408E0,2.133985E1,1.8448625E2,2.4174612E2,1.2847923E2,4.5748177E1,1.9452475E2,2.8767255E2,3.081048E2,3.798993E2,1.355535E2,8.511621E1,2.0304062E2,1.2528345E2,2.6882385E1,-1.20211115E1,5.019789E1,1.4812663E2,1.7166125E2,2.3791206E2,9.5709595E1,1.486447E2,-1.8654355E0,-2.9336859E1,3.787261E1,1.04821E1,-3.1746702E1,-5.3271313E1,1.2478049E1,-1.9938416E1,-5.782485E1,-1.4318664E1,-7.405214E1,-9.294609E1,2.7163367E2,1.26563866E2,4.495056E1,8.6335106E1,1.0674229E2,1.6849803E2,2.5366801E2,5.6008984E2,8.276274E0,-3.0422285E1,8.835955E1,2.3432661E1,-3.436871E1,3.609158E1,-3.673306E1,-6.602283E1],"split_indices":[0,32,32,31,31,31,31,26,31,28,31,31,31,32,31,32,31,26,32,3,19,32,26,31,32,32,1,31,28,28,31,31,31,31,32,32,31,25,28,32,0,32,5,5,17,31,19,3,26,1,31,1,1,26,31,31,28,28,12,31,5,26,1,0,0,0,0,0,0,0,0,0,0,0,0,0,0,0,0,0,0,0,0,0,0,0,0,0,0,0,0,0,0,0,0,0,0,0,0,0,0,0,0,0,0,0,0,0,0,0,0,0,0,0,0,0,0,0,0,0,0,0,0,0,0,0,0],"split_type":[0,0,0,1,1,1,1,0,1,0,1,1,1,0,1,0,1,0,0,1,0,0,0,1,0,0,0,1,0,0,1,1,1,1,0,0,1,0,0,0,0,0,0,0,1,1,0,1,0,0,1,0,0,0,1,1,0,0,0,1,0,0,0,0,0,0,0,0,0,0,0,0,0,0,0,0,0,0,0,0,0,0,0,0,0,0,0,0,0,0,0,0,0,0,0,0,0,0,0,0,0,0,0,0,0,0,0,0,0,0,0,0,0,0,0,0,0,0,0,0,0,0,0,0,0,0,0],"sum_hessian":[9.0574E4,1.5315E4,7.5259E4,1.3053E4,2.262E3,6.6146E4,9.113E3,6.965E3,6.088E3,1.386E3,8.76E2,1.5038E4,5.1108E4,6.185E3,2.928E3,6.07E3,8.95E2,3.929E3,2.159E3,6.87E2,6.99E2,2.84E2,5.92E2,4.41E2,1.4597E4,3.9223E4,1.1885E4,4.513E3,1.672E3,1.155E3,1.773E3,2.539E3,3.531E3,5.33E2,3.62E2,3.347E3,5.82E2,4.25E2,1.734E3,6.19E2,6.8E1,4.27E2,2.72E2,2.01E2,8.3E1,5.1E2,8.2E1,2.7E2,1.71E2,4.219E3,1.0378E4,1.816E4,2.1063E4,7.366E3,4.519E3,6.71E2,3.842E3,1.565E3,1.07E2,4.42E2,7.13E2,1.156E3,6.17E2,1.722E3,8.17E2,1.094E3,2.437E3,5.7E1,4.76E2,3.29E2,3.3E1,2.741E3,6.06E2,5.4E1,5.28E2,6.2E1,3.63E2,1.497E3,2.37E2,3.74E2,2.45E2,3.7E1,3.1E1,1.99E2,2.28E2,1.49E2,1.23E2,6.5E1,1.36E2,5E1,3.3E1,4.19E2,9.1E1,3.6E1,4.6E1,1.18E2,1.52E2,1.35E2,3.6E1,3.016E3,1.203E3,4.604E3,5.774E3,9.461E3,8.699E3,4.061E3,1.7002E4,6.996E3,3.7E2,3.062E3,1.457E3,4.5E1,6.26E2,2.674E3,1.168E3,7.82E2,7.83E2,8.8E1,1.9E1,2.23E2,2.19E2,8E1,6.33E2,1.094E3,6.2E1,1.12E2,5.05E2],"tree_param":{"num_deleted":"0","num_feature":"33","num_nodes":"127","size_leaf_vector":"1"}},{"base_weights":[9.547464E-1,1.3140265E3,-2.6080847E2,9.789122E2,3.2327969E3,-4.307234E2,1.1211758E3,1.6149364E3,2.4322998E2,4.5103047E3,1.187103E3,3.6700275E2,-6.6565845E2,1.764878E3,-3.779571E2,1.3105734E3,2.3359001E3,4.8155045E2,-1.9766522E2,5.347521E3,4.092254E3,2.3860332E3,5.686617E2,2.857138E3,2.548985E2,-4.9591864E2,-1.2326823E3,1.3679326E3,2.9413967E3,2.9759433E2,-7.576632E2,9.625974E2,1.5879722E3,3.3306084E3,1.7481298E3,4.2589447E2,1.4996766E3,-5.4460754E2,-9.182722E1,4.597524E3,6.374779E3,2.9849185E3,4.4570396E3,2.1938894E3,2.2201146E2,3.6063483E2,1.9743145E3,3.8933435E3,2.0428561E3,-9.069126E1,5.278306E2,-7.7976184E2,-2.3092747E2,-1.0001783E3,-1.4796881E3,2.7895547E3,1.130818E3,4.0086506E3,2.5505476E3,7.094754E1,9.895747E2,-9.254078E2,-2.07751E2,2.2317236E2,4.6374084E1,9.850743E1,6.90248E1,1.3998108E2,2.0058542E2,8.311471E1,1.2782845E2,7.0134514E1,1.899093E1,1.08649796E2,3.215344E1,-4.1606717E0,-3.197138E1,-1.3512381E0,-2.9279047E1,1.9429695E2,2.7420886E2,2.842474E2,3.8480634E2,1.2279103E2,1.9672052E2,2.3255223E2,1.0887868E2,1.4203607E2,9.062951E1,2.4762316E1,-6.3777485E0,4.6436283E1,1.5731755E2,1.5848672E2,2.214406E2,1.197667E2,5.59147E1,1.3999137E1,-1.3545982E1,4.550385E1,1.2642821E1,-2.8024143E1,-4.9471046E1,1.4535339E1,-1.7798704E1,-5.2138447E1,-1.0001788E1,-7.7882164E1,-5.2694374E1,2.6235382E2,1.3002974E2,4.442465E1,7.376514E1,1.7143442E2,3.624661E2,6.9790215E1,1.3885393E2,4.5286495E1,-9.240081E0,3.647617E1,1.3385854E2,-2.692338E1,-5.583926E1,-1.7709625E1,5.082841E1],"categories":[0,1,2,3,4,5,6,7,8,9,11,12,13,14,15,16,17,18,19,21,23,24,25,26,29,30,31,32,33,35,36,37,38,39,40,41,42,43,44,46,47,48,51,53,55,56,57,58,59,60,61,62,63,64,66,67,68,69,70,71,72,0,1,2,3,4,6,7,8,9,11,12,13,14,15,16,17,18,19,20,21,22,23,24,25,26,27,28,29,30,31,32,33,34,35,36,37,38,39,40,41,42,43,44,45,46,47,48,49,50,51,53,54,55,56,57,58,59,60,61,62,63,64,65,66,67,68,69,70,71,72,73,0,1,2,3,4,5,6,7,8,9,11,12,13,14,15,16,17,18,19,20,21,23,26,29,31,33,34,35,36,37,38,40,41,43,44,47,48,51,53,55,56,57,58,59,60,61,62,63,67,68,69,70,71,73,0,1,2,3,4,6,7,8,9,11,12,13,14,15,16,17,18,19,20,21,23,24,25,26,27,28,29,30,31,32,33,35,36,37,38,39,40,41,42,43,44,45,46,47,48,50,53,55,56,57,58,59,60,61,62,63,64,66,67,68,69,70,71,0,1,2,3,4,7,8,9,10,11,12,13,15,16,17,18,19,20,21,22,23,24,25,26,27,28,29,30,31,32,33,34,35,36,37,38,39,40,41,42,43,47,63,0,1,2,3,4,5,6,7,8,9,10,11,12,13,14,15,16,17,18,19,20,21,22,23,24,25,26,27,28,29,30,31,32,33,34,35,36,37,38,39,40,41,42,43,44,45,46,47,48,49,50,51,53,54,55,56,57,58,59,60,61,62,63,64,65,66,67,68,69,70,71,72,73,0,1,2,3,4,5,6,7,8,9,10,11,12,13,14,15,16,17,18,19,20,21,22,23,24,25,26,27,28,29,30,31,32,33,35,36,37,38,39,40,41,42,43,44,45,46,47,48,49,50,51,52,53,54,55,57,58,59,60,61,62,63,64,65,66,67,68,69,70,71,72,73,0,1,2,3,4,5,6,7,8,9,10,11,12,13,14,15,16,17,18,19,20,21,23,24,25,26,27,28,29,30,31,32,33,34,35,36,37,38,39,40,41,42,43,44,45,46,47,48,50,51,52,53,55,56,57,58,59,60,61,62,63,64,65,66,67,68,69,70,71,72,73,2,3,4,7,8,9,11,12,13,15,16,18,19,20,21,26,29,31,33,36,37,38,40,41,43,47,53,55,57,58,60,62,63,67,68,69,70,71,1,2,3,4,5,6,7,8,9,10,11,12,13,14,15,16,17,18,19,20,21,22,23,24,25,26,27,28,29,30,31,32,33,34,35,36,37,38,39,40,41,42,43,44,45,46,47,48,49,50,51,52,53,54,55,57,58,59,60,61,62,63,64,65,66,67,68,69,70,71,72,73,0,1,2,3,4,5,6,7,8,9,10,11,12,13,14,15,16,17,18,19,20,21,22,23,24,25,26,27,29,30,31,32,33,34,35,36,37,38,39,40,41,42,43,44,45,46,47,48,50,51,53,55,56,57,58,59,60,61,62,63,64,65,66,67,68,69,70,71,72,73,0,1,2,3,4,5,6,7,8,9,10,11,12,13,14,15,16,17,18,19,20,21,22,23,24,25,26,27,28,29,30,31,32,33,34,35,36,37,38,39,40,41,42,43,44,45,46,47,48,50,51,52,53,54,55,56,57,58,59,60,61,62,63,64,65,66,67,68,69,70,71,72,73,17,18,19,20,0,1,2,3,4,5,6,7,8,9,10,11,12,13,14,15,16,17,18,19,20,21,23,24,25,26,27,28,29,30,31,32,33,34,35,36,37,38,39,40,41,42,43,44,45,46,47,48,50,51,53,54,55,56,57,58,59,60,61,62,63,64,65,66,67,68,69,70,71,72,73,0,1,2,3,4,5,6,7,8,9,10,11,12,13,14,15,16,17,18,19,20,21,22,23,24,25,26,27,28,29,30,31,32,33,34,35,36,37,38,39,40,41,42,43,44,45,46,47,48,50,51,52,53,54,55,56,57,58,59,60,61,62,63,64,65,66,67,68,69,70,71,72,73,0,1,2,3,4,5,6,7,8,9,10,11,12,13,14,15,16,17,18,19,20,21,22,23,24,25,26,27,28,29,30,31,32,33,34,35,36,37,38,39,40,41,42,43,44,45,46,47,48,49,50,51,53,55,56,57,58,59,60,61,62,63,64,65,66,67,68,69,70,71,72,73,0,1,2,3,4,6,7,8,9,10,11,12,13,14,15,16,17,18,19,20,21,22,23,24,25,26,27,28,29,30,31,32,33,34,35,36,37,38,39,40,41,42,43,44,45,46,47,48,49,50,51,52,53,54,55,57,58,59,60,61,62,63,64,65,66,67,68,69,70,71,72,73,7,13,15,40,47,1,1,2,3,4,5,6,7,8,9,10,11,12,13,16,17,18,19,21,22,23,24,25,26,27,28,29,30,31,32,33,34,35,36,37,39,40,41,42,43,72,1,1,0,1,2,3,4,5,6,7,8,9,10,12,17,18,19,0,1,2,3,4,5,6,7,8,9,10,16,17,18,19,20,0,1,2,3,4,5,6,7,8,9,10,11,12,13,14,15,16,17,18,19,20,21,22,23,24,25,26,28,29,31,32,33,34,35,36,37,38,39,40,41,42,43,44,47,48,49,50,51,53,54,55,56,57,58,59,60,61,62,63,64,65,66,67,68,69,70,71,72,73,7,9,17,18,19,20,0,1,2,3,4,5,6,7,8,9,10,11,12,13,14,15,16,17,18,19,20,21,23,24,25,26,27,28,29,30,31,32,33,34,35,36,37,38,39,40,41,42,43,44,45,46,47,48,50,51,52,53,54,55,56,57,58,59,60,61,62,63,64,65,66,67,68,69,70,71,72,73,14,16,17,18,19,20],"categories_nodes":[3,4,5,6,8,9,10,11,12,14,16,23,26,27,31,32,36,38,42,45,46,47,48,49,50,51,55,61],"categories_segments":[0,61,132,186,249,292,365,437,508,546,618,688,761,765,836,909,981,1053,1058,1059,1099,1100,1101,1116,1132,1201,1207,1279],"categories_sizes":[61,71,54,63,43,73,72,71,38,72,70,73,4,71,73,72,72,5,1,40,1,1,15,16,69,6,72,6],"default_left":[0,0,0,1,0,1,1,0,1,0,0,0,1,0,0,0,0,0,0,0,0,0,0,0,0,0,0,0,0,0,0,0,0,0,0,0,0,0,1,0,0,0,1,0,0,1,1,1,1,0,0,0,0,0,0,0,0,0,0,0,0,0,0,0,0,0,0,0,0,0,0,0,0,0,0,0,0,0,0,0,0,0,0,0,0,0,0,0,0,0,0,0,0,0,0,0,0,0,0,0,0,0,0,0,0,0,0,0,0,0,0,0,0,0,0,0,0,0,0,0,0,0,0,0,0],"id":4,"left_children":[1,3,5,7,9,11,13,15,17,19,21,23,25,27,29,31,33,35,37,39,41,43,45,47,49,51,53,55,57,59,61,63,65,67,69,71,73,75,77,79,81,83,85,87,-1,89,91,93,95,97,99,101,103,105,107,109,111,113,115,117,119,121,123,-1,-1,-1,-1,-1,-1,-1,-1,-1,-1,-1,-1,-1,-1,-1,-1,-1,-1,-1,-1,-1,-1,-1,-1,-1,-1,-1,-1,-1,-1,-1,-1,-1,-1,-1,-1,-1,-1,-1,-1,-1,-1,-1,-1,-1,-1,-1,-1,-1,-1,-1,-1,-1,-1,-1,-1,-1,-1,-1,-1,-1,-1],"loss_changes":[3.1034614E10,9.647088E9,1.7678651E10,5.978583E9,5.82512E9,1.2564841E10,7.955122E9,1.5007232E9,6.227658E8,4.5866394E8,6.3556416E8,4.257219E9,4.9839964E9,2.6892452E9,6.356032E8,4.638331E8,1.1827917E9,2.1735085E8,7.632695E7,3.204731E8,3.5832115E8,1.0551142E8,1.6537888E8,5.463992E8,1.376874E9,2.997928E9,6.8371456E8,1.4510408E9,5.9629056E8,1.3982672E8,1.4610797E8,2.590638E8,2.0986317E8,2.6145587E8,8.457318E7,1.6369664E8,1.1337994E8,2.1208992E7,5.101851E7,1.4651597E8,1.2852275E8,1.0638618E8,2.9500928E8,6.119616E7,0E0,3.265828E7,8.653709E7,9.755341E7,1.1789978E8,4.3043994E8,8.570299E8,8.8421274E8,1.3448558E9,2.0934093E8,1.9031552E8,2.7240806E8,3.0747187E8,7.0437734E8,2.7523533E8,1.4384944E8,9.459648E7,8.937133E7,6.7056364E7,0E0,0E0,0E0,0E0,0E0,0E0,0E0,0E0,0E0,0E0,0E0,0E0,0E0,0E0,0E0,0E0,0E0,0E0,0E0,0E0,0E0,0E0,0E0,0E0,0E0,0E0,0E0,0E0,0E0,0E0,0E0,0E0,0E0,0E0,0E0,0E0,0E0,0E0,0E0,0E0,0E0,0E0,0E0,0E0,0E0,0E0,0E0,0E0,0E0,0E0,0E0,0E0,0E0,0E0,0E0,0E0,0E0,0E0,0E0,0E0,0E0,0E0],"parents":[2147483647,0,0,1,1,2,2,3,3,4,4,5,5,6,6,7,7,8,8,9,9,10,10,11,11,12,12,13,13,14,14,15,15,16,16,17,17,18,18,19,19,20,20,21,21,22,22,23,23,24,24,25,25,26,26,27,27,28,28,29,29,30,30,31,31,32,32,33,33,34,34,35,35,36,36,37,37,38,38,39,39,40,40,41,41,42,42,43,43,45,45,46,46,47,47,48,48,49,49,50,50,51,51,52,52,53,53,54,54,55,55,56,56,57,57,58,58,59,59,60,60,61,61,62,62],"right_children":[2,4,6,8,10,12,14,16,18,20,22,24,26,28,30,32,34,36,38,40,42,44,46,48,50,52,54,56,58,60,62,64,66,68,70,72,74,76,78,80,82,84,86,88,-1,90,92,94,96,98,100,102,104,106,108,110,112,114,116,118,120,122,124,-1,-1,-1,-1,-1,-1,-1,-1,-1,-1,-1,-1,-1,-1,-1,-1,-1,-1,-1,-1,-1,-1,-1,-1,-1,-1,-1,-1,-1,-1,-1,-1,-1,-1,-1,-1,-1,-1,-1,-1,-1,-1,-1,-1,-1,-1,-1,-1,-1,-1,-1,-1,-1,-1,-1,-1,-1,-1,-1,-1,-1,-1],"split_conditions":[9E0,1.2060299E-1,1.4397721E-1,1E-45,1E-45,1E-45,1E-45,-6.2796106E-3,1E-45,1E-45,1E-45,1E-45,1E-45,4.5329908E-1,1E-45,-1.19620636E-1,1E-45,6.8991184E-2,-9.45568E-2,3E0,1.9281417E-1,4.9241963E-1,1E0,1E-45,-9.099218E-2,-1.0440182E-1,1E-45,1E-45,8E0,1E0,1E0,1E-45,1E-45,1.5E2,3E0,4.3E1,1E-45,2E0,1E-45,2.765319E-1,1E0,3E0,1E-45,6.2E1,2.2201146E2,1E-45,1E-45,1E-45,1E-45,1E-45,1E-45,1E-45,6E0,1E0,1E0,1E-45,2.641749E-1,1E0,2.5E1,5.3E1,3.649795E-1,1E-45,1.5E3,2.2317236E2,4.6374084E1,9.850743E1,6.90248E1,1.3998108E2,2.0058542E2,8.311471E1,1.2782845E2,7.0134514E1,1.899093E1,1.08649796E2,3.215344E1,-4.1606717E0,-3.197138E1,-1.3512381E0,-2.9279047E1,1.9429695E2,2.7420886E2,2.842474E2,3.8480634E2,1.2279103E2,1.9672052E2,2.3255223E2,1.0887868E2,1.4203607E2,9.062951E1,2.4762316E1,-6.3777485E0,4.6436283E1,1.5731755E2,1.5848672E2,2.214406E2,1.197667E2,5.59147E1,1.3999137E1,-1.3545982E1,4.550385E1,1.2642821E1,-2.8024143E1,-4.9471046E1,1.4535339E1,-1.7798704E1,-5.2138447E1,-1.0001788E1,-7.7882164E1,-5.2694374E1,2.6235382E2,1.3002974E2,4.442465E1,7.376514E1,1.7143442E2,3.624661E2,6.9790215E1,1.3885393E2,4.5286495E1,-9.240081E0,3.647617E1,1.3385854E2,-2.692338E1,-5.583926E1,-1.7709625E1,5.082841E1],"split_indices":[0,32,32,31,31,31,31,32,31,31,31,31,31,32,31,32,31,32,32,19,32,32,26,31,32,32,18,31,1,9,9,31,31,5,19,5,31,25,31,32,9,19,3,5,0,31,3,3,18,18,31,18,1,26,9,31,32,12,0,5,32,18,5,0,0,0,0,0,0,0,0,0,0,0,0,0,0,0,0,0,0,0,0,0,0,0,0,0,0,0,0,0,0,0,0,0,0,0,0,0,0,0,0,0,0,0,0,0,0,0,0,0,0,0,0,0,0,0,0,0,0,0,0,0,0],"split_type":[0,0,0,1,1,1,1,0,1,1,1,1,1,0,1,0,1,0,0,0,0,0,0,1,0,0,1,1,0,0,0,1,1,0,0,0,1,0,1,0,0,0,1,0,0,1,1,1,1,1,1,1,0,0,0,1,0,0,0,0,0,1,0,0,0,0,0,0,0,0,0,0,0,0,0,0,0,0,0,0,0,0,0,0,0,0,0,0,0,0,0,0,0,0,0,0,0,0,0,0,0,0,0,0,0,0,0,0,0,0,0,0,0,0,0,0,0,0,0,0,0,0,0,0,0],"sum_hessian":[9.029E4,1.5007E4,7.5283E4,1.2777E4,2.23E3,6.7041E4,8.242E3,6.852E3,5.925E3,1.372E3,8.58E2,1.5252E4,5.1789E4,5.766E3,2.476E3,4.82E3,2.032E3,3.846E3,2.079E3,4.53E2,9.19E2,2.91E2,5.67E2,6.56E2,1.4596E4,3.9859E4,1.193E4,4.313E3,1.453E3,8.91E2,1.585E3,2.14E3,2.68E3,7.53E2,1.279E3,3.648E3,1.98E2,4.85E2,1.594E3,2.65E2,1.88E2,2.3E2,6.89E2,2.68E2,2.3E1,4.95E2,7.2E1,2.87E2,3.69E2,6.441E3,8.155E3,1.9244E4,2.0615E4,6.148E3,5.782E3,6.15E2,3.698E3,3.87E2,1.066E3,6.72E2,2.19E2,1.214E3,3.71E2,2E1,2.12E3,9.4E2,1.74E3,4.26E2,3.27E2,1.159E3,1.2E2,1.63E2,3.485E3,1.1E2,8.8E1,8.3E1,4.02E2,1.41E3,1.84E2,1.5E2,1.15E2,1.27E2,6.1E1,1.5E2,8E1,6.34E2,5.5E1,9.7E1,1.71E2,3.88E2,1.07E2,3.9E1,3.3E1,1.25E2,1.62E2,2.66E2,1.03E2,2.107E3,4.334E3,3.411E3,4.744E3,9.408E3,9.836E3,3.986E3,1.6629E4,5.837E3,3.11E2,4.885E3,8.97E2,4.2E1,5.73E2,2.173E3,1.525E3,3.3E2,5.7E1,1.76E2,8.9E2,1.57E2,5.15E2,1.91E2,2.8E1,4.03E2,8.11E2,3.32E2,3.9E1],"tree_param":{"num_deleted":"0","num_feature":"33","num_nodes":"125","size_leaf_vector":"1"}},{"base_weights":[-1.1989862E0,-2.415827E2,1.1954294E3,6.354879E2,-5.1884015E2,1.920829E3,-2.0051253E2,1.3635938E3,1.9979037E2,2.2885909E2,-6.860431E2,3.9424392E3,1.5008778E3,2.5729227E2,-6.6393524E2,3.3258252E3,1.273406E3,2.3973953E3,9.48238E1,6.7765137E2,-8.440757E1,-5.3393945E2,-1.2045962E3,3.3726035E3,4.891644E3,1.0693422E3,2.4693318E3,1.13964806E2,8.426968E2,-2.795784E2,-9.5881287E2,4.4856846E3,2.668164E3,8.7618866E2,1.5555073E3,3.4272712E3,1.7662671E3,-2.7770016E2,2.839573E2,1.9032909E3,5.593824E2,1.5401985E2,-3.4012927E2,-7.9308905E2,-3.0515582E2,-9.7924084E2,-1.4102229E3,2.881913E3,4.426541E3,3.9729363E3,5.6133857E3,2.3554246E3,8.119549E2,1.9895042E3,3.3286157E3,1.4205743E3,5.6589127E1,1.251417E3,5.449869E2,2.927379E2,-5.1552264E2,-7.955618E2,-1.2094337E3,1.9519835E2,3.0215778E2,1.9408948E2,1.12400566E2,9.98296E1,3.9515404E1,9.738781E1,5.9122192E1,2.0866943E2,1.2643522E2,6.670925E1,1.0700055E2,-2.0597033E1,3.9714622E0,9.838119E0,4.7700512E1,6.208854E1,1.18895134E2,1.556665E1,4.5814983E1,1.7024755E1,-1.5242607E1,1.5533319E2,-1.8579645E1,-2.9973688E1,-4.736184E1,-2.0559057E1,5.0076785E0,-5.08919E1,-7.4242873E0,-7.457413E1,-4.892176E1,1.682079E2,1.0896714E2,1.6505359E2,2.7011832E2,2.1131311E2,6.4343575E1,2.5513272E2,3.4717328E2,2.3591956E2,1.0826086E2,8.686129E1,3.439019E1,2.8119302E2,9.531919E1,1.4088116E2,2.2391617E2,4.785876E1,1.7230235E2,-3.6442811E0,2.6777174E1,4.534988E1,1.17058876E2,8.013507E0,3.963929E1,2.7892246E1,2.0792763E0,-2.8816782E1,1.5492502E1,-2.9703354E1,-4.929798E1,-5.2701427E1,-7.0482346E1],"categories":[0,1,2,3,4,5,6,7,8,9,11,12,13,14,15,16,17,18,19,20,21,23,24,25,26,29,31,32,33,34,35,36,37,38,39,40,41,42,43,44,47,48,51,53,55,56,57,58,59,60,61,62,63,67,68,69,70,71,72,0,1,2,3,4,6,7,8,9,11,12,13,14,15,16,17,18,19,20,21,23,24,25,26,28,29,30,31,32,33,35,36,37,38,39,40,41,42,43,44,45,46,47,48,50,53,55,56,57,58,59,60,61,62,63,64,65,66,67,68,69,70,71,72,73,0,2,3,4,5,6,7,8,9,10,15,16,17,18,19,20,6,7,8,9,13,15,16,17,18,19,20,0,3,4,5,6,7,8,9,10,11,13,14,15,16,17,18,19,20,1,2,3,4,5,7,8,9,10,11,12,13,14,15,16,17,18,19,20,21,22,23,24,25,26,27,28,30,31,32,33,34,35,36,37,38,39,40,41,42,43,44,45,46,47,48,49,50,51,52,53,54,55,57,59,61,63,67,68,70,71,0,1,2,3,4,5,6,7,8,9,10,11,12,13,14,15,16,17,18,19,20,21,22,23,24,25,26,27,28,29,30,31,32,33,34,35,36,37,38,39,40,41,42,43,44,45,46,47,48,50,51,52,53,55,56,57,58,59,60,61,62,63,64,65,66,67,68,69,70,71,72,73,0,1,2,3,4,5,6,7,8,9,10,11,12,13,14,15,16,17,18,19,20,21,23,24,25,26,27,28,29,30,31,32,33,34,35,36,37,38,39,40,41,42,43,44,45,46,47,48,50,51,52,53,55,56,57,58,59,60,61,62,63,64,65,66,67,68,69,70,71,72,73,0,1,2,3,4,5,7,8,9,10,11,12,13,14,15,16,17,18,19,21,22,23,24,25,26,27,28,29,30,31,32,33,35,36,37,38,39,40,41,42,43,45,46,47,48,49,50,51,52,53,54,55,57,58,60,62,63,64,65,66,67,68,69,70,71,73,2,3,4,7,8,9,11,12,13,15,16,18,19,20,26,31,33,36,37,38,40,41,43,47,53,55,57,58,60,62,63,67,68,70,71,16,17,18,19,20,0,1,2,3,4,5,6,7,8,9,10,11,12,13,14,15,16,17,18,19,20,21,22,23,24,25,26,27,28,29,30,31,32,33,34,35,36,37,38,39,40,41,42,43,44,45,46,47,48,50,51,52,53,54,55,56,57,58,59,60,61,62,63,64,65,66,67,68,69,70,71,72,73,0,1,2,3,4,5,6,7,8,9,10,11,12,13,14,15,16,17,18,19,20,21,22,23,24,25,26,27,28,29,30,31,32,33,34,35,36,37,38,39,40,41,42,43,44,45,46,47,48,50,51,52,53,54,55,56,57,58,59,60,61,62,63,64,65,66,67,68,69,70,71,72,73,0,2,3,4,6,7,8,9,10,11,12,13,15,16,17,18,19,20,21,22,23,24,25,26,27,28,29,30,31,32,33,34,35,36,37,38,39,40,41,42,43,44,45,46,47,49,50,52,53,54,55,56,57,58,59,60,61,62,63,64,65,66,67,68,69,70,72,73,17,18,19,20,0,1,2,3,4,5,6,7,8,9,10,11,12,13,14,15,16,17,18,19,20,21,22,23,24,25,26,27,28,29,30,31,32,33,34,35,36,37,38,39,40,41,42,43,44,45,46,47,48,50,51,53,54,55,56,57,58,59,60,61,62,63,64,65,66,67,68,69,70,71,72,73,0,1,2,3,4,5,6,7,8,9,10,14,15,16,17,18,19,0,1,2,3,5,6,7,8,9,10,11,12,13,15,16,17,18,19,21,22,23,26,38,47,68,4,7,8,18,26,40,47,67,68,70,0,1,2,3,4,5,6,7,8,9,10,11,13,14,15,16,17,18,19,20,0,1,2,3,4,5,6,7,8,9,10,11,12,13,14,15,16,17,18,19,20,21,23,24,25,26,29,30,31,32,33,34,35,36,37,38,39,40,41,42,43,44,46,47,48,49,50,51,53,54,55,56,57,58,59,60,61,62,63,64,65,66,67,68,69,70,71,72,73,0,2,3,3,2,3,0,1,2,3,4,6,7,8,9,10,11,12,13,14,15,16,17,18,19,20,21,22,23,24,25,26,27,28,29,30,31,32,33,34,35,36,37,38,39,40,41,42,43,44,45,46,47,48,49,50,51,53,54,55,56,57,58,59,60,61,62,63,64,65,66,67,68,69,70,71,72,73,1,0,1,2,3,4,5,6,7,8,9,10,11,12,13,14,15,16,17,18,19,20,21,22,23,24,25,26,27,28,29,30,31,32,33,34,35,36,37,38,39,40,41,42,43,44,45,46,47,48,50,51,52,53,54,55,56,57,58,59,60,61,62,63,64,65,66,67,68,69,70,71,72,73,0,1,2,3,4,5,6,7,8,9,10,12,13,15,16,17,18,19,20,0,1,2,3,4,5,6,7,8,9,10,11,12,13,14,15,16,17,18,19,20,21,23,24,25,26,27,28,29,30,31,32,33,34,35,36,37,38,39,40,41,42,43,44,45,46,47,48,49,50,51,52,53,55,56,57,58,59,60,61,62,63,64,65,66,67,68,69,70,71,72,73,0,1,2,3,4,5,6,7,8,9,10,13,15,16,17,18,19,20,3,3],"categories_nodes":[1,2,3,4,5,6,7,8,9,10,14,15,17,20,22,25,28,29,30,32,34,35,39,43,47,49,51,52,53,59,61,62],"categories_segments":[0,59,124,140,151,169,230,302,373,439,474,479,552,625,693,697,769,786,811,821,841,910,913,914,916,988,989,1062,1081,1153,1171,1172],"categories_sizes":[59,65,16,11,18,61,72,71,66,35,5,73,73,68,4,72,17,25,10,20,69,3,1,2,72,1,73,19,72,18,1,1],"default_left":[0,1,0,0,0,0,1,0,0,0,1,0,0,0,0,0,0,0,0,0,0,0,0,0,0,0,0,0,0,1,1,0,1,0,0,0,0,0,0,0,0,0,0,0,0,0,0,0,0,1,0,0,0,0,0,0,0,0,0,1,0,0,0,0,0,0,0,0,0,0,0,0,0,0,0,0,0,0,0,0,0,0,0,0,0,0,0,0,0,0,0,0,0,0,0,0,0,0,0,0,0,0,0,0,0,0,0,0,0,0,0,0,0,0,0,0,0,0,0,0,0,0,0,0,0,0,0],"id":5,"left_children":[1,3,5,7,9,11,13,15,17,19,21,23,25,27,29,31,33,35,37,39,41,43,45,47,49,51,53,55,57,59,61,63,65,67,69,71,73,75,77,79,81,83,85,87,89,91,93,95,97,99,101,103,105,107,109,111,113,115,117,119,121,123,125,-1,-1,-1,-1,-1,-1,-1,-1,-1,-1,-1,-1,-1,-1,-1,-1,-1,-1,-1,-1,-1,-1,-1,-1,-1,-1,-1,-1,-1,-1,-1,-1,-1,-1,-1,-1,-1,-1,-1,-1,-1,-1,-1,-1,-1,-1,-1,-1,-1,-1,-1,-1,-1,-1,-1,-1,-1,-1,-1,-1,-1,-1,-1,-1],"loss_changes":[2.6018806E10,1.8316708E10,1.5322272E10,5.739123E9,7.155033E9,8.447353E9,1.0980838E9,1.1943782E9,2.6110144E9,1.470646E9,3.6884419E9,9.095086E8,3.443546E9,2.183914E8,2.912379E8,2.1458125E8,7.244216E8,3.293381E8,7.613642E8,6.222427E8,3.7569514E8,2.1440102E9,4.901376E8,5.421527E8,4.0206336E8,1.8868941E9,1.0410547E9,1.568268E8,6.1618176E7,1.5111976E8,5.856781E7,7.244442E7,8.917606E7,2.574487E8,5.5171584E8,1.2018176E8,4.9143936E7,1.7449088E8,4.18546E8,1.1572595E8,3.4703014E8,2.7298102E8,3.2357206E8,5.0552013E8,8.2555366E8,1.6222515E8,1.9306189E8,2.416942E8,3.5447706E8,1.8848973E8,2.0640563E8,4.1721498E8,5.451433E8,4.825897E8,5.2141056E8,7.929854E7,1.244361E8,7.85735E7,2.8281992E7,2.17492E7,3.9931744E7,3.3328192E7,1.6311488E7,0E0,0E0,0E0,0E0,0E0,0E0,0E0,0E0,0E0,0E0,0E0,0E0,0E0,0E0,0E0,0E0,0E0,0E0,0E0,0E0,0E0,0E0,0E0,0E0,0E0,0E0,0E0,0E0,0E0,0E0,0E0,0E0,0E0,0E0,0E0,0E0,0E0,0E0,0E0,0E0,0E0,0E0,0E0,0E0,0E0,0E0,0E0,0E0,0E0,0E0,0E0,0E0,0E0,0E0,0E0,0E0,0E0,0E0,0E0,0E0,0E0,0E0,0E0,0E0],"parents":[2147483647,0,0,1,1,2,2,3,3,4,4,5,5,6,6,7,7,8,8,9,9,10,10,11,11,12,12,13,13,14,14,15,15,16,16,17,17,18,18,19,19,20,20,21,21,22,22,23,23,24,24,25,25,26,26,27,27,28,28,29,29,30,30,31,31,32,32,33,33,34,34,35,35,36,36,37,37,38,38,39,39,40,40,41,41,42,42,43,43,44,44,45,45,46,46,47,47,48,48,49,49,50,50,51,51,52,52,53,53,54,54,55,55,56,56,57,57,58,58,59,59,60,60,61,61,62,62],"right_children":[2,4,6,8,10,12,14,16,18,20,22,24,26,28,30,32,34,36,38,40,42,44,46,48,50,52,54,56,58,60,62,64,66,68,70,72,74,76,78,80,82,84,86,88,90,92,94,96,98,100,102,104,106,108,110,112,114,116,118,120,122,124,126,-1,-1,-1,-1,-1,-1,-1,-1,-1,-1,-1,-1,-1,-1,-1,-1,-1,-1,-1,-1,-1,-1,-1,-1,-1,-1,-1,-1,-1,-1,-1,-1,-1,-1,-1,-1,-1,-1,-1,-1,-1,-1,-1,-1,-1,-1,-1,-1,-1,-1,-1,-1,-1,-1,-1,-1,-1,-1,-1,-1,-1,-1,-1,-1],"split_conditions":[7.672761E-2,1E-45,1E-45,1E-45,1E-45,1E-45,1E-45,1E-45,1E-45,1E-45,1E-45,2.765319E-1,3.231633E-1,4E0,1E-45,1E-45,-1.00313075E-1,1E-45,-1.3740845E-1,4.2E1,1E-45,-1.2401292E-1,1E-45,3E0,2E0,1E-45,2E0,3.4E1,1E-45,1E-45,1E-45,5E0,1E-45,4.8E1,1E-45,1E-45,1E0,1E0,1E0,1E-45,-5.7630673E-2,1.61E2,2.6E1,1E-45,3E0,1E0,1E0,1E-45,1E0,1E-45,4.9241963E-1,1E-45,1E-45,1E-45,6.277075E-1,1.5E0,1E0,1E0,5E0,1E-45,1E0,1E-45,1E-45,1.9519835E2,3.0215778E2,1.9408948E2,1.12400566E2,9.98296E1,3.9515404E1,9.738781E1,5.9122192E1,2.0866943E2,1.2643522E2,6.670925E1,1.0700055E2,-2.0597033E1,3.9714622E0,9.838119E0,4.7700512E1,6.208854E1,1.18895134E2,1.556665E1,4.5814983E1,1.7024755E1,-1.5242607E1,1.5533319E2,-1.8579645E1,-2.9973688E1,-4.736184E1,-2.0559057E1,5.0076785E0,-5.08919E1,-7.4242873E0,-7.457413E1,-4.892176E1,1.682079E2,1.0896714E2,1.6505359E2,2.7011832E2,2.1131311E2,6.4343575E1,2.5513272E2,3.4717328E2,2.3591956E2,1.0826086E2,8.686129E1,3.439019E1,2.8119302E2,9.531919E1,1.4088116E2,2.2391617E2,4.785876E1,1.7230235E2,-3.6442811E0,2.6777174E1,4.534988E1,1.17058876E2,8.013507E0,3.963929E1,2.7892246E1,2.0792763E0,-2.8816782E1,1.5492502E1,-2.9703354E1,-4.929798E1,-5.2701427E1,-7.0482346E1],"split_indices":[32,31,31,18,18,18,31,31,31,31,31,32,32,28,18,31,32,31,32,4,31,32,18,19,28,31,28,4,18,31,31,19,18,4,31,16,27,22,9,17,32,4,4,16,28,26,9,31,28,3,32,31,18,31,32,30,9,9,28,18,26,16,16,0,0,0,0,0,0,0,0,0,0,0,0,0,0,0,0,0,0,0,0,0,0,0,0,0,0,0,0,0,0,0,0,0,0,0,0,0,0,0,0,0,0,0,0,0,0,0,0,0,0,0,0,0,0,0,0,0,0,0,0,0,0,0,0],"split_type":[0,1,1,1,1,1,1,1,1,1,1,0,0,0,1,1,0,1,0,0,1,0,1,0,0,1,0,0,1,1,1,0,1,0,1,1,0,0,0,1,0,0,0,1,0,0,0,1,0,1,0,1,1,1,0,0,0,0,0,1,0,1,1,0,0,0,0,0,0,0,0,0,0,0,0,0,0,0,0,0,0,0,0,0,0,0,0,0,0,0,0,0,0,0,0,0,0,0,0,0,0,0,0,0,0,0,0,0,0,0,0,0,0,0,0,0,0,0,0,0,0,0,0,0,0,0,0],"sum_hessian":[9.0451E4,7.5321E4,1.513E4,1.8091E4,5.723E4,9.956E3,5.174E3,6.772E3,1.1319E4,1.0459E4,4.6771E4,1.711E3,8.245E3,2.603E3,2.571E3,2.96E2,6.476E3,5.15E2,1.0804E4,4.299E3,6.16E3,3.6165E4,1.0606E4,1.072E3,6.39E2,5.705E3,2.54E3,2.092E3,5.11E2,1.117E3,1.454E3,1.05E2,1.91E2,2.691E3,3.785E3,1.94E2,3.21E2,3.638E3,7.166E3,3.77E2,3.922E3,3.188E3,2.972E3,1.6956E4,1.9209E4,5.063E3,5.543E3,7.34E2,3.38E2,2.84E2,3.55E2,9.5E2,4.755E3,1.632E3,9.08E2,8.7E1,2.005E3,2.14E2,2.97E2,3.26E2,7.91E2,8.83E2,5.71E2,7.9E1,2.6E1,4.7E1,1.44E2,1.9E2,2.501E3,1.843E3,1.942E3,1.04E2,9E1,1.51E2,1.7E2,2.644E3,9.94E2,6.342E3,8.24E2,1.59E2,2.18E2,2.315E3,1.607E3,2.267E3,9.21E2,2.6E1,2.946E3,7.518E3,9.438E3,1.5226E4,3.983E3,4.838E3,2.25E2,4.663E3,8.8E2,4.33E2,3.01E2,1.59E2,1.79E2,2.59E2,2.5E1,2.6E2,9.5E1,6.9E1,8.81E2,5.61E2,4.194E3,3.5E1,1.597E3,6.31E2,2.77E2,7.2E1,1.5E1,1.579E3,4.26E2,1.64E2,5E1,1.17E2,1.8E2,1.58E2,1.68E2,7.37E2,5.4E1,4.31E2,4.52E2,3.25E2,2.46E2],"tree_param":{"num_deleted":"0","num_feature":"33","num_nodes":"127","size_leaf_vector":"1"}},{"base_weights":[2.9785855E0,-2.2463254E2,1.1660543E3,6.2821356E2,-4.8777905E2,1.8688345E3,-1.7877408E2,1.3135114E3,2.1057582E2,8.0371506E1,-6.876555E2,3.755909E3,1.4598447E3,2.780255E2,-6.374838E2,1.1498826E3,2.3689663E3,2.649295E3,1.2497109E2,4.9924258E2,-2.144356E2,-5.417523E2,-1.1766454E3,3.1582715E3,4.8041245E3,1.1938525E3,2.8849258E3,1.3238354E2,8.6988525E2,2.3182732E2,-7.7075183E2,8.157871E2,1.4330677E3,3.226003E3,1.2864475E3,2.1203333E3,3.2710305E3,-2.4559038E2,3.1252618E2,1.5032708E3,3.7772092E2,-7.2159853E0,-4.9116473E2,-8.087426E2,-3.3838712E2,-1.0044333E3,-1.3973763E3,2.688911E3,4.151868E3,3.8856497E3,5.5931064E3,2.4522764E3,9.3371027E2,2.7124514E3,9.61852E3,1.6345903E3,6.80342E1,7.7677045E2,2.172527E3,7.321038E2,-1.5703526E2,-5.3469293E2,-9.7323474E2,8.4347786E1,3.6108147E1,8.958886E1,5.5816128E1,2.2991145E2,1.4227673E2,7.598343E1,1.8589138E1,1.2437621E2,7.1586464E1,1.0864972E2,1.853403E2,-2.1217253E0,-2.1839296E1,1.1532796E1,4.8615246E1,4.7177578E1,9.906512E1,3.6223454E0,3.5031616E1,1.14788885E1,-1.3790293E1,-1.8541851E1,-4.0056934E1,-3.1731369E1,-4.669267E1,-7.7528152E0,-2.8280857E1,-5.508215E1,-3.25975E1,-7.395069E1,-5.1116936E1,1.5900195E2,9.9905334E1,1.6560123E2,2.5778766E2,1.7827536E2,2.4008101E2,2.4964299E2,3.3000766E2,2.1965579E2,1.11139275E2,3.3783775E1,7.3922066E1,1.01919044E2,1.6597542E2,3.6262997E2,5.6916406E2,5.0760643E1,1.8500406E2,-3.3699784E0,2.7125883E1,5.9063423E1,2.6571928E1,5.530009E1,1.6182925E2,6.511102E1,2.0946344E1,-1.355337E1,1.887488E1,-1.4772402E1,-4.229003E1,-4.097571E1,-5.8828957E1],"categories":[0,1,2,3,4,5,6,7,8,9,11,12,13,14,15,16,17,18,19,20,21,23,24,25,26,29,30,31,32,33,34,35,36,37,38,39,40,41,42,43,44,47,48,51,53,55,56,57,58,59,60,61,62,63,65,67,68,69,70,71,72,0,1,2,3,4,6,7,8,9,11,12,13,14,15,16,17,18,19,20,21,23,24,25,26,28,29,30,31,32,33,35,36,37,38,39,40,41,42,43,44,45,46,47,48,50,53,55,56,57,58,59,60,61,62,63,64,65,66,67,68,69,70,71,72,73,0,2,3,4,5,6,7,8,9,10,15,16,17,18,19,20,6,7,8,9,15,16,17,18,19,20,0,3,4,5,6,7,8,10,11,13,14,15,16,17,18,19,20,2,3,4,5,7,8,9,10,11,12,13,14,15,16,17,18,19,20,21,22,23,24,25,26,27,28,29,30,31,32,33,34,35,36,37,38,39,40,41,42,45,46,47,48,49,50,51,52,53,54,55,57,59,61,63,67,68,70,71,0,1,2,3,4,5,6,7,8,9,10,11,12,13,14,15,16,17,18,19,20,21,22,23,24,25,26,27,28,29,30,31,32,33,34,35,36,37,38,39,40,41,42,43,44,45,46,47,48,50,51,52,53,55,56,57,58,59,60,61,62,63,64,65,66,67,68,69,70,71,72,73,0,2,3,4,5,7,8,9,10,11,12,13,14,15,16,18,19,20,21,22,23,24,25,26,27,28,29,30,31,32,33,36,37,38,39,40,42,43,45,46,47,49,50,51,52,53,54,55,57,58,60,62,63,64,66,67,68,69,70,71,73,2,3,4,7,8,9,11,12,13,15,16,18,19,20,26,31,33,36,37,38,40,41,43,44,47,53,55,57,58,60,62,63,67,68,69,70,71,0,1,2,3,4,5,6,7,8,13,14,15,16,17,18,19,20,0,1,2,3,4,5,6,7,8,9,10,11,12,13,14,15,16,17,18,19,20,21,23,24,25,26,27,29,30,31,32,33,34,35,36,37,38,39,40,41,42,43,44,46,47,48,50,51,53,55,56,57,58,59,60,61,62,63,64,65,66,67,68,69,70,71,72,73,13,14,18,19,20,0,1,2,3,4,5,6,7,8,9,10,11,12,13,14,15,16,17,18,19,20,21,23,24,25,26,27,28,29,30,31,32,33,34,35,36,37,38,39,40,41,42,43,44,45,46,47,48,50,51,53,55,56,57,58,59,60,61,62,63,64,65,66,67,68,69,70,71,72,73,0,1,2,3,4,5,6,7,8,9,10,11,12,13,16,17,18,19,21,22,23,24,25,26,27,28,29,30,31,32,33,34,35,36,37,39,40,41,42,43,44,45,46,47,49,50,51,52,53,54,55,56,57,58,59,60,61,62,63,64,65,66,67,68,69,70,4,7,8,13,15,18,26,40,47,63,67,68,0,1,2,3,4,5,6,7,8,9,10,11,12,13,14,15,16,17,18,19,20,21,22,23,24,25,26,27,28,29,30,31,32,33,34,35,36,37,38,39,40,41,42,43,44,45,46,47,48,50,51,53,55,56,57,58,59,60,61,62,63,64,65,66,67,68,69,70,71,72,73,0,1,2,3,4,5,6,7,8,9,10,11,12,13,14,15,16,17,18,19,20,21,23,24,25,26,27,29,30,31,32,33,34,35,36,37,38,39,40,41,42,43,44,45,46,47,48,50,51,52,53,54,55,56,57,58,59,60,61,62,63,64,65,66,67,68,69,70,71,72,73,0,2,3,2,3,0,1,2,3,4,6,7,8,9,10,11,12,13,15,16,17,18,19,21,22,23,24,25,26,27,28,29,30,31,32,33,34,35,36,37,38,39,40,41,42,43,44,45,46,47,48,49,50,52,53,54,55,56,57,58,59,60,61,62,63,64,65,66,67,68,69,70,72,73,4,7,8,9,13,15,18,26,38,40,47,68,70,2,3,0,1,6,14,21,23,29,35,39,48,56,59,61,0,1,2,3,4,6,7,8,9,10,11,12,13,14,15,16,17,18,19,20,21,22,23,24,25,26,27,28,29,30,31,32,33,34,35,36,37,38,39,40,41,42,43,44,45,46,47,48,49,50,51,53,54,55,56,57,58,59,60,61,62,63,64,65,66,67,68,69,70,71,72,73,0,1,2,3,4,5,6,7,8,9,10,11,12,13,14,15,16,17,18,19,20,21,23,24,25,26,27,28,29,30,31,32,33,34,35,36,37,38,39,40,41,42,43,44,45,46,47,48,50,51,52,53,55,56,57,58,59,60,61,62,63,64,65,66,67,68,69,70,71,72,73,0,1,2,3,4,5,6,7,8,9,10,11,12,13,0,1,2,3,4,5,6,7,8,9,10,14,15,16,17,18,19,20,3,17,18,19,20],"categories_nodes":[1,2,3,4,5,6,8,9,10,14,16,20,22,25,29,30,32,33,35,37,41,42,43,44,47,51,55,57,61,62],"categories_segments":[0,61,126,142,152,169,228,300,361,398,415,483,485,488,558,624,636,707,778,781,783,852,865,867,880,952,1023,1037,1055,1056],"categories_sizes":[61,65,16,10,17,59,72,61,37,17,68,2,3,70,66,12,71,71,3,2,69,13,2,13,72,71,14,18,1,4],"default_left":[0,1,0,0,0,0,1,0,0,1,1,0,0,0,0,0,0,0,0,0,1,0,0,0,0,0,0,0,0,0,1,0,0,0,0,1,0,0,0,0,0,0,1,0,1,0,0,0,0,0,0,0,0,0,0,1,0,0,0,0,0,0,0,0,0,0,0,0,0,0,0,0,0,0,0,0,0,0,0,0,0,0,0,0,0,0,0,0,0,0,0,0,0,0,0,0,0,0,0,0,0,0,0,0,0,0,0,0,0,0,0,0,0,0,0,0,0,0,0,0,0,0,0,0,0,0,0],"id":6,"left_children":[1,3,5,7,9,11,13,15,17,19,21,23,25,27,29,31,33,35,37,39,41,43,45,47,49,51,53,55,57,59,61,63,65,67,69,71,73,75,77,79,81,83,85,87,89,91,93,95,97,99,101,103,105,107,109,111,113,115,117,119,121,123,125,-1,-1,-1,-1,-1,-1,-1,-1,-1,-1,-1,-1,-1,-1,-1,-1,-1,-1,-1,-1,-1,-1,-1,-1,-1,-1,-1,-1,-1,-1,-1,-1,-1,-1,-1,-1,-1,-1,-1,-1,-1,-1,-1,-1,-1,-1,-1,-1,-1,-1,-1,-1,-1,-1,-1,-1,-1,-1,-1,-1,-1,-1,-1,-1],"loss_changes":[2.3954792E10,1.6984226E10,1.3997541E10,5.1070735E9,6.567678E9,7.5017605E9,1.06547046E9,1.1642296E9,2.3146734E9,1.8588209E9,3.0517248E9,1.0698445E9,3.0275226E9,2.1952147E8,2.9409363E8,5.5249306E8,8.363986E8,1.1672115E8,7.4470714E8,7.580978E8,5.0662803E8,1.7889587E9,3.7229773E8,5.0462413E8,4.3262976E8,2.2041795E9,1.4337567E9,1.9766747E8,5.9323904E7,6.586908E7,1.0463501E8,2.1794022E8,3.5771955E8,2.5057024E8,8.518925E7,4.852544E7,7.376819E7,1.398533E8,3.840475E8,1.7766566E8,5.4685146E8,3.2143616E8,1.4080294E8,3.0976E8,7.7921344E8,1.886295E8,1.3032499E8,2.4945818E8,2.8054067E8,6.879949E7,1.6954573E8,5.0423245E8,7.843072E8,4.953211E8,4.687539E7,1.0370637E8,1.2618106E8,4.611251E7,3.387021E7,2.5879472E7,1.174453E7,7.552083E7,3.601408E7,0E0,0E0,0E0,0E0,0E0,0E0,0E0,0E0,0E0,0E0,0E0,0E0,0E0,0E0,0E0,0E0,0E0,0E0,0E0,0E0,0E0,0E0,0E0,0E0,0E0,0E0,0E0,0E0,0E0,0E0,0E0,0E0,0E0,0E0,0E0,0E0,0E0,0E0,0E0,0E0,0E0,0E0,0E0,0E0,0E0,0E0,0E0,0E0,0E0,0E0,0E0,0E0,0E0,0E0,0E0,0E0,0E0,0E0,0E0,0E0,0E0,0E0,0E0,0E0],"parents":[2147483647,0,0,1,1,2,2,3,3,4,4,5,5,6,6,7,7,8,8,9,9,10,10,11,11,12,12,13,13,14,14,15,15,16,16,17,17,18,18,19,19,20,20,21,21,22,22,23,23,24,24,25,25,26,26,27,27,28,28,29,29,30,30,31,31,32,32,33,33,34,34,35,35,36,36,37,37,38,38,39,39,40,40,41,41,42,42,43,43,44,44,45,45,46,46,47,47,48,48,49,49,50,50,51,51,52,52,53,53,54,54,55,55,56,56,57,57,58,58,59,59,60,60,61,61,62,62],"right_children":[2,4,6,8,10,12,14,16,18,20,22,24,26,28,30,32,34,36,38,40,42,44,46,48,50,52,54,56,58,60,62,64,66,68,70,72,74,76,78,80,82,84,86,88,90,92,94,96,98,100,102,104,106,108,110,112,114,116,118,120,122,124,126,-1,-1,-1,-1,-1,-1,-1,-1,-1,-1,-1,-1,-1,-1,-1,-1,-1,-1,-1,-1,-1,-1,-1,-1,-1,-1,-1,-1,-1,-1,-1,-1,-1,-1,-1,-1,-1,-1,-1,-1,-1,-1,-1,-1,-1,-1,-1,-1,-1,-1,-1,-1,-1,-1,-1,-1,-1,-1,-1,-1,-1,-1,-1,-1],"split_conditions":[8.059618E-2,1E-45,1E-45,1E-45,1E-45,1E-45,1E-45,1E0,1E-45,1E-45,1E-45,2.765319E-1,4.9241963E-1,4E0,1E-45,-9.099218E-2,1E-45,1E0,-1.3740845E-1,4.5E1,1E-45,-1.440579E-1,1E-45,3E0,2E0,1E-45,6E0,3.4E1,8E0,1E-45,1E-45,5.1E1,1E-45,1E-45,2.77E2,1E-45,1E0,1E-45,1E0,2E0,-8.535647E-2,1E-45,1E-45,1E-45,1E-45,1E0,1E0,1E-45,2E0,4.9241963E-1,1E0,1E-45,2E0,1E0,2E0,1E-45,1E0,1E-45,1.7714222E-1,1E0,1E0,1E-45,1E-45,8.4347786E1,3.6108147E1,8.958886E1,5.5816128E1,2.2991145E2,1.4227673E2,7.598343E1,1.8589138E1,1.2437621E2,7.1586464E1,1.0864972E2,1.853403E2,-2.1217253E0,-2.1839296E1,1.1532796E1,4.8615246E1,4.7177578E1,9.906512E1,3.6223454E0,3.5031616E1,1.14788885E1,-1.3790293E1,-1.8541851E1,-4.0056934E1,-3.1731369E1,-4.669267E1,-7.7528152E0,-2.8280857E1,-5.508215E1,-3.25975E1,-7.395069E1,-5.1116936E1,1.5900195E2,9.9905334E1,1.6560123E2,2.5778766E2,1.7827536E2,2.4008101E2,2.4964299E2,3.3000766E2,2.1965579E2,1.11139275E2,3.3783775E1,7.3922066E1,1.01919044E2,1.6597542E2,3.6262997E2,5.6916406E2,5.0760643E1,1.8500406E2,-3.3699784E0,2.7125883E1,5.9063423E1,2.6571928E1,5.530009E1,1.6182925E2,6.511102E1,2.0946344E1,-1.355337E1,1.887488E1,-1.4772402E1,-4.229003E1,-4.097571E1,-5.8828957E1],"split_indices":[32,31,31,18,18,18,31,26,31,31,31,32,32,28,18,32,31,26,32,4,18,32,18,19,28,31,28,4,28,31,31,4,31,31,4,16,20,16,9,28,32,31,31,16,31,9,20,31,28,32,26,31,28,28,19,18,9,18,32,24,9,16,18,0,0,0,0,0,0,0,0,0,0,0,0,0,0,0,0,0,0,0,0,0,0,0,0,0,0,0,0,0,0,0,0,0,0,0,0,0,0,0,0,0,0,0,0,0,0,0,0,0,0,0,0,0,0,0,0,0,0,0,0,0,0,0,0],"split_type":[0,1,1,1,1,1,1,0,1,1,1,0,0,0,1,0,1,0,0,0,1,0,1,0,0,1,0,0,0,1,1,0,1,1,0,1,0,1,0,0,0,1,1,1,1,0,0,1,0,0,0,1,0,0,0,1,0,1,0,0,0,1,1,0,0,0,0,0,0,0,0,0,0,0,0,0,0,0,0,0,0,0,0,0,0,0,0,0,0,0,0,0,0,0,0,0,0,0,0,0,0,0,0,0,0,0,0,0,0,0,0,0,0,0,0,0,0,0,0,0,0,0,0,0,0,0,0],"sum_hessian":[9.0486E4,7.5677E4,1.4809E4,1.7844E4,5.7833E4,9.726E3,5.083E3,6.756E3,1.1088E4,1.5051E4,4.2782E4,1.731E3,7.995E3,2.547E3,2.536E3,5.851E3,9.05E2,3.75E2,1.0713E4,6.217E3,8.834E3,3.2952E4,9.83E3,1.105E3,6.26E2,6.739E3,1.256E3,2.045E3,5.02E2,3.37E2,2.199E3,2.686E3,3.165E3,5.04E2,4.01E2,2.05E2,1.7E2,3.6E3,7.113E3,6.7E2,5.547E3,5.052E3,3.782E3,1.4246E4,1.8706E4,5.525E3,4.305E3,7.53E2,3.52E2,2.92E2,3.34E2,1.153E3,5.586E3,1.226E3,3E1,8.3E1,1.962E3,4.7E2,3.2E1,1.47E2,1.9E2,1.017E3,1.182E3,2.59E2,2.427E3,1.482E3,1.683E3,1.07E2,3.97E2,3.19E2,8.2E1,1.32E2,7.3E1,5E1,1.2E2,1.746E3,1.854E3,6.329E3,7.84E2,3.1E2,3.6E2,2.852E3,2.695E3,2.685E3,2.367E3,2.726E3,1.056E3,5.959E3,8.287E3,1.0354E4,8.352E3,4.329E3,1.196E3,3.533E3,7.72E2,4.38E2,3.15E2,1.94E2,1.58E2,2.2E2,7.2E1,2.13E2,1.21E2,1.2E2,1.033E3,3.792E3,1.794E3,5.83E2,6.43E2,1.5E1,1.5E1,6.5E1,1.8E1,1.527E3,4.35E2,1.76E2,2.94E2,1.7E1,1.5E1,5.1E1,9.6E1,1.57E2,3.3E1,5.76E2,4.41E2,6.76E2,5.06E2],"tree_param":{"num_deleted":"0","num_feature":"33","num_nodes":"127","size_leaf_vector":"1"}},{"base_weights":[1.403083E0,1.1458595E3,-2.3154855E2,8.913227E2,2.9822E3,-3.8949756E2,9.0542365E2,7.794123E2,1.5530007E3,2.3967046E3,4.1956816E3,-1.7091183E2,-6.334431E2,6.1073645E2,1.7448342E3,1.2606994E2,8.545129E2,1.3334882E3,2.7706467E3,1.8164435E3,3.108522E3,3.334024E3,5.326212E3,-5.842447E2,-5.209008E1,-7.5982477E2,-3.069691E2,1.0666249E3,4.2289072E2,9.861704E2,2.4969644E3,6.740855E2,1.8326633E1,8.140514E2,1.939961E3,1.1122906E3,1.6858593E3,2.1274187E3,3.7365476E3,1.3278962E3,2.3997346E3,3.7494243E3,1.4524539E3,3.6827434E3,2.1476858E3,1.8603218E2,5.54323E3,-2.3131761E2,-6.6015485E2,3.9304285E2,-1.5816487E2,-8.390243E2,-3.101125E2,-5.6899725E2,-1.1334171E2,6.665525E2,1.3780321E3,2.6677432E2,7.918157E2,9.1934485E2,2.63938E2,3.5312275E3,1.9428666E3,2.4736473E1,1.3248552E2,-1.1382954E0,6.69078E1,3.213953E1,5.2676056E1,7.727533E1,1.6322928E2,4.9699024E1,7.129488E1,7.737819E1,1.1326644E2,1.153199E2,7.4364734E0,1.4654222E2,2.2528052E2,4.772677E1,8.089484E1,9.008644E1,1.432592E2,1.6788266E2,2.3930534E2,5.9885506E1,1.5815189E2,7.896128E1,1.9717241E2,6.817353E1,1.4786322E2,2.6775925E2,3.844192E2,4.700706E0,-2.0238178E1,-3.892592E1,-2.5085344E1,5.575547E1,1.0166316E1,-1.2962453E1,1.2587576E1,-5.4292103E1,-3.7694374E1,-1.1624853E1,-3.7046215E1,-3.7081062E1,-2.151846E1,-8.052935E0,2.8750616E1,9.545473E1,2.6645689E1,5.847729E1,9.489302E1,1.0378791E1,4.7416172E1,2.208676E1,6.936212E1,9.873861E1,3.1681177E1,1.6131087E2,3.8212872E2,8.226618E1,1.505312E2],"categories":[7,8,9,17,18,19,20,0,2,3,4,5,6,7,8,9,10,11,13,15,16,17,18,19,20,1,18,0,1,2,3,4,5,6,7,8,9,10,12,13,14,15,16,17,18,19,20],"categories_nodes":[5,20,21,52,55],"categories_segments":[0,7,25,26,27],"categories_sizes":[7,18,1,1,20],"default_left":[0,0,0,0,0,0,0,0,0,0,0,0,0,0,0,0,0,0,0,0,0,1,0,0,0,0,0,0,0,0,0,0,0,0,0,0,0,0,0,0,0,0,0,0,0,0,0,0,0,0,0,0,1,0,0,0,0,0,0,0,0,0,0,0,0,0,0,0,0,0,0,0,0,0,0,0,0,0,0,0,0,0,0,0,0,0,0,0,0,0,0,0,0,0,0,0,0,0,0,0,0,0,0,0,0,0,0,0,0,0,0,0,0,0,0,0,0,0,0,0,0,0,0],"id":7,"left_children":[1,3,5,7,9,11,13,15,17,19,21,23,25,27,29,31,33,35,37,39,41,43,45,47,49,51,53,55,57,59,61,63,65,67,69,71,73,75,77,79,81,83,85,87,89,-1,91,93,95,97,99,101,103,105,107,109,111,113,115,117,-1,119,121,-1,-1,-1,-1,-1,-1,-1,-1,-1,-1,-1,-1,-1,-1,-1,-1,-1,-1,-1,-1,-1,-1,-1,-1,-1,-1,-1,-1,-1,-1,-1,-1,-1,-1,-1,-1,-1,-1,-1,-1,-1,-1,-1,-1,-1,-1,-1,-1,-1,-1,-1,-1,-1,-1,-1,-1,-1,-1,-1,-1],"loss_changes":[2.4129704E10,7.152083E9,1.3505221E10,9.943736E8,1.3135831E9,3.5207567E9,2.2679992E9,5.642537E8,5.1591373E8,5.1437056E8,5.7159066E8,1.7103764E9,1.287254E9,5.811077E8,1.3573105E9,7.007407E7,4.5148774E8,1.2665395E8,1.7595418E8,1.9514931E8,5.9317146E8,1.3523072E8,6.99689E7,2.0817254E8,1.2773396E9,8.009441E8,4.4184454E8,2.4588518E8,2.7687942E8,3.3593062E8,6.7854694E8,6.7785464E7,5.388596E7,4.072668E8,1.8828096E8,3.627917E7,4.730176E7,6.3402944E7,5.929216E7,3.970835E7,8.279373E7,1.4882355E8,6.5497504E7,1.3964595E8,4.739344E7,0E0,5.039667E7,7.779511E7,1.1961907E8,7.129327E8,9.052775E8,4.0108134E8,1.1251264E8,8.824768E7,1.646519E8,1.4328163E8,1.1840422E8,1.3625571E8,2.974668E8,3.518732E8,0E0,4.9700864E8,2.4317286E8,0E0,0E0,0E0,0E0,0E0,0E0,0E0,0E0,0E0,0E0,0E0,0E0,0E0,0E0,0E0,0E0,0E0,0E0,0E0,0E0,0E0,0E0,0E0,0E0,0E0,0E0,0E0,0E0,0E0,0E0,0E0,0E0,0E0,0E0,0E0,0E0,0E0,0E0,0E0,0E0,0E0,0E0,0E0,0E0,0E0,0E0,0E0,0E0,0E0,0E0,0E0,0E0,0E0,0E0,0E0,0E0,0E0,0E0,0E0,0E0],"parents":[2147483647,0,0,1,1,2,2,3,3,4,4,5,5,6,6,7,7,8,8,9,9,10,10,11,11,12,12,13,13,14,14,15,15,16,16,17,17,18,18,19,19,20,20,21,21,22,22,23,23,24,24,25,25,26,26,27,27,28,28,29,29,30,30,31,31,32,32,33,33,34,34,35,35,36,36,37,37,38,38,39,39,40,40,41,41,42,42,43,43,44,44,46,46,47,47,48,48,49,49,50,50,51,51,52,52,53,53,54,54,55,55,56,56,57,57,58,58,59,59,61,61,62,62],"right_children":[2,4,6,8,10,12,14,16,18,20,22,24,26,28,30,32,34,36,38,40,42,44,46,48,50,52,54,56,58,60,62,64,66,68,70,72,74,76,78,80,82,84,86,88,90,-1,92,94,96,98,100,102,104,106,108,110,112,114,116,118,-1,120,122,-1,-1,-1,-1,-1,-1,-1,-1,-1,-1,-1,-1,-1,-1,-1,-1,-1,-1,-1,-1,-1,-1,-1,-1,-1,-1,-1,-1,-1,-1,-1,-1,-1,-1,-1,-1,-1,-1,-1,-1,-1,-1,-1,-1,-1,-1,-1,-1,-1,-1,-1,-1,-1,-1,-1,-1,-1,-1,-1,-1],"split_conditions":[1.1E1,1.5070912E-1,1.2596107E-1,4.1263428E-2,3E0,1E-45,3.8943255E-1,-2.3698467E-1,3E0,2.765319E-1,2E0,-2.0710917E-1,1E0,1.6E1,1E0,6.4E1,4E0,2E0,2E0,2E0,1E-45,1E-45,1.45E2,4E0,5E0,1.943707E-4,-1.0873144E-1,1E0,2E0,1.21E2,1.6E1,2E0,1.75E3,3E0,2.154E3,4E0,1E0,1E0,1.0543503E-1,2E0,2E0,4.9241963E-1,4E0,1.42E2,1E0,1.8603218E2,5.4722655E-1,4.7E1,1E0,4.8E1,3E0,-2.5428772E-1,1E-45,-2.4342346E-1,5E0,1E-45,2.641749E-1,9.8E2,1E0,1E1,2.63938E2,6E0,4E0,2.4736473E1,1.3248552E2,-1.1382954E0,6.69078E1,3.213953E1,5.2676056E1,7.727533E1,1.6322928E2,4.9699024E1,7.129488E1,7.737819E1,1.1326644E2,1.153199E2,7.4364734E0,1.4654222E2,2.2528052E2,4.772677E1,8.089484E1,9.008644E1,1.432592E2,1.6788266E2,2.3930534E2,5.9885506E1,1.5815189E2,7.896128E1,1.9717241E2,6.817353E1,1.4786322E2,2.6775925E2,3.844192E2,4.700706E0,-2.0238178E1,-3.892592E1,-2.5085344E1,5.575547E1,1.0166316E1,-1.2962453E1,1.2587576E1,-5.4292103E1,-3.7694374E1,-1.1624853E1,-3.7046215E1,-3.7081062E1,-2.151846E1,-8.052935E0,2.8750616E1,9.545473E1,2.6645689E1,5.847729E1,9.489302E1,1.0378791E1,4.7416172E1,2.208676E1,6.936212E1,9.873861E1,3.1681177E1,1.6131087E2,3.8212872E2,8.226618E1,1.505312E2],"split_indices":[0,32,32,32,19,18,32,32,19,32,28,32,20,1,28,5,19,19,28,19,18,3,5,1,1,32,32,28,28,0,1,19,5,28,5,28,9,8,32,28,28,32,28,5,9,0,32,0,22,5,28,32,18,32,28,18,32,5,22,1,0,28,28,0,0,0,0,0,0,0,0,0,0,0,0,0,0,0,0,0,0,0,0,0,0,0,0,0,0,0,0,0,0,0,0,0,0,0,0,0,0,0,0,0,0,0,0,0,0,0,0,0,0,0,0,0,0,0,0,0,0,0,0],"split_type":[0,0,0,0,0,1,0,0,0,0,0,0,0,0,0,0,0,0,0,0,1,1,0,0,0,0,0,0,0,0,0,0,0,0,0,0,0,0,0,0,0,0,0,0,0,0,0,0,0,0,0,0,1,0,0,1,0,0,0,0,0,0,0,0,0,0,0,0,0,0,0,0,0,0,0,0,0,0,0,0,0,0,0,0,0,0,0,0,0,0,0,0,0,0,0,0,0,0,0,0,0,0,0,0,0,0,0,0,0,0,0,0,0,0,0,0,0,0,0,0,0,0,0],"sum_hessian":[9.0506E4,1.5306E4,7.52E4,1.3444E4,1.862E3,6.6028E4,9.172E3,1.1501E4,1.943E3,1.258E3,6.04E2,3.4825E4,3.1203E4,6.79E3,2.382E3,1.186E3,1.0315E4,1.648E3,2.95E2,6.95E2,5.63E2,3.45E2,2.59E2,7.775E3,2.705E4,2.2494E4,8.709E3,1.98E3,4.81E3,1.187E3,1.195E3,1.94E2,9.92E2,9.946E3,3.69E2,1.015E3,6.33E2,1.79E2,1.16E2,3.8E2,3.15E2,4.05E2,1.58E2,2.65E2,8E1,3.3E1,2.26E2,1.377E3,6.398E3,5.205E3,2.1845E4,1.9125E4,3.369E3,3.7E3,5.009E3,8.68E2,1.112E3,3.381E3,1.429E3,1.17E3,1.7E1,4.15E2,7.8E2,1.79E2,1.5E1,9.63E2,2.9E1,5.801E3,4.145E3,2.86E2,8.3E1,7.4E2,2.75E2,5.14E2,1.19E2,1.64E2,1.5E1,5.9E1,5.7E1,1.68E2,2.12E2,1.4E2,1.75E2,2.97E2,1.08E2,1.39E2,1.9E1,3E1,2.35E2,4.2E1,3.8E1,2.11E2,1.5E1,4.79E2,8.98E2,3.66E3,2.738E3,1.082E3,4.123E3,1.7524E4,4.321E3,4.902E3,1.4223E4,2.856E3,5.13E2,1.646E3,2.054E3,4.685E3,3.24E2,8.3E1,7.85E2,7.96E2,3.16E2,3.112E3,2.69E2,9.01E2,5.28E2,2.48E2,9.22E2,3.88E2,2.7E1,6.12E2,1.68E2],"tree_param":{"num_deleted":"0","num_feature":"33","num_nodes":"123","size_leaf_vector":"1"}},{"base_weights":[1.4273896E0,1.0644598E3,-2.2392404E2,1.5598608E3,1.3635672E2,1.0622995E2,-7.3651794E2,1.1027181E3,3.2201533E3,4.143622E2,-1.6648476E2,-9.253528E1,1.513241E3,-5.4589575E2,-1.1256193E3,1.2893191E3,2.096061E2,3.6747102E3,2.190034E3,3.0245535E2,1.1653108E3,-5.8693365E2,-7.850163E1,-5.1885443E2,1.6704732E2,1.2182113E3,2.5758E3,1.245301E2,-6.4249347E2,-9.393848E2,-1.354553E3,1.1477058E3,2.2467134E3,3.4761514E2,-3.5573865E2,3.1541348E3,4.2577124E3,1.9413635E3,3.2758806E3,1.0764929E3,2.3210982E2,2.1436099E3,8.1726605E2,-1.2143777E2,-6.653985E2,9.837143E0,-3.95798E2,-1.233484E2,-6.3989105E2,2.528935E3,1.1559103E2,2.4037163E3,1.0252645E3,3.623245E3,2.1586665E3,6.586778E2,-1.5030676E2,-7.598844E2,-2.8774854E2,-8.7899316E2,-1.3899979E3,-1.240182E3,-1.572558E3,3.7709866E1,6.846899E1,1.4498186E2,6.9438156E1,-6.9486537E0,2.336977E1,-4.5182327E1,-7.0973215E0,1.3181998E2,1.9645016E2,2.2923613E2,1.5077281E2,9.37787E1,1.9642809E2,1.3786977E2,2.2477498E2,3.9478592E1,1.13091125E2,9.513825E0,4.2754635E1,8.484941E1,2.1492857E2,1.48457E1,7.826174E1,1.2386293E1,-1.9641514E1,-1.9579397E1,-3.610029E1,-1.1533846E0,3.31098E1,-2.3021887E1,6.8637856E1,7.8948524E1,-8.698981E0,-2.2662552E1,-3.87198E1,1.68155E2,9.151693E1,2.9367437E1,-1.9592193E-1,2.6750912E2,1.11372795E2,3.8315563E1,6.6091286E1,3.677028E2,1.5418066E2,4.4790985E1,1.1969568E2,7.379038E1,1.5098841E1,2.2799366E0,-2.1705015E1,-2.822356E1,-4.8654736E1,2.235921E0,-2.2294498E1,-4.5622074E1,-7.598621E0,-5.4452118E1,-7.253802E1,-6.536293E1,-5.1094204E1,-7.460922E1,-8.570376E1],"categories":[0,1,2,3,4,6,7,8,9,11,12,13,14,15,16,17,18,19,20,21,23,24,25,26,29,30,31,32,33,36,37,38,39,40,41,42,43,46,47,48,51,53,55,56,57,58,60,61,62,63,64,67,68,69,70,71,72,0,2,3,4,6,7,8,9,11,12,13,14,15,16,18,19,20,21,23,26,29,31,32,33,35,36,37,38,40,41,43,44,47,48,53,55,56,57,58,59,60,61,62,63,67,68,69,70,71,0,1,2,3,4,5,7,8,9,10,11,12,13,15,21,26,29,38,40,47,63,68,70,2,3,4,7,8,9,11,12,13,16,18,19,26,31,32,33,36,37,40,41,43,47,53,55,57,60,62,63,67,68,69,70,71,0,1,2,3,4,5,6,7,8,9,11,12,13,14,15,16,17,18,19,20,21,23,24,25,26,29,30,31,32,33,36,37,38,39,40,41,42,43,44,46,47,48,51,53,55,56,57,58,60,61,62,63,64,67,68,69,70,71,72,0,1,2,3,4,6,7,8,9,10,11,12,13,14,15,16,17,18,19,20,21,22,23,24,25,26,27,28,29,30,31,32,33,34,35,36,37,38,39,40,41,42,43,44,45,46,47,48,50,51,53,54,55,56,57,58,59,60,61,62,63,64,65,66,67,68,69,70,71,72,73,0,1,2,3,4,5,6,7,8,9,10,13,15,16,17,18,19,0,1,2,3,4,5,7,8,9,10,11,12,13,14,15,16,17,18,19,20,21,22,23,24,25,26,27,28,29,30,31,32,33,34,35,36,37,38,39,40,41,42,43,44,45,46,47,49,50,51,52,53,54,55,57,58,59,60,61,62,63,64,65,66,67,68,69,70,71,72,73,1,5,28,30,34,50,51,72,0,1,2,3,4,5,6,7,8,9,10,11,12,13,14,15,16,17,18,19,20,21,23,24,25,26,27,28,29,30,31,32,33,34,35,36,37,38,39,40,41,42,43,44,45,46,47,48,50,51,52,53,55,56,57,58,59,60,61,62,63,64,65,66,67,68,69,70,71,72,73,0,1,2,3,4,5,6,7,8,9,10,11,12,13,14,15,16,17,18,19,20,21,23,24,25,26,27,28,29,30,31,32,33,34,35,36,37,38,39,40,41,42,43,44,45,46,47,48,50,51,53,54,55,56,57,58,59,60,61,62,63,64,65,66,67,68,69,70,71,72,73,2,3,12,19,31,36,37,40,53,55,57,63,67,2,3,4,7,12,18,19,31,36,37,40,41,53,55,57,63,67,68,0,1,2,3,4,5,6,7,8,9,10,11,12,13,14,15,16,17,18,19,20,21,22,23,24,25,26,27,29,30,31,32,33,35,36,37,38,39,40,41,42,43,44,46,47,48,50,51,53,55,56,57,58,59,60,61,62,63,64,65,66,67,68,69,70,71,72,73,0,1,2,0,2,3,4,5,6,7,8,9,10,11,14,15,16,17,18,19,20,0,0,1,2,3,4,5,6,7,8,9,10,11,12,13,14,15,16,17,18,19,20,21,23,24,25,26,27,28,29,30,31,32,33,34,35,36,37,38,39,40,41,42,43,44,45,46,47,48,50,51,52,53,55,56,57,58,59,60,61,62,63,64,65,66,67,68,69,70,71,72,73,2,3,0,1,2,3,4,5,6,7,8,9,10,11,12,13,14,15,16,17,18,19,20,21,22,23,24,25,26,27,28,29,30,31,32,33,34,35,36,37,38,39,40,41,42,43,44,45,46,47,48,50,51,52,53,54,55,56,57,58,59,60,61,62,63,64,65,66,67,68,69,70,71,72,73,0,1,2,3,4,5,6,7,8,9,10,11,12,13,14,15,16,17,18,19,20,21,22,23,24,25,26,28,29,30,31,32,33,34,35,36,37,38,39,40,41,42,43,44,47,48,49,51,53,54,55,56,57,58,59,60,61,62,63,64,65,67,68,69,70,71,72,73,0,1,2,3,4,5,6,7,8,9,10,11,12,13,14,15,16,17,18,19,20,21,23,24,25,26,27,28,29,30,31,32,33,34,35,36,37,38,39,40,41,42,43,44,45,46,47,48,50,51,52,53,54,55,56,57,58,59,60,61,62,63,64,65,66,67,68,69,70,71,72,73,0,0,1,2,3,4,5,6,7,8,9,10,11,12,13,14,15,16,17,18,19,20,21,22,23,24,25,26,27,28,29,30,31,32,33,34,35,36,37,38,39,40,41,42,43,44,45,46,47,48,49,50,51,52,53,54,55,57,58,59,60,61,62,63,64,65,66,67,68,69,70,71,72,73,3,17,18,19,20,0,1,2,3,4,5,6,7,8,9,10,11,12,13,14,15,16,17,18,19,20,21,22,23,24,25,26,27,28,29,30,31,32,33,34,35,36,37,38,39,40,41,42,43,44,48,59,61,15,16,17,18,19,20,2,3,12,19,31,36,37,40,55,63],"categories_nodes":[1,2,4,6,7,8,16,20,23,24,25,29,30,32,34,36,41,47,48,49,50,51,53,55,56,57,58,60,62],"categories_segments":[0,57,106,129,162,221,292,309,380,388,459,530,543,561,629,632,650,651,722,724,797,865,937,938,1011,1012,1016,1064,1070],"categories_sizes":[57,49,23,33,59,71,17,71,8,71,71,13,18,68,3,18,1,71,2,73,68,72,1,73,1,4,48,6,10],"default_left":[0,1,1,0,1,0,1,1,0,0,0,0,0,0,0,0,0,0,0,0,0,0,0,1,0,0,0,0,0,1,1,0,0,0,1,0,0,0,0,0,0,1,0,0,0,0,0,0,0,0,0,0,0,1,0,0,0,0,1,0,1,0,1,0,0,0,0,0,0,0,0,0,0,0,0,0,0,0,0,0,0,0,0,0,0,0,0,0,0,0,0,0,0,0,0,0,0,0,0,0,0,0,0,0,0,0,0,0,0,0,0,0,0,0,0,0,0,0,0,0,0,0,0,0,0,0,0],"id":8,"left_children":[1,3,5,7,9,11,13,15,17,19,21,23,25,27,29,31,33,35,37,39,41,43,45,47,49,51,53,55,57,59,61,63,65,67,69,71,73,75,77,79,81,83,85,87,89,91,93,95,97,99,101,103,105,107,109,111,113,115,117,119,121,123,125,-1,-1,-1,-1,-1,-1,-1,-1,-1,-1,-1,-1,-1,-1,-1,-1,-1,-1,-1,-1,-1,-1,-1,-1,-1,-1,-1,-1,-1,-1,-1,-1,-1,-1,-1,-1,-1,-1,-1,-1,-1,-1,-1,-1,-1,-1,-1,-1,-1,-1,-1,-1,-1,-1,-1,-1,-1,-1,-1,-1,-1,-1,-1,-1],"loss_changes":[2.1664236E10,7.2726364E9,1.2627881E10,7.823921E9,4.6362794E8,1.2693009E10,2.1675612E9,1.3476413E9,1.0342707E9,2.409158E8,9.746591E7,4.401124E9,1.7580288E9,1.2708311E9,4.0849613E8,9.04449E8,1.09277416E8,4.548649E8,1.7833242E8,1.3587534E8,1.2491107E8,1.657464E7,6.113639E7,7.204237E8,3.0039055E9,1.0037601E9,5.252265E8,3.6299722E8,7.140147E8,1.4309018E8,1.0548838E8,5.0752154E8,4.782848E8,6.5634064E7,3.2084804E7,3.1820595E8,2.806907E8,6.571379E7,6.728077E7,6.895413E7,5.9596184E7,8.606326E7,1.0695642E8,6.809926E6,5.762144E6,3.6657324E7,5.493357E7,3.043547E8,2.889477E8,3.009508E8,1.3639918E9,3.0748006E8,2.8965786E8,6.739123E8,2.5780122E8,2.4438995E8,9.080923E7,5.3633485E8,2.2431251E8,1.1364326E8,9.849344E6,4.011725E7,1.4264832E7,0E0,0E0,0E0,0E0,0E0,0E0,0E0,0E0,0E0,0E0,0E0,0E0,0E0,0E0,0E0,0E0,0E0,0E0,0E0,0E0,0E0,0E0,0E0,0E0,0E0,0E0,0E0,0E0,0E0,0E0,0E0,0E0,0E0,0E0,0E0,0E0,0E0,0E0,0E0,0E0,0E0,0E0,0E0,0E0,0E0,0E0,0E0,0E0,0E0,0E0,0E0,0E0,0E0,0E0,0E0,0E0,0E0,0E0,0E0,0E0,0E0,0E0,0E0,0E0],"parents":[2147483647,0,0,1,1,2,2,3,3,4,4,5,5,6,6,7,7,8,8,9,9,10,10,11,11,12,12,13,13,14,14,15,15,16,16,17,17,18,18,19,19,20,20,21,21,22,22,23,23,24,24,25,25,26,26,27,27,28,28,29,29,30,30,31,31,32,32,33,33,34,34,35,35,36,36,37,37,38,38,39,39,40,40,41,41,42,42,43,43,44,44,45,45,46,46,47,47,48,48,49,49,50,50,51,51,52,52,53,53,54,54,55,55,56,56,57,57,58,58,59,59,60,60,61,61,62,62],"right_children":[2,4,6,8,10,12,14,16,18,20,22,24,26,28,30,32,34,36,38,40,42,44,46,48,50,52,54,56,58,60,62,64,66,68,70,72,74,76,78,80,82,84,86,88,90,92,94,96,98,100,102,104,106,108,110,112,114,116,118,120,122,124,126,-1,-1,-1,-1,-1,-1,-1,-1,-1,-1,-1,-1,-1,-1,-1,-1,-1,-1,-1,-1,-1,-1,-1,-1,-1,-1,-1,-1,-1,-1,-1,-1,-1,-1,-1,-1,-1,-1,-1,-1,-1,-1,-1,-1,-1,-1,-1,-1,-1,-1,-1,-1,-1,-1,-1,-1,-1,-1,-1,-1,-1,-1,-1,-1],"split_conditions":[1.3E1,1E-45,1E-45,7.290331E-2,1E-45,1.5070912E-1,1E-45,1E-45,1E-45,1E0,-1.2813064E-1,-1.6048972E-1,4.9241963E-1,5.1E1,3.1E1,1E0,1E-45,2.4256252E-1,3E0,5E1,1E-45,2E0,3E0,1E-45,1E-45,1E-45,1E1,3E0,1.943707E-4,1E-45,1E-45,-1.19620636E-1,1E-45,-2.2778651E-1,1E-45,3E0,1E-45,5.4722655E-1,3.231633E-1,1.2E0,1.4E0,1E-45,3E0,1E0,8.2E1,1E0,1.2E0,1E-45,1E-45,1E-45,1E-45,1E-45,2.641749E-1,1E-45,2.5E1,1E-45,1E-45,1E-45,1E-45,1E0,1E-45,1.1972556E-2,1E-45,3.7709866E1,6.846899E1,1.4498186E2,6.9438156E1,-6.9486537E0,2.336977E1,-4.5182327E1,-7.0973215E0,1.3181998E2,1.9645016E2,2.2923613E2,1.5077281E2,9.37787E1,1.9642809E2,1.3786977E2,2.2477498E2,3.9478592E1,1.13091125E2,9.513825E0,4.2754635E1,8.484941E1,2.1492857E2,1.48457E1,7.826174E1,1.2386293E1,-1.9641514E1,-1.9579397E1,-3.610029E1,-1.1533846E0,3.31098E1,-2.3021887E1,6.8637856E1,7.8948524E1,-8.698981E0,-2.2662552E1,-3.87198E1,1.68155E2,9.151693E1,2.9367437E1,-1.9592193E-1,2.6750912E2,1.11372795E2,3.8315563E1,6.6091286E1,3.677028E2,1.5418066E2,4.4790985E1,1.1969568E2,7.379038E1,1.5098841E1,2.2799366E0,-2.1705015E1,-2.822356E1,-4.8654736E1,2.235921E0,-2.2294498E1,-4.5622074E1,-7.598621E0,-5.4452118E1,-7.253802E1,-6.536293E1,-5.1094204E1,-7.460922E1,-8.570376E1],"split_indices":[0,31,31,32,31,32,31,31,31,26,32,32,32,5,1,26,18,32,19,5,31,25,0,31,31,31,1,1,32,31,31,32,31,32,16,19,18,32,32,30,30,3,19,13,5,26,30,31,16,31,31,31,32,3,0,31,16,18,31,26,18,32,31,0,0,0,0,0,0,0,0,0,0,0,0,0,0,0,0,0,0,0,0,0,0,0,0,0,0,0,0,0,0,0,0,0,0,0,0,0,0,0,0,0,0,0,0,0,0,0,0,0,0,0,0,0,0,0,0,0,0,0,0,0,0,0,0],"split_type":[0,1,1,0,1,0,1,1,1,0,0,0,0,0,0,0,1,0,0,0,1,0,0,1,1,1,0,0,0,1,1,0,1,0,1,0,1,0,0,0,0,1,0,0,0,0,0,1,1,1,1,1,0,1,0,1,1,1,1,0,1,0,1,0,0,0,0,0,0,0,0,0,0,0,0,0,0,0,0,0,0,0,0,0,0,0,0,0,0,0,0,0,0,0,0,0,0,0,0,0,0,0,0,0,0,0,0,0,0,0,0,0,0,0,0,0,0,0,0,0,0,0,0,0,0,0,0],"sum_hessian":[9.0433E4,1.5817E4,7.4616E4,1.0312E4,5.505E3,4.5385E4,2.9231E4,8.087E3,2.225E3,2.87E3,2.635E3,3.9768E4,5.617E3,1.9621E4,9.61E3,6.689E3,1.398E3,1.542E3,6.83E2,2.499E3,3.71E2,4.55E2,2.18E3,1.505E4,2.4718E4,4.398E3,1.219E3,2.471E3,1.715E4,5.302E3,4.308E3,5.829E3,8.6E2,1.124E3,2.74E2,8.18E2,7.24E2,5.58E2,1.25E2,2.07E2,2.292E3,9.6E1,2.75E2,6.6E1,3.89E2,1.706E3,4.74E2,3.527E3,1.1523E4,5.26E2,2.4192E4,6.14E2,3.784E3,3.45E2,8.74E2,8.39E2,1.632E3,1.2885E4,4.265E3,4.678E3,6.24E2,2.83E3,1.478E3,2.102E3,3.727E3,4.87E2,3.73E2,2.22E2,9.02E2,7.6E1,1.98E2,4.93E2,3.25E2,5.71E2,1.53E2,5.42E2,1.6E1,9E1,3.5E1,1.68E2,3.9E1,2.149E3,1.43E2,8.1E1,1.5E1,1.63E2,1.12E2,2.8E1,3.8E1,6.8E1,3.21E2,1.625E3,8.1E1,4.58E2,1.6E1,1.01E2,3.426E3,4.828E3,6.695E3,2.38E2,2.88E2,4.889E3,1.9303E4,3.3E1,5.81E2,2.022E3,1.762E3,4.2E1,3.03E2,1.38E2,7.36E2,2.54E2,5.85E2,9.66E2,6.66E2,6.725E3,6.16E3,1.375E3,2.89E3,4.472E3,2.06E2,1.08E2,5.16E2,2.161E3,6.69E2,9.5E2,5.28E2],"tree_param":{"num_deleted":"0","num_feature":"33","num_nodes":"127","size_leaf_vector":"1"}},{"base_weights":[-8.7739116E-1,1.0519484E3,-2.0812148E2,1.5340052E3,1.6739398E2,-3.424527E2,9.2008246E2,1.0789587E3,3.118736E3,4.3446863E2,-1.2348498E2,3.227999E2,-5.18653E2,1.4608918E3,-3.256481E2,1.3837561E3,6.353263E2,3.5444587E3,2.108262E3,3.185332E2,1.1277839E3,-5.146354E2,-4.4821507E1,2.2354978E3,2.306268E2,-3.8000873E2,-9.946174E2,1.1244594E3,2.4234414E3,2.4243394E2,-6.8086145E2,4.375203E3,1.3360862E3,2.1804352E2,8.950108E2,3.0904954E3,4.240887E3,1.9806329E3,2.518136E2,2.5302382E2,6.773174E2,1.5345406E2,9.8679626E2,-1.7505408E2,-5.832177E2,-1.15151985E2,3.3062332E2,3.1389756E3,1.583577E3,1.0910156E1,5.661141E2,-5.868407E2,-1.4570708E2,-8.3947186E2,-1.2531904E3,2.2391301E3,9.390955E2,3.3729204E3,2.0339224E3,9.8791766E2,8.395818E1,-4.458204E2,-9.9711646E2,1.6234299E2,3.058215E2,4.6780285E1,8.256287E1,-6.060373E0,1.719318E1,5.5486126E1,2.3276482E1,1.3451825E2,1.9263792E2,2.0563399E2,3.6878452E2,8.744261E1,1.597791E2,1.4820836E1,-8.378401E0,6.0345417E1,1.319119E1,2.2659132E1,7.648493E1,1.2185613E1,