{"learner":{"attributes":{"scikit_learn":"{\"_estimator_type\": \"regressor\"}"},"feature_names":["Age","RenovAge","IsRenovated","SubType","SquareMeters","LandplotSize","NoView","ViewForest","ViewMountain","ViewSea","ViewUnlimited","NoFacade","FacadeCorner","FacadeFrontage","FacadeInterior","FacadeThrough","HeatType","HeatFrom","EnergyPerformance","WC","AC","Elevator","Parking","StorageRoom","AluminumFrames","Bedrooms","Pool","Garden","FloorLevel","FloorCount","ZoneValue","MarketabillityFactor","AdminName","geo_premium"],"feature_types":["int","int","int","c","int","int","int","int","int","int","int","int","int","int","int","int","c","c","c","int","int","int","int","int","int","int","int","int","int","int","int","float","c","float"],"gradient_booster":{"model":{"cats":{"enc":[{"offsets":[],"values":[]},{"offsets":[],"values":[]},{"offsets":[],"values":[]},{"offsets":[0,9,19],"values":[97,112,97,114,116,109,101,110,116,109,97,105,115,111,110,101,116,116,101]},{"offsets":[],"values":[]},{"offsets":[],"values":[]},{"offsets":[],"values":[]},{"offsets":[],"values":[]},{"offsets":[],"values":[]},{"offsets":[],"values":[]},{"offsets":[],"values":[]},{"offsets":[],"values":[]},{"offsets":[],"values":[]},{"offsets":[],"values":[]},{"offsets":[],"values":[]},{"offsets":[],"values":[]},{"offsets":[0,18,39,54,64],"values":[97,117,116,111,110,111,109,111,117,115,95,99,101,110,116,114,97,108,97,117,116,111,110,111,109,111,117,115,95,105,110,100,105,118,105,100,117,97,108,99,101,110,116,114,97,108,95,104,101,97,116,105,110,103,110,111,95,104,101,97,116,105,110,103]},{"offsets":[0,11,22,25,31],"values":[101,108,101,99,116,114,105,99,105,116,121,110,97,116,117,114,97,108,95,103,97,115,111,105,108,112,101,108,108,101,116]},{"offsets":[0,1,3,6,7,9,10,11,12,13,14,26,27,29,30,32,33,34,35,45,46,47],"values":[65,65,43,65,43,43,66,66,43,67,68,69,70,71,78,111,116,32,82,101,113,117,105,114,101,100,-50,-111,-50,-111,43,-50,-110,-50,-110,43,-50,-109,-50,-108,-50,-107,-50,-107,-50,-66,-50]},{"offsets":[],"values":[]},{"offsets":[],"values":[]},{"offsets":[],"values":[]},{"offsets":[],"values":[]},{"offsets":[],"values":[]},{"offsets":[],"values":[]},{"offsets":[],"values":[]},{"offsets":[],"values":[]},{"offsets":[],"values":[]},{"offsets":[],"values":[]},{"offsets":[],"values":[]},{"offsets":[],"values":[]},{"offsets":[],"values":[]},{"offsets":[0,34,61,87,113,150,189,219,248,275,304,345,374,401,437,478,506,537,566,593,621,651,677,703,734,761,789,819,853,882,910,939,969,1018,1048,1091,1123,1150,1178,1208,1231,1259,1286,1313,1342,1371,1400,1426,1456,1486,1514,1540,1566,1606,1633,1659,1686,1715,1743,1772,1801,1829,1855,1881,1908,1937,1963,1989,2018,2048,2077,2105,2130,2161,2188],"values":[-50,-100,-50,-73,-49,-124,-49,-127,-50,-65,-49,-128,-50,-65,-50,-69,-50,-71,-49,-124,-50,-71,-50,-70,-50,-82,32,-50,-107,-50,-67,-49,-116,-49,-124,-50,-73,-49,-124,-50,-79,32,-50,-104,-50,-75,-49,-125,-49,-125,-50,-79,-50,-69,-50,-65,-50,-67,-50,-81,-50,-70,-50,-73,-49,-126,-50,-96,-50,-75,-49,-127,-50,-71,-49,-122,-50,-75,-49,-127,-50,-75,-50,-71,-50,-79,-50,-70,-50,-82,32,-50,-107,-50,-67,-49,-116,-49,-124,-50,-73,-49,-124,-50,-79,32,-50,-122,-50,-67,-50,-76,-49,-127,-50,-65,-49,-123,-50,-96,-50,-75,-49,-127,-50,-71,-49,-122,-50,-75,-49,-127,-50,-75,-50,-71,-50,-79,-50,-70,-50,-82,32,-50,-107,-50,-67,-49,-116,-49,-124,-50,-73,-49,-124,-50,-79,32,-50,-122,-49,-127,-49,-124,-50,-79,-49,-126,-50,-96,-50,-75,-49,-127,-50,-71,-49,-122,-50,-75,-49,-127,-50,-75,-50,-71,-50,-79,-50,-70,-50,-82,32,-50,-107,-50,-67,-49,-116,-49,-124,-50,-73,-49,-124,-50,-79,32,-50,-120,-50,-78,-49,-127,-50,-65,-49,-123,-50,-96,-50,-75,-49,-127,-50,-71,-49,-122,-50,-75,-49,-127,-50,-75,-50,-71,-50,-79,-50,-70,-50,-82,32,-50,-107,-50,-67,-49,-116,-49,-124,-50,-73,-49,-124,-50,-79,32,-50,-111,-50,-71,-49,-124,-49,-119,-50,-69,-50,-65,-50,-79,-50,-70,-50,-79,-49,-127,-50,-67,-50,-79,-50,-67,-50,-81,-50,-79,-49,-126,-50,-96,-50,-75,-49,-127,-50,-71,-49,-122,-50,-75,-49,-127,-50,-75,-50,-71,-50,-79,-50,-70,-50,-82,32,-50,-107,-50,-67,-49,-116,-49,-124,-50,-73,-49,-124,-50,-79,32,-50,-111,-50,-67,-50,-79,-49,-124,-50,-65,-50,-69,-50,-71,-50,-70,-50,-82,-49,-126,32,-50,-111,-49,-124,-49,-124,-50,-71,-50,-70,-50,-82,-49,-126,-50,-96,-50,-75,-49,-127,-50,-71,-49,-122,-50,-75,-49,-127,-50,-75,-50,-71,-50,-79,-50,-70,-50,-82,32,-50,-107,-50,-67,-49,-116,-49,-124,-50,-73,-49,-124,-50,-79,32,-50,-111,-49,-127,-50,-77,-50,-65,-50,-69,-50,-81,-50,-76,-50,-65,-49,-126,-50,-96,-50,-75,-49,-127,-50,-71,-49,-122,-50,-75,-49,-127,-50,-75,-50,-71,-50,-79,-50,-70,-50,-82,32,-50,-107,-50,-67,-49,-116,-49,-124,-50,-73,-49,-124,-50,-79,32,-50,-111,-49,-127,-50,-70,-50,-79,-50,-76,-50,-81,-50,-79,-49,-126,-50,-96,-50,-75,-49,-127,-50,-71,-49,-122,-50,-75,-49,-127,-50,-75,-50,-71,-50,-79,-50,-70,-50,-82,32,-50,-107,-50,-67,-49,-116,-49,-124,-50,-73,-49,-124,-50,-79,32,-50,-111,-49,-121,-50,-79,-50,-112,-50,-79,-49,-126,-50,-96,-50,-75,-49,-127,-50,-71,-49,-122,-50,-75,-49,-127,-50,-75,-50,-71,-50,-79,-50,-70,-50,-82,32,-50,-107,-50,-67,-49,-116,-49,-124,-50,-73,-49,-124,-50,-79,32,-50,-110,-50,-65,-50,-71,-49,-119,-49,-124,-50,-81,-50,-79,-49,-126,-50,-96,-50,-75,-49,-127,-50,-71,-49,-122,-50,-75,-49,-127,-50,-75,-50,-71,-50,-79,-50,-70,-50,-82,32,-50,-107,-50,-67,-49,-116,-49,-124,-50,-73,-49,-124,-50,-79,32,-50,-110,-50,-65,-49,-127,-50,-75,-50,-81,-50,-65,-49,-123,32,-50,-92,-50,-65,-50,-68,-50,-83,-50,-79,32,-50,-111,-50,-72,-50,-73,-50,-67,-49,-114,-50,-67,-50,-96,-50,-75,-49,-127,-50,-71,-49,-122,-50,-75,-49,-127,-50,-75,-50,-71,-50,-79,-50,-70,-50,-82,32,-50,-107,-50,-67,-49,-116,-49,-124,-50,-73,-49,-124,-50,-79,32,-50,-109,-49,-127,-50,-75,-50,-78,-50,-75,-50,-67,-49,-114,-50,-67,-50,-96,-50,-75,-49,-127,-50,-71,-49,-122,-50,-75,-49,-127,-50,-75,-50,-71,-50,-79,-50,-70,-50,-82,32,-50,-107,-50,-67,-49,-116,-49,-124,-50,-73,-49,-124,-50,-79,32,-50,-108,-49,-127,-50,-84,-50,-68,-50,-79,-49,-126,-50,-96,-50,-75,-49,-127,-50,-71,-49,-122,-50,-75,-49,-127,-50,-75,-50,-71,-50,-79,-50,-70,-50,-82,32,-50,-107,-50,-67,-49,-116,-49,-124,-50,-73,-49,-124,-50,-79,32,-50,-108,-49,-123,-49,-124,-50,-71,-50,-70,-50,-82,-49,-126,32,-50,-111,-49,-124,-49,-124,-50,-71,-50,-70,-50,-82,-49,-126,-50,-96,-50,-75,-49,-127,-50,-71,-49,-122,-50,-75,-49,-127,-50,-75,-50,-71,-50,-79,-50,-70,-50,-82,32,-50,-107,-50,-67,-49,-116,-49,-124,-50,-73,-49,-124,-50,-79,32,-50,-108,-49,-123,-49,-124,-50,-71,-50,-70,-50,-65,-49,-115,32,-50,-92,-50,-65,-50,-68,-50,-83,-50,-79,32,-50,-111,-50,-72,-50,-73,-50,-67,-49,-114,-50,-67,-50,-96,-50,-75,-49,-127,-50,-71,-49,-122,-50,-75,-49,-127,-50,-75,-50,-71,-50,-79,-50,-70,-50,-82,32,-50,-107,-50,-67,-49,-116,-49,-124,-50,-73,-49,-124,-50,-79,32,-50,-107,-49,-123,-50,-78,-50,-65,-50,-81,-50,-79,-49,-126,-50,-96,-50,-75,-49,-127,-50,-71,-49,-122,-50,-75,-49,-127,-50,-75,-50,-71,-50,-79,-50,-70,-50,-82,32,-50,-107,-50,-67,-49,-116,-49,-124,-50,-73,-49,-124,-50,-79,32,-50,-107,-49,-123,-49,-127,-49,-123,-49,-124,-50,-79,-50,-67,-50,-81,-50,-79,-49,-126,-50,-96,-50,-75,-49,-127,-50,-71,-49,-122,-50,-75,-49,-127,-50,-75,-50,-71,-50,-79,-50,-70,-50,-82,32,-50,-107,-50,-67,-49,-116,-49,-124,-50,-73,-49,-124,-50,-79,32,-50,-106,-50,-79,-50,-70,-49,-115,-50,-67,-50,-72,-50,-65,-49,-123,-50,-96,-50,-75,-49,-127,-50,-71,-49,-122,-50,-75,-49,-127,-50,-75,-50,-71,-50,-79,-50,-70,-50,-82,32,-50,-107,-50,-67,-49,-116,-49,-124,-50,-73,-49,-124,-50,-79,32,-50,-105,-50,-69,-50,-75,-50,-81,-50,-79,-49,-126,-50,-96,-50,-75,-49,-127,-50,-71,-49,-122,-50,-75,-49,-127,-50,-75,-50,-71,-50,-79,-50,-70,-50,-82,32,-50,-107,-50,-67,-49,-116,-49,-124,-50,-73,-49,-124,-50,-79,32,-50,-105,-50,-68,-50,-79,-50,-72,-50,-81,-50,-79,-49,-126,-50,-96,-50,-75,-49,-127,-50,-71,-49,-122,-50,-75,-49,-127,-50,-75,-50,-71,-50,-79,-50,-70,-50,-82,32,-50,-107,-50,-67,-49,-116,-49,-124,-50,-73,-49,-124,-50,-79,32,-50,-105,-49,-127,-50,-79,-50,-70,-50,-69,-50,-75,-50,-81,-50,-65,-49,-123,-50,-96,-50,-75,-49,-127,-50,-71,-49,-122,-50,-75,-49,-127,-50,-75,-50,-71,-50,-79,-50,-70,-50,-82,32,-50,-107,-50,-67,-49,-116,-49,-124,-50,-73,-49,-124,-50,-79,32,-50,-104,-50,-84,-49,-125,-50,-65,-49,-123,-50,-96,-50,-75,-49,-127,-50,-71,-49,-122,-50,-75,-49,-127,-50,-75,-50,-71,-50,-79,-50,-70,-50,-82,32,-50,-107,-50,-67,-49,-116,-49,-124,-50,-73,-49,-124,-50,-79,32,-50,-104,-50,-82,-49,-127,-50,-79,-49,-126,-50,-96,-50,-75,-49,-127,-50,-71,-49,-122,-50,-75,-49,-127,-50,-75,-50,-71,-50,-79,-50,-70,-50,-82,32,-50,-107,-50,-67,-49,-116,-49,-124,-50,-73,-49,-124,-50,-79,32,-50,-104,-50,-75,-49,-125,-49,-128,-49,-127,-49,-119,-49,-124,-50,-81,-50,-79,-49,-126,-50,-96,-50,-75,-49,-127,-50,-71,-49,-122,-50,-75,-49,-127,-50,-75,-50,-71,-50,-79,-50,-70,-50,-82,32,-50,-107,-50,-67,-49,-116,-49,-124,-50,-73,-49,-124,-50,-79,32,-50,-103,-50,-72,-50,-84,-50,-70,-50,-73,-49,-126,-50,-96,-50,-75,-49,-127,-50,-71,-49,-122,-50,-75,-49,-127,-50,-75,-50,-71,-50,-79,-50,-70,-50,-82,32,-50,-107,-50,-67,-49,-116,-49,-124,-50,-73,-49,-124,-50,-79,32,-50,-103,-50,-70,-50,-79,-49,-127,-50,-81,-50,-79,-49,-126,-50,-96,-50,-75,-49,-127,-50,-71,-49,-122,-50,-75,-49,-127,-50,-75,-50,-71,-50,-79,-50,-70,-50,-82,32,-50,-107,-50,-67,-49,-116,-49,-124,-50,-73,-49,-124,-50,-79,32,-50,-103,-49,-119,-50,-79,-50,-67,-50,-67,-50,-81,-50,-67,-49,-119,-50,-67,-50,-96,-50,-75,-49,-127,-50,-71,-49,-122,-50,-75,-49,-127,-50,-75,-50,-71,-50,-79,-50,-70,-50,-82,32,-50,-107,-50,-67,-49,-116,-49,-124,-50,-73,-49,-124,-50,-79,32,-50,-102,-50,-83,-50,-79,-49,-126,32,45,32,-50,-102,-49,-115,-50,-72,-50,-67,-50,-65,-49,-123,-50,-96,-50,-75,-49,-127,-50,-71,-49,-122,-50,-75,-49,-127,-50,-75,-50,-71,-50,-79,-50,-70,-50,-82,32,-50,-107,-50,-67,-49,-116,-49,-124,-50,-73,-49,-124,-50,-79,32,-50,-102,-50,-83,-49,-127,-50,-70,-49,-123,-49,-127,-50,-79,-49,-126,-50,-96,-50,-75,-49,-127,-50,-71,-49,-122,-50,-75,-49,-127,-50,-75,-50,-71,-50,-79,-50,-70,-50,-82,32,-50,-107,-50,-67,-49,-116,-49,-124,-50,-73,-49,-124,-50,-79,32,-50,-102,-50,-79,-50,-78,-50,-84,-50,-69,-50,-79,-49,-126,-50,-96,-50,-75,-49,-127,-50,-71,-49,-122,-50,-75,-49,-127,-50,-75,-50,-71,-50,-79,-50,-70,-50,-82,32,-50,-107,-50,-67,-49,-116,-49,-124,-50,-73,-49,-124,-50,-79,32,-50,-102,-50,-79,-50,-69,-49,-115,-50,-68,-50,-67,-50,-65,-49,-123,-50,-96,-50,-75,-49,-127,-50,-71,-49,-122,-50,-75,-49,-127,-50,-75,-50,-71,-50,-79,-50,-70,-50,-82,32,-50,-107,-50,-67,-49,-116,-49,-124,-50,-73,-49,-124,-50,-79,32,-50,-102,-50,-79,-49,-127,-50,-76,-50,-81,-49,-124,-49,-125,-50,-79,-49,-126,-50,-96,-50,-75,-49,-127,-50,-71,-49,-122,-50,-75,-49,-127,-50,-75,-50,-71,-50,-79,-50,-70,-50,-82,32,-50,-107,-50,-67,-49,-116,-49,-124,-50,-73,-49,-124,-50,-79,32,-50,-102,-50,-79,-49,-127,-49,-128,-50,-84,-50,-72,-50,-65,-49,-123,45,-50,-105,-49,-127,-49,-119,-50,-71,-50,-70,-50,-82,-49,-126,32,-50,-99,-50,-82,-49,-125,-50,-65,-49,-123,32,-50,-102,-50,-84,-49,-125,-50,-65,-49,-123,-50,-96,-50,-75,-49,-127,-50,-71,-49,-122,-50,-75,-49,-127,-50,-75,-50,-71,-50,-79,-50,-70,-50,-82,32,-50,-107,-50,-67,-49,-116,-49,-124,-50,-73,-49,-124,-50,-79,32,-50,-102,-50,-79,-49,-125,-49,-124,-50,-65,-49,-127,-50,-71,-50,-84,-49,-126,-50,-96,-50,-75,-49,-127,-50,-71,-49,-122,-50,-75,-49,-127,-50,-75,-50,-71,-50,-79,-50,-70,-50,-82,32,-50,-107,-50,-67,-49,-116,-49,-124,-50,-73,-49,-124,-50,-79,32,-50,-102,-50,-75,-50,-67,-49,-124,-49,-127,-50,-71,-50,-70,-50,-65,-49,-115,32,-50,-92,-50,-65,-50,-68,-50,-83,-50,-79,32,-50,-111,-50,-72,-50,-73,-50,-67,-49,-114,-50,-67,-50,-96,-50,-75,-49,-127,-50,-71,-49,-122,-50,-75,-49,-127,-50,-75,-50,-71,-50,-79,-50,-70,-50,-82,32,-50,-107,-50,-67,-49,-116,-49,-124,-50,-73,-49,-124,-50,-79,32,-50,-102,-50,-75,-49,-122,-50,-79,-50,-69,-50,-69,-50,-73,-50,-67,-50,-81,-50,-79,-49,-126,-50,-96,-50,-75,-49,-127,-50,-71,-49,-122,-50,-75,-49,-127,-50,-75,-50,-71,-50,-79,-50,-70,-50,-82,32,-50,-107,-50]},{"offsets":[],"values":[]}],"feature_segments":[0,0,0,0,2,2,2,2,2,2,2,2,2,2,2,2,2,6,10,31,31,31,31,31,31,31,31,31,31,31,31,31,31,105,105],"sorted_idx":[0,1,0,1,2,3,0,1,2,3,13,12,15,17,19,11,16,20,14,18,0,1,2,3,4,5,6,7,8,9,10,24,66,41,56,4,15,13,38,5,42,1,69,72,12,43,8,73,7,35,32,31,9,64,21,23,44,28,20,45,71,11,3,6,59,2,53,25,29,0,65,58,61,50,62,55,57,10,14,34,68,36,48,30,54,26,63,27,19,17,49,51,52,60,16,70,46,39,22,47,33,18,40,67,37]},"gbtree_model_param":{"num_parallel_tree":"1","num_trees":"500"},"iteration_indptr":[0,1,2,3,4,5,6,7,8,9,10,11,12,13,14,15,16,17,18,19,20,21,22,23,24,25,26,27,28,29,30,31,32,33,34,35,36,37,38,39,40,41,42,43,44,45,46,47,48,49,50,51,52,53,54,55,56,57,58,59,60,61,62,63,64,65,66,67,68,69,70,71,72,73,74,75,76,77,78,79,80,81,82,83,84,85,86,87,88,89,90,91,92,93,94,95,96,97,98,99,100,101,102,103,104,105,106,107,108,109,110,111,112,113,114,115,116,117,118,119,120,121,122,123,124,125,126,127,128,129,130,131,132,133,134,135,136,137,138,139,140,141,142,143,144,145,146,147,148,149,150,151,152,153,154,155,156,157,158,159,160,161,162,163,164,165,166,167,168,169,170,171,172,173,174,175,176,177,178,179,180,181,182,183,184,185,186,187,188,189,190,191,192,193,194,195,196,197,198,199,200,201,202,203,204,205,206,207,208,209,210,211,212,213,214,215,216,217,218,219,220,221,222,223,224,225,226,227,228,229,230,231,232,233,234,235,236,237,238,239,240,241,242,243,244,245,246,247,248,249,250,251,252,253,254,255,256,257,258,259,260,261,262,263,264,265,266,267,268,269,270,271,272,273,274,275,276,277,278,279,280,281,282,283,284,285,286,287,288,289,290,291,292,293,294,295,296,297,298,299,300,301,302,303,304,305,306,307,308,309,310,311,312,313,314,315,316,317,318,319,320,321,322,323,324,325,326,327,328,329,330,331,332,333,334,335,336,337,338,339,340,341,342,343,344,345,346,347,348,349,350,351,352,353,354,355,356,357,358,359,360,361,362,363,364,365,366,367,368,369,370,371,372,373,374,375,376,377,378,379,380,381,382,383,384,385,386,387,388,389,390,391,392,393,394,395,396,397,398,399,400,401,402,403,404,405,406,407,408,409,410,411,412,413,414,415,416,417,418,419,420,421,422,423,424,425,426,427,428,429,430,431,432,433,434,435,436,437,438,439,440,441,442,443,444,445,446,447,448,449,450,451,452,453,454,455,456,457,458,459,460,461,462,463,464,465,466,467,468,469,470,471,472,473,474,475,476,477,478,479,480,481,482,483,484,485,486,487,488,489,490,491,492,493,494,495,496,497,498,499,500],"tree_info":[0,0,0,0,0,0,0,0,0,0,0,0,0,0,0,0,0,0,0,0,0,0,0,0,0,0,0,0,0,0,0,0,0,0,0,0,0,0,0,0,0,0,0,0,0,0,0,0,0,0,0,0,0,0,0,0,0,0,0,0,0,0,0,0,0,0,0,0,0,0,0,0,0,0,0,0,0,0,0,0,0,0,0,0,0,0,0,0,0,0,0,0,0,0,0,0,0,0,0,0,0,0,0,0,0,0,0,0,0,0,0,0,0,0,0,0,0,0,0,0,0,0,0,0,0,0,0,0,0,0,0,0,0,0,0,0,0,0,0,0,0,0,0,0,0,0,0,0,0,0,0,0,0,0,0,0,0,0,0,0,0,0,0,0,0,0,0,0,0,0,0,0,0,0,0,0,0,0,0,0,0,0,0,0,0,0,0,0,0,0,0,0,0,0,0,0,0,0,0,0,0,0,0,0,0,0,0,0,0,0,0,0,0,0,0,0,0,0,0,0,0,0,0,0,0,0,0,0,0,0,0,0,0,0,0,0,0,0,0,0,0,0,0,0,0,0,0,0,0,0,0,0,0,0,0,0,0,0,0,0,0,0,0,0,0,0,0,0,0,0,0,0,0,0,0,0,0,0,0,0,0,0,0,0,0,0,0,0,0,0,0,0,0,0,0,0,0,0,0,0,0,0,0,0,0,0,0,0,0,0,0,0,0,0,0,0,0,0,0,0,0,0,0,0,0,0,0,0,0,0,0,0,0,0,0,0,0,0,0,0,0,0,0,0,0,0,0,0,0,0,0,0,0,0,0,0,0,0,0,0,0,0,0,0,0,0,0,0,0,0,0,0,0,0,0,0,0,0,0,0,0,0,0,0,0,0,0,0,0,0,0,0,0,0,0,0,0,0,0,0,0,0,0,0,0,0,0,0,0,0,0,0,0,0,0,0,0,0,0,0,0,0,0,0,0,0,0,0,0,0,0,0,0,0,0,0,0,0,0,0,0,0,0,0,0,0,0,0,0,0,0,0,0,0,0,0,0,0,0,0,0,0,0,0,0,0,0,0,0,0,0,0,0,0,0,0,0,0,0,0,0,0,0,0,0,0,0,0,0,0,0,0,0,0,0,0,0,0,0,0],"trees":[{"base_weights":[-7.7746334E0,-3.1171384E2,2.436946E3,7.617349E2,-6.5090393E2,4.1814326E3,1.6635979E3,1.3771146E3,2.0547165E2,-9.6734894E2,-1.21098175E2,3.3123567E3,5.864648E3,1.1680981E3,3.4552002E3,1.1145431E3,1.9721473E3,-4.064709E2,5.696379E2,-8.3120386E2,-1.558408E3,1.6327164E2,-4.017214E2,2.7300872E3,4.7362373E3,6.5563525E3,4.4347383E3,2.24574E3,9.218175E2,3.2032893E3,6.3045176E3,7.517816E2,1.4252711E3,1.8097185E3,3.4790566E3,-4.9424765E2,7.379104E2,5.0253528E2,3.349652E3,-5.873349E2,-1.0734287E3,-1.3321593E3,-1.801075E3,-1.7558621E0,5.540212E2,-7.4385E2,-2.2524405E2,2.4929963E3,4.3458867E3,3.9897566E3,5.846013E3,5.634638E3,7.554767E3,3.5738418E3,5.124963E3,1.8518833E3,2.7369485E3,6.098271E2,1.5027311E3,2.1347896E3,3.735236E3,4.8897036E3,8.760277E3,5.202436E1,2.311994E1,5.840646E1,8.5161415E1,7.264108E1,1.1661836E2,1.5127324E2,2.4123413E2,-3.932174E1,-1.5617732E1,1.4855698E2,2.7247482E1,2.2511104E2,2.3791006E1,9.749099E1,1.9048576E2,7.598186E0,-3.4652836E1,-3.223748E1,-5.7983364E1,-7.393722E1,-5.8227985E1,-8.244769E1,-1.03672356E2,4.539786E1,-2.7728057E0,1.9495024E1,5.230142E1,-1.2662951E1,-4.7860695E1,1.4671332E1,-1.6893705E1,1.0648051E2,1.5436548E2,1.3741501E2,2.5972885E2,1.06249535E2,2.1258122E2,2.2933806E2,3.6331436E2,3.0187347E2,1.7314806E2,3.1288E2,4.2453433E2,1.6025375E2,2.732487E2,2.3285233E2,4.044832E2,1.11574524E2,7.5621864E1,1.2966957E2,2.1142903E2,1.569684E1,4.4425686E1,1.2985002E2,6.6368645E1,9.6534096E1,1.831627E2,1.6442021E2,2.4047461E2,1.7137016E2,3.031055E2,2.9673276E2,5.607492E2],"categories":[5,6,7,8,9,13,15,16,17,18,19,20,0,2,3,4,5,6,7,8,9,10,13,15,16,17,18,19,20,0,1,2,3,4,5,6,7,8,9,11,12,13,14,15,16,17,18,19,20,21,23,24,25,26,28,29,30,31,32,33,35,36,37,38,39,40,41,42,43,44,46,47,48,49,50,51,53,55,56,57,58,59,60,61,62,63,64,65,66,67,68,69,70,71,72,2,3,4,7,8,9,12,13,15,18,19,20,26,28,31,33,36,37,40,41,43,47,53,55,57,62,63,67,68,70,2,3,0,2,3,4,5,6,7,8,9,10,11,13,14,15,16,17,18,19,20,0,1,2,3,4,6,7,8,9,10,11,12,13,14,15,16,17,18,19,20,21,22,23,24,25,26,27,28,29,30,31,32,33,34,35,36,37,38,39,40,41,42,43,44,45,46,47,48,50,51,52,53,54,55,56,57,58,59,60,61,62,63,64,65,66,67,68,69,70,71,72,73,8,9,17,18,19,20,17,18,19,20,0,1,2,3,4,5,6,7,8,9,11,12,13,14,15,16,17,18,19,20,21,22,23,24,25,26,27,28,29,30,31,32,33,34,35,36,37,38,39,40,41,42,43,44,45,46,47,48,49,50,51,53,55,56,57,58,59,60,61,62,63,64,65,66,67,68,69,70,71,72,73,0,5,6,14,34,38,44,48,56,59,61,71,2,3,4,9,12,18,19,31,33,36,37,40,55,57,63,67,68,14,20,34,0,1,2,3,4,5,6,7,8,9,10,11,12,14,16,17,18,19,20,0,1,2,3,4,6,7,8,9,10,11,12,13,14,15,16,17,18,19,20,21,22,23,24,25,26,27,28,29,30,31,32,33,34,35,36,37,38,39,40,41,42,43,44,45,46,47,48,49,50,51,53,54,55,56,57,58,59,60,61,62,63,64,65,66,67,68,69,70,71,72,73,0,1,2,3,4,5,6,7,8,9,10,11,12,14,16,17,19,20,0,1,2,3,4,5,6,7,8,9,10,11,12,14,15,16,17,18,19,20],"categories_nodes":[1,2,3,9,10,12,13,19,20,31,40,42,45,46,51,55,58],"categories_segments":[0,12,29,95,125,127,146,218,224,228,299,311,328,331,350,422,440],"categories_sizes":[12,17,66,30,2,19,72,6,4,71,12,17,3,19,72,18,20],"default_left":[0,0,0,0,0,0,0,0,0,1,0,0,1,0,0,0,0,0,0,0,0,0,0,0,0,0,0,0,0,0,0,0,0,0,0,0,0,0,0,0,1,0,1,0,0,1,0,0,0,0,0,0,0,0,0,0,0,0,0,0,0,0,0,0,0,0,0,0,0,0,0,0,0,0,0,0,0,0,0,0,0,0,0,0,0,0,0,0,0,0,0,0,0,0,0,0,0,0,0,0,0,0,0,0,0,0,0,0,0,0,0,0,0,0,0,0,0,0,0,0,0,0,0,0,0,0,0],"id":0,"left_children":[1,3,5,7,9,11,13,15,17,19,21,23,25,27,29,31,33,35,37,39,41,43,45,47,49,51,53,55,57,59,61,63,65,67,69,71,73,75,77,79,81,83,85,87,89,91,93,95,97,99,101,103,105,107,109,111,113,115,117,119,121,123,125,-1,-1,-1,-1,-1,-1,-1,-1,-1,-1,-1,-1,-1,-1,-1,-1,-1,-1,-1,-1,-1,-1,-1,-1,-1,-1,-1,-1,-1,-1,-1,-1,-1,-1,-1,-1,-1,-1,-1,-1,-1,-1,-1,-1,-1,-1,-1,-1,-1,-1,-1,-1,-1,-1,-1,-1,-1,-1,-1,-1,-1,-1,-1,-1],"loss_changes":[5.072705E10,2.210884E10,1.0177368E10,4.9906437E9,7.7356257E9,3.3714422E9,4.6406113E9,1.0792847E9,1.7070305E9,2.3232369E9,1.3770278E9,1.2563948E9,7.503155E8,1.0860795E9,7.93044E8,5.405491E8,5.1211725E8,2.8745104E8,8.941116E8,1.3864192E9,2.944604E8,5.526968E8,5.242149E8,4.063524E8,3.436677E8,4.44246E8,1.361792E8,1.4235213E8,6.042422E8,5.848504E8,2.7333914E8,1.8490829E8,1.8291456E8,3.5363277E8,1.1052774E8,1.4085907E8,8.62897E7,4.9899533E8,6.5344896E7,9.1481165E8,4.347054E8,6.711654E7,1.0455654E8,2.9448026E8,2.0509728E8,3.0907034E8,3.3489216E8,1.9902464E8,1.72832E8,1.2183603E8,2.8144435E8,2.2316749E8,2.5159373E8,6.547341E7,1.5931315E8,5.151757E7,6.1197056E7,1.789906E8,2.2029568E8,1.0180544E8,3.1779328E8,8.208742E7,1.5539738E8,0E0,0E0,0E0,0E0,0E0,0E0,0E0,0E0,0E0,0E0,0E0,0E0,0E0,0E0,0E0,0E0,0E0,0E0,0E0,0E0,0E0,0E0,0E0,0E0,0E0,0E0,0E0,0E0,0E0,0E0,0E0,0E0,0E0,0E0,0E0,0E0,0E0,0E0,0E0,0E0,0E0,0E0,0E0,0E0,0E0,0E0,0E0,0E0,0E0,0E0,0E0,0E0,0E0,0E0,0E0,0E0,0E0,0E0,0E0,0E0,0E0,0E0,0E0,0E0],"parents":[2147483647,0,0,1,1,2,2,3,3,4,4,5,5,6,6,7,7,8,8,9,9,10,10,11,11,12,12,13,13,14,14,15,15,16,16,17,17,18,18,19,19,20,20,21,21,22,22,23,23,24,24,25,25,26,26,27,27,28,28,29,29,30,30,31,31,32,32,33,33,34,34,35,35,36,36,37,37,38,38,39,39,40,40,41,41,42,42,43,43,44,44,45,45,46,46,47,47,48,48,49,49,50,50,51,51,52,52,53,53,54,54,55,55,56,56,57,57,58,58,59,59,60,60,61,61,62,62],"right_children":[2,4,6,8,10,12,14,16,18,20,22,24,26,28,30,32,34,36,38,40,42,44,46,48,50,52,54,56,58,60,62,64,66,68,70,72,74,76,78,80,82,84,86,88,90,92,94,96,98,100,102,104,106,108,110,112,114,116,118,120,122,124,126,-1,-1,-1,-1,-1,-1,-1,-1,-1,-1,-1,-1,-1,-1,-1,-1,-1,-1,-1,-1,-1,-1,-1,-1,-1,-1,-1,-1,-1,-1,-1,-1,-1,-1,-1,-1,-1,-1,-1,-1,-1,-1,-1,-1,-1,-1,-1,-1,-1,-1,-1,-1,-1,-1,-1,-1,-1,-1,-1,-1,-1,-1,-1,-1],"split_conditions":[2.25E3,1E-45,1E-45,1E-45,1.5E3,2.8E3,3.55E3,-6.63277E-4,1.2E3,1E-45,1E-45,1E0,1E-45,1E-45,1E0,1.7E3,1E0,1E0,2.05E3,1E-45,1E-45,3E0,1.7E3,3E0,0E0,3E0,2E0,2.75E3,-1.0715939E-2,1E0,4.1E3,1E-45,3E0,1.8E3,1.0264638E-1,1E3,4.4E1,2.7E1,1E0,4.8E1,1E-45,1.05E3,1E-45,4.4E1,-6.63277E-4,1E-45,1E-45,-2.1505212E-2,-3.902623E-2,2.35E3,2E0,1E-45,2E0,1E0,1.4E0,1E-45,4E0,2.45E3,1E-45,4.45E3,4.25E3,-2.789712E-2,1E0,5.202436E1,2.311994E1,5.840646E1,8.5161415E1,7.264108E1,1.1661836E2,1.5127324E2,2.4123413E2,-3.932174E1,-1.5617732E1,1.4855698E2,2.7247482E1,2.2511104E2,2.3791006E1,9.749099E1,1.9048576E2,7.598186E0,-3.4652836E1,-3.223748E1,-5.7983364E1,-7.393722E1,-5.8227985E1,-8.244769E1,-1.03672356E2,4.539786E1,-2.7728057E0,1.9495024E1,5.230142E1,-1.2662951E1,-4.7860695E1,1.4671332E1,-1.6893705E1,1.0648051E2,1.5436548E2,1.3741501E2,2.5972885E2,1.06249535E2,2.1258122E2,2.2933806E2,3.6331436E2,3.0187347E2,1.7314806E2,3.1288E2,4.2453433E2,1.6025375E2,2.732487E2,2.3285233E2,4.044832E2,1.11574524E2,7.5621864E1,1.2966957E2,2.1142903E2,1.569684E1,4.4425686E1,1.2985002E2,6.6368645E1,9.6534096E1,1.831627E2,1.6442021E2,2.4047461E2,1.7137016E2,3.031055E2,2.9673276E2,5.607492E2],"split_indices":[30,18,18,32,30,30,30,33,30,32,16,26,18,32,9,30,26,26,30,18,18,28,30,19,33,19,19,30,33,28,30,32,28,30,33,30,4,4,23,4,32,30,32,5,33,32,18,33,33,30,28,32,28,26,31,18,28,30,18,30,30,33,15,0,0,0,0,0,0,0,0,0,0,0,0,0,0,0,0,0,0,0,0,0,0,0,0,0,0,0,0,0,0,0,0,0,0,0,0,0,0,0,0,0,0,0,0,0,0,0,0,0,0,0,0,0,0,0,0,0,0,0,0,0,0,0,0],"split_type":[0,1,1,1,0,0,0,0,0,1,1,0,1,1,0,0,0,0,0,1,1,0,0,0,0,0,0,0,0,0,0,1,0,0,0,0,0,0,0,0,1,0,1,0,0,1,1,0,0,0,0,1,0,0,0,1,0,0,1,0,0,0,0,0,0,0,0,0,0,0,0,0,0,0,0,0,0,0,0,0,0,0,0,0,0,0,0,0,0,0,0,0,0,0,0,0,0,0,0,0,0,0,0,0,0,0,0,0,0,0,0,0,0,0,0,0,0,0,0,0,0,0,0,0,0,0,0],"sum_hessian":[6.8267E4,6.0719E4,7.548E3,1.4579E4,4.614E4,2.317E3,5.231E3,6.921E3,7.658E3,2.8886E4,1.7254E4,1.53E3,7.87E2,4.099E3,1.132E3,4.804E3,2.117E3,2.857E3,4.801E3,2.348E4,5.406E3,8.57E3,8.684E3,1.088E3,4.42E2,5.28E2,2.59E2,7.61E2,3.338E3,1.042E3,9E1,2.218E3,2.586E3,1.913E3,2.04E2,2.654E3,2.03E2,4.689E3,1.12E2,1.1702E4,1.1778E4,2.801E3,2.605E3,6.026E3,2.544E3,2.954E3,5.73E3,9.51E2,1.37E2,2.67E2,1.75E2,2.78E2,2.5E2,1.18E2,1.41E2,4.25E2,3.36E2,2.173E3,1.165E3,3.48E2,6.94E2,5.9E1,3.1E1,1.109E3,1.109E3,1.346E3,1.24E3,1.139E3,7.74E2,1.55E2,4.9E1,1.017E3,1.637E3,1.5E1,1.88E2,3E1,4.659E3,2.9E1,8.3E1,1.464E3,1.0238E4,1.974E3,9.804E3,1.49E3,1.311E3,1.676E3,9.29E2,3.35E2,5.691E3,1.909E3,6.35E2,8.96E2,2.058E3,1.022E3,4.708E3,5.93E2,3.58E2,4.9E1,8.8E1,3.4E1,2.33E2,9.5E1,8E1,2.33E2,4.5E1,1.08E2,1.42E2,1.01E2,1.7E1,1.24E2,1.7E1,1.98E2,2.27E2,3.09E2,2.7E1,1.055E3,1.118E3,1.59E2,1.006E3,3.09E2,3.9E1,4.93E2,2.01E2,2.8E1,3.1E1,1.6E1,1.5E1],"tree_param":{"num_deleted":"0","num_feature":"34","num_nodes":"127","size_leaf_vector":"1"}},{"base_weights":[-9.84304E-1,-2.5502249E2,2.709351E3,1.0278558E3,-5.6010785E2,4.8612085E3,1.9751412E3,1.6530292E3,3.62853E2,-8.593368E2,1.7345015E1,3.8538435E3,6.2373633E3,1.4502444E3,3.3293567E3,1.5260338E3,3.0963853E3,3.154456E2,4.02818E3,-7.169804E2,-1.4057212E3,4.7473535E2,-2.1480278E2,3.226219E3,4.750454E3,5.4724478E3,7.1630356E3,2.1939868E3,1.1693203E3,3.0607534E3,6.1719136E3,1.1622091E3,1.8389858E3,3.8969536E3,2.389163E3,-1.6307092E2,5.9322815E2,1.7850302E2,2.391646E2,-3.3477588E2,-9.1993134E2,-1.1924884E3,-1.6832037E3,1.3413187E3,3.8141708E2,3.7857704E1,-3.949439E2,2.887062E3,4.619142E3,4.1552827E3,5.785006E3,5.724912E3,3.9639688E3,6.802556E3,6.016047E2,1.6555071E3,2.8634573E3,1.077316E3,3.2994067E3,2.4527402E3,3.764542E3,4.933939E3,5.906287E2,2.2808538E1,6.191404E1,8.856995E1,1.3937431E2,1.6941545E2,2.3930403E2,9.7463684E1,1.662144E2,-1.3135431E1,4.0436012E1,2.6138865E1,7.404517E1,2.7832794E1,-2.3621168E1,-5.3085743E1,-3.1407715E1,-6.8034454E1,-5.105672E1,-7.68521E1,-9.871357E1,8.713461E1,2.8848816E1,1.045601E1,3.7016514E1,-8.398245E0,1.351284E1,-3.5718082E1,-1.2920314E1,1.8836365E2,1.3075136E2,1.6216258E2,2.7002652E2,2.1655135E2,1.2041015E2,2.5398587E2,3.587192E2,2.7659628E2,3.8833325E2,1.4886765E2,2.6628024E2,2.79829E2,3.784287E2,1.165776E2,7.308999E1,1.2806906E2,1.936689E2,2.3571562E1,6.479701E1,2.8403354E2,1.1275033E2,1.8338937E2,1.0800912E2,1.5583385E2,2.5062866E2,2.945536E2,2.0882124E2],"categories":[0,1,2,3,4,5,6,7,8,9,11,12,13,14,15,16,17,18,19,20,21,23,24,25,26,28,29,30,31,32,33,35,36,37,38,39,40,41,42,43,44,46,47,48,49,50,51,53,55,56,57,58,59,60,61,62,63,64,65,66,67,68,69,70,71,72,2,3,4,7,8,9,12,13,15,16,18,19,20,26,31,33,36,37,38,40,41,43,44,47,53,55,57,62,63,67,68,70,71,0,1,2,4,5,6,7,8,9,10,16,17,18,19,20,0,1,2,3,4,6,7,8,9,10,11,12,13,14,15,16,17,18,19,20,21,22,23,24,25,26,27,28,29,30,31,32,33,34,35,36,37,38,39,40,41,42,43,44,45,46,47,48,50,51,52,53,54,55,56,57,58,59,60,61,62,63,64,65,66,67,68,69,70,71,72,73,0,1,2,3,4,5,6,7,8,9,10,11,12,13,14,15,16,17,18,19,20,21,22,23,24,25,26,27,28,29,30,31,32,33,35,36,37,38,39,40,41,42,43,44,45,46,47,48,49,50,51,53,54,55,56,57,58,59,60,61,62,63,64,65,66,67,68,69,70,71,72,73,7,8,9,16,17,18,19,20,17,18,19,20,2,3,0,1,2,3,4,6,7,8,9,10,11,12,13,14,15,16,17,18,19,20,21,22,23,24,25,26,27,28,29,30,31,32,33,34,35,36,37,38,39,40,41,42,43,44,45,46,47,48,49,50,51,53,54,55,56,57,58,59,60,61,62,63,64,65,66,67,68,69,70,71,72,73,2,3,4,9,12,18,19,31,36,37,40,41,53,55,57,63,67,68,2,0,1,2,3,4,6,7,8,9,10,11,12,13,14,15,16,17,18,19,20,21,22,23,24,25,26,27,28,29,30,31,32,33,34,35,36,37,38,39,40,41,42,43,44,45,46,47,48,49,50,51,52,53,54,55,56,57,58,59,60,61,62,63,64,65,66,67,68,69,70,71,72,73,0,0,1,2,3,4,5,6,7,8,9,10,12,14,15,16,17,18,19,20,0,1,2,3,4,6,7,8,9,10,11,12,13,14,15,16,17,18,19,20,21,22,23,24,25,26,27,28,29,30,31,32,33,34,35,36,37,38,39,40,41,42,43,44,45,46,47,48,49,50,51,52,53,54,55,56,57,58,59,60,61,62,63,64,65,66,67,68,69,70,71,72,73,0,1,2,3,4,6,7,8,9,10,11,12,13,14,15,16,17,18,19,20,21,22,23,24,25,26,27,28,29,30,31,32,33,34,35,36,37,38,39,40,41,42,43,44,45,46,47,48,49,50,51,52,53,54,55,56,57,58,59,60,61,62,63,64,65,66,67,68,69,70,71,72,73],"categories_nodes":[3,9,10,13,16,19,20,22,25,42,43,47,50,55,59,61],"categories_segments":[0,66,99,114,186,258,266,270,272,344,362,363,436,437,456,529],"categories_sizes":[66,33,15,72,72,8,4,2,72,18,1,73,1,19,73,73],"default_left":[0,0,0,0,0,0,0,0,0,1,0,0,0,0,0,0,0,0,0,0,0,0,0,0,0,0,0,0,0,0,0,0,0,0,0,0,0,0,0,0,0,0,1,0,0,0,0,0,0,0,1,0,0,0,0,0,0,0,0,0,0,0,0,0,0,0,0,0,0,0,0,0,0,0,0,0,0,0,0,0,0,0,0,0,0,0,0,0,0,0,0,0,0,0,0,0,0,0,0,0,0,0,0,0,0,0,0,0,0,0,0,0,0,0,0,0,0,0,0],"id":1,"left_children":[1,3,5,7,9,11,13,15,17,19,21,23,25,27,29,31,33,35,37,39,41,43,45,47,49,51,53,55,57,59,61,63,65,67,69,71,73,-1,-1,75,77,79,81,83,85,87,89,91,93,95,97,99,101,103,-1,105,107,109,111,113,115,117,-1,-1,-1,-1,-1,-1,-1,-1,-1,-1,-1,-1,-1,-1,-1,-1,-1,-1,-1,-1,-1,-1,-1,-1,-1,-1,-1,-1,-1,-1,-1,-1,-1,-1,-1,-1,-1,-1,-1,-1,-1,-1,-1,-1,-1,-1,-1,-1,-1,-1,-1,-1,-1,-1,-1,-1,-1],"loss_changes":[4.6921167E10,2.438675E10,9.217102E9,4.976247E9,8.697777E9,2.034602E9,3.0915185E9,1.126232E9,1.0069059E9,2.5779077E9,1.8245238E9,4.6862643E8,4.0404992E8,6.536996E8,9.095506E8,6.437888E8,2.7264768E8,7.6161574E8,8.522368E6,2.0401377E9,4.0341504E8,4.6730995E8,5.1878976E8,2.2712576E8,1.926999E8,1.0945638E8,4.0960614E8,3.052864E8,4.436654E8,4.670331E8,6.6794854E8,1.4047616E8,1.9045786E8,8.870502E7,1.0335091E8,2.0403336E8,2.2592422E8,0E0,0E0,1.1199309E9,7.100969E8,1.1038208E8,1.2353075E8,1.7140877E8,3.2289542E8,2.2701291E8,2.900133E8,8.880128E7,8.784486E7,5.9268096E7,8.702541E7,7.327437E7,5.5344576E7,2.006016E8,0E0,5.931917E7,1.0661683E8,2.893463E8,2.209673E8,2.0535987E8,3.9997542E8,3.847501E7,0E0,0E0,0E0,0E0,0E0,0E0,0E0,0E0,0E0,0E0,0E0,0E0,0E0,0E0,0E0,0E0,0E0,0E0,0E0,0E0,0E0,0E0,0E0,0E0,0E0,0E0,0E0,0E0,0E0,0E0,0E0,0E0,0E0,0E0,0E0,0E0,0E0,0E0,0E0,0E0,0E0,0E0,0E0,0E0,0E0,0E0,0E0,0E0,0E0,0E0,0E0,0E0,0E0,0E0,0E0,0E0,0E0],"parents":[2147483647,0,0,1,1,2,2,3,3,4,4,5,5,6,6,7,7,8,8,9,9,10,10,11,11,12,12,13,13,14,14,15,15,16,16,17,17,18,18,19,19,20,20,21,21,22,22,23,23,24,24,25,25,26,26,27,27,28,28,29,29,30,30,31,31,32,32,33,33,34,34,35,35,36,36,39,39,40,40,41,41,42,42,43,43,44,44,45,45,46,46,47,47,48,48,49,49,50,50,51,51,52,52,53,53,55,55,56,56,57,57,58,58,59,59,60,60,61,61],"right_children":[2,4,6,8,10,12,14,16,18,20,22,24,26,28,30,32,34,36,38,40,42,44,46,48,50,52,54,56,58,60,62,64,66,68,70,72,74,-1,-1,76,78,80,82,84,86,88,90,92,94,96,98,100,102,104,-1,106,108,110,112,114,116,118,-1,-1,-1,-1,-1,-1,-1,-1,-1,-1,-1,-1,-1,-1,-1,-1,-1,-1,-1,-1,-1,-1,-1,-1,-1,-1,-1,-1,-1,-1,-1,-1,-1,-1,-1,-1,-1,-1,-1,-1,-1,-1,-1,-1,-1,-1,-1,-1,-1,-1,-1,-1,-1,-1,-1,-1,-1],"split_conditions":[2.35E3,8E0,1.3E1,1E-45,1.6E3,2.8E3,3.55E3,1E0,2.05E3,1E-45,1E-45,1E0,3E0,1E-45,1E0,1.75E3,1E-45,1.2E3,1E0,1E-45,1E-45,4.8E1,1E-45,3E0,1E0,1E-45,3.95E3,2.75E3,1E0,2E0,4.15E3,1.15E3,1E0,3E0,2.04E2,1E0,1E0,1.7850302E2,2.391646E2,4.8E1,1E0,1.05E3,1E-45,1E-45,3E0,2E0,1E0,1E-45,1.49E2,5E0,1E-45,3.85E3,3.65E3,2E0,6.016047E2,1E-45,1E0,1E0,1.01E2,1E-45,4.25E3,1E-45,5.906287E2,2.2808538E1,6.191404E1,8.856995E1,1.3937431E2,1.6941545E2,2.3930403E2,9.7463684E1,1.662144E2,-1.3135431E1,4.0436012E1,2.6138865E1,7.404517E1,2.7832794E1,-2.3621168E1,-5.3085743E1,-3.1407715E1,-6.8034454E1,-5.105672E1,-7.68521E1,-9.871357E1,8.713461E1,2.8848816E1,1.045601E1,3.7016514E1,-8.398245E0,1.351284E1,-3.5718082E1,-1.2920314E1,1.8836365E2,1.3075136E2,1.6216258E2,2.7002652E2,2.1655135E2,1.2041015E2,2.5398587E2,3.587192E2,2.7659628E2,3.8833325E2,1.4886765E2,2.6628024E2,2.79829E2,3.784287E2,1.165776E2,7.308999E1,1.2806906E2,1.936689E2,2.3571562E1,6.479701E1,2.8403354E2,1.1275033E2,1.8338937E2,1.0800912E2,1.5583385E2,2.5062866E2,2.945536E2,2.0882124E2],"split_indices":[30,0,0,32,30,30,30,26,30,32,18,26,19,32,9,30,32,30,9,18,18,5,16,19,9,32,30,30,26,28,30,30,9,19,5,26,26,0,0,5,20,30,32,16,28,28,28,32,5,0,3,30,30,28,0,18,9,28,5,32,30,32,0,0,0,0,0,0,0,0,0,0,0,0,0,0,0,0,0,0,0,0,0,0,0,0,0,0,0,0,0,0,0,0,0,0,0,0,0,0,0,0,0,0,0,0,0,0,0,0,0,0,0,0,0,0,0,0,0],"split_type":[0,0,0,1,0,0,0,0,0,1,1,0,0,1,0,0,1,0,0,1,1,0,1,0,0,1,0,0,0,0,0,0,0,0,0,0,0,0,0,0,0,0,1,1,0,0,0,1,0,0,1,0,0,0,0,1,0,0,0,1,0,1,0,0,0,0,0,0,0,0,0,0,0,0,0,0,0,0,0,0,0,0,0,0,0,0,0,0,0,0,0,0,0,0,0,0,0,0,0,0,0,0,0,0,0,0,0,0,0,0,0,0,0,0,0,0,0,0,0],"sum_hessian":[6.8145E4,6.2306E4,5.839E3,1.197E4,5.0336E4,1.484E3,4.355E3,6.169E3,5.801E3,3.3155E4,1.7181E4,8.59E2,6.25E2,3.14E3,1.215E3,5.672E3,4.97E2,5.728E3,7.3E1,2.6304E4,6.851E3,5.784E3,1.1397E4,5.08E2,3.51E2,3.46E2,2.79E2,8.59E2,2.281E3,1.112E3,1.03E2,2.625E3,3.047E3,2.31E2,2.66E2,2.104E3,3.624E3,4.9E1,2.4E1,9.124E3,1.718E4,3.877E3,2.974E3,5.61E2,5.223E3,4.744E3,6.653E3,4.11E2,9.7E1,2.26E2,1.25E2,2.94E2,5.2E1,2.62E2,1.7E1,4.78E2,3.81E2,2.188E3,9.3E1,5.99E2,5.13E2,8.6E1,1.7E1,2.56E2,2.369E3,2.847E3,2E2,1.5E2,8.1E1,1.83E2,8.3E1,1.909E3,1.95E2,3.359E3,2.65E2,1.22E3,7.904E3,1.156E4,5.62E3,1.953E3,1.924E3,1.984E3,9.9E2,3.67E2,1.94E2,3.53E3,1.693E3,2.516E3,2.228E3,1.991E3,4.662E3,9.4E1,3.17E2,3.7E1,6E1,2.04E2,2.2E1,8.6E1,3.9E1,2.72E2,2.2E1,3.2E1,2E1,1.05E2,1.57E2,1.04E2,3.74E2,2.96E2,8.5E1,5.81E2,1.607E3,2.7E1,6.6E1,1.14E2,4.85E2,3.4E2,1.73E2,3.5E1,5.1E1],"tree_param":{"num_deleted":"0","num_feature":"34","num_nodes":"119","size_leaf_vector":"1"}},{"base_weights":[-2.6944122E0,-2.4260919E2,2.5631172E3,9.7547235E2,-5.3387054E2,4.5841147E3,1.8833208E3,1.5644846E3,3.458802E2,-8.5082983E2,-4.4462597E1,3.6799036E3,5.777231E3,1.3572637E3,3.2562036E3,1.4603329E3,2.7924429E3,3.0001883E2,3.5972012E3,-2.0335474E2,-9.6381964E2,2.3657547E2,-4.75078E2,3.0411162E3,4.5051313E3,6.031304E3,4.200472E3,2.075136E3,1.0845377E3,2.9308948E3,6.518218E3,1.1305538E3,1.7489241E3,3.6074783E3,2.1215503E3,-1.5507996E2,5.69041E2,3.3254507E3,2.1817903E2,4.2467334E2,-4.5504477E2,-8.523755E2,-1.4664579E3,-8.747329E1,3.7863898E2,-8.0583594E2,-3.1966672E2,2.6647632E3,4.0119329E3,4.6546875E3,1.0427096E2,5.81692E3,8.721643E3,2.7607883E3,2.9071854E2,1.5753181E3,2.700685E3,1.9596206E3,8.9316174E2,3.3275098E3,2.1914429E3,4.950009E3,5.93302E2,2.0077991E1,6.0246746E1,8.387123E1,1.3609575E2,1.6289629E2,2.3043755E2,9.446505E1,1.5505083E2,-1.2528411E1,3.7547314E1,2.4982634E1,7.348452E1,1.2653001E2,1.7585637E2,9.290847E1,1.1253311E1,-3.3265347E1,-1.3171379E1,-3.2145283E1,-5.329447E1,-6.3837646E1,-8.6184166E1,1.1134057E1,-2.1806053E1,3.9177532E1,1.2271791E1,-1.8967855E1,-5.101926E1,-1.811726E1,2.31424E1,1.8291216E2,1.2174978E2,1.6674199E2,2.2950992E2,2.9973254E2,2.1941039E2,2.422747E2,3.0992438E2,5.383938E2,3.3720123E2,1.755642E2,7.78593E1,8.599001E1,4.158377E1,1.7028741E2,1.09208496E2,8.703649E1,2.0311996E2,3.8994205E1,7.8834755E1,1.4852603E2,2.0727808E2,1.3506625E2,8.8212135E1,3.1205707E2,1.8458043E2],"categories":[0,1,2,3,4,5,6,7,8,9,11,12,13,14,15,16,17,18,19,20,21,23,24,25,26,28,29,30,31,32,33,35,36,37,38,39,40,41,42,43,44,46,47,48,49,50,51,53,55,56,57,58,59,60,61,62,63,64,65,66,67,68,69,70,71,72,0,1,2,3,4,6,7,8,9,10,11,12,13,14,15,16,17,18,19,20,21,22,23,24,25,26,27,28,29,30,31,32,33,34,35,36,37,38,39,40,41,42,43,44,45,46,47,48,49,50,51,53,54,55,56,57,58,59,60,61,62,63,64,65,66,67,68,69,70,71,72,73,0,1,2,3,4,6,7,8,9,10,11,12,13,14,15,16,17,18,19,20,21,22,23,24,25,26,27,28,29,30,31,32,33,34,35,36,37,38,39,40,41,42,43,44,45,46,47,48,50,51,52,53,54,55,56,57,58,59,60,61,62,63,64,65,66,67,68,69,70,71,72,73,0,1,2,3,4,5,6,7,8,9,10,11,12,13,14,15,16,17,18,19,20,21,22,23,24,25,26,27,28,29,30,31,32,33,35,36,37,38,39,40,41,42,43,44,45,46,47,48,49,50,51,53,54,55,56,57,58,59,60,61,62,63,64,65,66,67,68,69,70,71,72,73,2,3,4,7,8,9,12,13,18,19,26,28,31,36,37,40,41,43,47,53,55,57,62,63,67,68,0,1,2,3,4,5,6,7,8,9,10,15,16,17,18,19,20,0,1,2,3,4,6,7,8,9,10,11,12,13,14,15,16,17,18,19,20,21,22,23,24,25,26,27,28,29,30,31,32,33,35,36,37,38,39,40,41,42,43,44,45,46,47,48,50,51,52,53,54,55,56,57,58,59,60,61,62,63,64,65,66,67,68,69,70,71,72,73,0,1,2,3,4,5,6,7,8,9,10,13,14,15,16,17,18,19,20,8,9,17,18,19,20,1,2,3,4,6,14,20,26,34,0,1,2,3,4,5,6,7,8,9,10,15,16,17,18,19,20,14,20,26,34,0,1,2,3,4,6,7,8,9,10,11,12,13,14,15,16,17,18,19,20,21,22,23,24,25,26,27,28,29,30,31,32,33,34,35,36,37,38,39,40,41,42,43,44,45,46,47,48,49,50,51,52,53,54,55,56,57,58,59,60,61,62,63,64,65,66,67,68,69,70,71,72,73,0,0,1,2,3,4,6,7,8,9,10,11,12,13,14,15,16,17,18,19,20,21,22,23,24,25,26,27,28,29,30,31,32,33,34,35,36,37,38,39,40,41,42,43,44,45,46,47,48,49,50,51,52,53,54,55,56,57,58,59,60,61,62,63,64,65,66,67,68,69,70,71,72,73],"categories_nodes":[3,12,13,16,20,28,29,39,41,43,44,45,47,48,61],"categories_segments":[0,66,138,210,282,308,325,396,415,421,430,447,451,524,525],"categories_sizes":[66,72,72,72,26,17,71,19,6,9,17,4,73,1,73],"default_left":[0,0,0,0,0,0,0,0,0,0,0,0,0,0,0,0,0,0,0,0,1,0,0,0,0,0,0,0,0,0,0,0,0,0,0,0,0,0,0,0,0,0,0,1,0,1,0,0,1,0,0,0,0,0,0,0,0,0,0,0,0,0,0,0,0,0,0,0,0,0,0,0,0,0,0,0,0,0,0,0,0,0,0,0,0,0,0,0,0,0,0,0,0,0,0,0,0,0,0,0,0,0,0,0,0,0,0,0,0,0,0,0,0,0,0,0,0,0,0],"id":2,"left_children":[1,3,5,7,9,11,13,15,17,19,21,23,25,27,29,31,33,35,37,39,41,43,45,47,49,51,53,55,57,59,61,63,65,67,69,71,73,75,-1,77,79,81,83,85,87,89,91,93,95,97,-1,99,101,103,-1,105,107,109,111,113,115,117,-1,-1,-1,-1,-1,-1,-1,-1,-1,-1,-1,-1,-1,-1,-1,-1,-1,-1,-1,-1,-1,-1,-1,-1,-1,-1,-1,-1,-1,-1,-1,-1,-1,-1,-1,-1,-1,-1,-1,-1,-1,-1,-1,-1,-1,-1,-1,-1,-1,-1,-1,-1,-1,-1,-1,-1,-1],"loss_changes":[4.2063553E10,2.2170376E10,8.0188744E9,4.471388E9,7.82294E9,1.5646208E9,3.1545477E9,7.9270195E8,8.682321E8,2.2390252E9,2.3991992E9,4.285737E8,2.2785229E8,6.1720576E8,1.265963E9,5.447813E8,2.5809178E8,7.0407034E8,2.358592E6,7.1924646E8,1.4585283E9,5.522752E8,4.0218048E8,1.6322509E8,1.220183E8,2.6187366E8,1.9538662E8,2.6776013E8,3.8259277E8,3.161938E8,8.5539174E8,1.4505165E8,2.084526E8,6.128435E7,5.5333376E7,1.8507043E8,2.251209E8,8.50176E5,0E0,3.7213088E8,1.3068608E8,9.5342694E8,2.2851174E8,3.9554554E8,4.4962957E8,2.2854771E8,1.7810451E8,7.007334E7,3.598413E7,9.581312E7,0E0,1.571502E8,8.115456E7,3.9697184E7,0E0,5.0786944E7,1.3276902E8,1.8210304E8,1.4472422E8,1.967831E8,7.974899E7,1.1668954E8,0E0,0E0,0E0,0E0,0E0,0E0,0E0,0E0,0E0,0E0,0E0,0E0,0E0,0E0,0E0,0E0,0E0,0E0,0E0,0E0,0E0,0E0,0E0,0E0,0E0,0E0,0E0,0E0,0E0,0E0,0E0,0E0,0E0,0E0,0E0,0E0,0E0,0E0,0E0,0E0,0E0,0E0,0E0,0E0,0E0,0E0,0E0,0E0,0E0,0E0,0E0,0E0,0E0,0E0,0E0,0E0,0E0],"parents":[2147483647,0,0,1,1,2,2,3,3,4,4,5,5,6,6,7,7,8,8,9,9,10,10,11,11,12,12,13,13,14,14,15,15,16,16,17,17,18,18,19,19,20,20,21,21,22,22,23,23,24,24,25,25,26,26,27,27,28,28,29,29,30,30,31,31,32,32,33,33,34,34,35,35,36,36,37,37,39,39,40,40,41,41,42,42,43,43,44,44,45,45,46,46,47,47,48,48,49,49,51,51,52,52,53,53,55,55,56,56,57,57,58,58,59,59,60,60,61,61],"right_children":[2,4,6,8,10,12,14,16,18,20,22,24,26,28,30,32,34,36,38,40,42,44,46,48,50,52,54,56,58,60,62,64,66,68,70,72,74,76,-1,78,80,82,84,86,88,90,92,94,96,98,-1,100,102,104,-1,106,108,110,112,114,116,118,-1,-1,-1,-1,-1,-1,-1,-1,-1,-1,-1,-1,-1,-1,-1,-1,-1,-1,-1,-1,-1,-1,-1,-1,-1,-1,-1,-1,-1,-1,-1,-1,-1,-1,-1,-1,-1,-1,-1,-1,-1,-1,-1,-1,-1,-1,-1,-1,-1,-1,-1,-1,-1,-1,-1,-1,-1],"split_conditions":[2.35E3,8E0,9E0,1E-45,1.5E3,2.8E3,3.55E3,1E0,2E3,4E0,3.7E1,1.4E2,1E-45,1E-45,1E0,1.75E3,1E-45,1.2E3,1.2E0,4.9E1,1E-45,1.7E3,1.7E3,1E0,2.7E3,3.85E3,3.65E3,2.75E3,1E-45,1E-45,4.15E3,1.15E3,1E0,1.82E2,2E2,1E0,1E0,1.01E2,2.1817903E2,1E-45,1.3E3,1E-45,3.1E1,1E-45,1E-45,1E-45,1E0,1E-45,1E-45,1E0,1.0427096E2,1.21E2,1E0,3.05E3,2.9071854E2,3.9E1,1.7E1,1E0,3.15E3,2E0,2.2E1,1E-45,5.93302E2,2.0077991E1,6.0246746E1,8.387123E1,1.3609575E2,1.6289629E2,2.3043755E2,9.446505E1,1.5505083E2,-1.2528411E1,3.7547314E1,2.4982634E1,7.348452E1,1.2653001E2,1.7585637E2,9.290847E1,1.1253311E1,-3.3265347E1,-1.3171379E1,-3.2145283E1,-5.329447E1,-6.3837646E1,-8.6184166E1,1.1134057E1,-2.1806053E1,3.9177532E1,1.2271791E1,-1.8967855E1,-5.101926E1,-1.811726E1,2.31424E1,1.8291216E2,1.2174978E2,1.6674199E2,2.2950992E2,2.9973254E2,2.1941039E2,2.422747E2,3.0992438E2,5.383938E2,3.3720123E2,1.755642E2,7.78593E1,8.599001E1,4.158377E1,1.7028741E2,1.09208496E2,8.703649E1,2.0311996E2,3.8994205E1,7.8834755E1,1.4852603E2,2.0727808E2,1.3506625E2,8.8212135E1,3.1205707E2,1.8458043E2],"split_indices":[30,0,0,32,30,30,30,26,30,1,1,4,32,32,9,30,32,30,31,4,32,30,30,26,30,30,30,30,18,32,30,30,9,4,4,26,26,4,0,18,30,18,1,32,18,32,9,32,3,0,0,4,27,30,0,1,1,26,30,19,1,32,0,0,0,0,0,0,0,0,0,0,0,0,0,0,0,0,0,0,0,0,0,0,0,0,0,0,0,0,0,0,0,0,0,0,0,0,0,0,0,0,0,0,0,0,0,0,0,0,0,0,0,0,0,0,0,0,0],"split_type":[0,0,0,1,0,0,0,0,0,0,0,0,1,1,0,0,1,0,0,0,1,0,0,0,0,0,0,0,1,1,0,0,0,0,0,0,0,0,0,1,0,1,0,1,1,1,0,1,1,0,0,0,0,0,0,0,0,0,0,0,0,1,0,0,0,0,0,0,0,0,0,0,0,0,0,0,0,0,0,0,0,0,0,0,0,0,0,0,0,0,0,0,0,0,0,0,0,0,0,0,0,0,0,0,0,0,0,0,0,0,0,0,0,0,0,0,0,0,0],"sum_hessian":[6.833E4,6.2488E4,5.842E3,1.2058E4,5.043E4,1.469E3,4.373E3,6.229E3,5.829E3,3.0607E4,1.9823E4,8.38E2,6.31E2,3.163E3,1.21E3,5.744E3,4.85E2,5.749E3,8E1,4.548E3,2.6059E4,1.1995E4,7.828E3,4.75E2,3.63E2,5.41E2,9E1,8.69E2,2.294E3,1.102E3,1.08E2,2.683E3,3.061E3,2.17E2,2.68E2,2.136E3,3.613E3,6.3E1,1.7E1,1.301E3,3.247E3,2.1332E4,4.727E3,3.656E3,8.339E3,2.501E3,5.327E3,3.45E2,1.3E2,3.41E2,2.2E1,5.04E2,3.7E1,4.9E1,4.1E1,4.85E2,3.84E2,4.1E2,1.884E3,7.15E2,3.87E2,8.5E1,2.3E1,2.49E2,2.434E3,2.854E3,2.07E2,1.64E2,5.3E1,2.19E2,4.9E1,1.933E3,2.03E2,3.356E3,2.57E2,1.5E1,4.8E1,1.58E2,1.143E3,1.547E3,1.7E3,1.077E4,1.0562E4,2.724E3,2.003E3,1.935E3,1.721E3,2.063E3,6.276E3,8.38E2,1.663E3,5.052E3,2.75E2,6.2E1,2.83E2,6.3E1,6.7E1,5.3E1,2.88E2,1.46E2,3.58E2,1.6E1,2.1E1,2.9E1,2E1,4.05E2,8E1,1.6E2,2.24E2,3.73E2,3.7E1,1.618E3,2.66E2,5.01E2,2.14E2,1.74E2,2.13E2,4E1,4.5E1],"tree_param":{"num_deleted":"0","num_feature":"34","num_nodes":"119","size_leaf_vector":"1"}},{"base_weights":[1.1459205E0,1.2966471E3,-3.2155957E2,1.8841738E3,1.9122818E2,-1.932011E1,-8.420913E2,1.5611428E3,3.7551855E3,5.4438574E2,-8.300702E1,2.2690627E2,-4.9877777E2,-4.4810455E1,-9.610757E2,1.4541494E3,2.9472195E3,3.2315325E3,5.0846523E3,1.6727953E3,4.3483905E2,-1.2972455E2,5.0387354E2,8.3104645E2,6.60189E1,-2.0776335E2,-6.59359E2,5.3549585E2,-4.31776E2,-8.009074E2,-1.398112E3,1.8937664E3,1.2650538E3,1.4955829E3,3.4369492E3,4.184631E3,2.736058E3,3.6148606E3,5.9572007E3,2.432679E3,9.11266E2,3.913882E2,1.1624324E3,-2.0862996E2,1.9248239E2,3.6596118E2,7.656495E1,1.4279814E3,4.7781384E2,-1.3584883E2,3.3867203E2,-2.857379E2,7.8889105E2,-8.038123E2,-3.8024463E2,1.617589E3,1.6114598E2,-5.485504E2,1.6142786E2,-9.1275696E2,-1.4966101E2,-1.203123E3,-1.6165236E3,8.972041E1,1.4473189E2,4.8055843E1,7.216107E1,1.6655804E2,5.70341E1,2.0214487E2,9.966214E1,2.2083536E2,1.1700221E2,1.0762267E2,1.6197955E2,2.6724576E2,1.6323209E2,2.4839151E2,3.5049582E2,9.390629E1,1.9952852E2,2.8828745E1,7.3754776E1,1.6563341E1,4.678521E1,4.7691376E1,1.0992163E2,-1.3003044E1,5.03451E0,1.516978E1,-5.4052672E0,9.184241E0,4.786068E1,6.244884E1,1.5266026E2,1.852152E1,6.5744484E1,-8.845603E0,2.9364902E1,1.2908035E1,7.180524E1,-1.5253113E1,1.192853E2,4.4989048E1,-7.450822E0,-5.442586E1,-3.3553806E1,-3.7239625E0,-2.6460926E1,2.1452068E2,6.38373E1,-1.4193217E1,1.7520393E1,-2.4124014E1,-5.5131752E1,1.9487959E1,-3.3661655E1,-3.8961273E1,-5.825749E1,-1.2384331E1,1.4847798E1,-5.4041164E1,-7.1293816E1,-7.2021706E1,-9.168967E1],"categories":[0,1,2,3,4,6,7,8,9,11,12,13,14,15,16,17,18,19,21,22,23,24,25,26,28,29,30,31,32,33,35,36,37,38,39,40,41,42,43,44,46,47,48,50,51,53,55,56,57,58,59,60,61,62,63,64,65,66,67,68,69,70,71,72,73,0,2,3,4,6,7,8,9,12,13,14,15,17,18,19,20,23,26,28,29,31,33,35,36,37,38,39,40,41,43,44,47,48,53,55,56,57,58,59,61,62,63,67,68,70,71,0,1,2,3,4,5,6,7,8,9,10,11,12,13,15,16,17,18,19,20,21,22,23,24,25,26,27,28,29,30,31,32,33,34,35,36,37,38,39,40,41,42,43,44,45,46,47,49,52,53,54,55,57,58,59,60,61,62,63,64,65,66,67,68,69,70,72,0,1,2,3,4,5,6,7,8,9,10,11,12,13,14,15,16,17,18,19,20,21,23,24,25,26,28,29,30,31,32,33,34,35,36,37,38,39,40,41,42,43,44,45,46,47,48,51,53,55,56,57,58,59,60,61,62,63,64,65,66,67,68,69,70,71,72,73,34,51,65,73,2,3,4,7,8,9,12,13,18,19,26,31,33,36,37,40,41,47,53,55,57,62,63,67,68,0,1,2,3,4,5,6,7,8,9,10,11,12,13,14,15,16,17,18,19,20,21,22,23,24,25,26,27,28,29,30,31,32,33,34,35,36,37,38,39,40,41,42,43,44,45,46,47,48,49,50,51,53,55,56,57,58,59,60,61,62,63,64,65,66,67,68,69,70,71,72,73,0,1,2,3,4,5,6,7,8,9,10,11,12,13,14,15,16,17,18,19,20,21,22,23,24,25,26,27,28,29,30,31,32,33,34,35,36,37,38,39,40,41,42,43,44,45,46,47,48,49,50,51,53,54,55,56,57,58,59,60,61,62,63,64,65,66,67,68,69,70,71,72,73,0,1,2,3,4,5,6,7,8,9,10,11,12,13,14,15,16,17,18,19,20,21,22,23,24,25,26,27,28,29,30,31,32,33,34,35,36,37,38,39,40,41,42,43,44,45,46,47,48,49,50,51,52,53,54,55,57,58,59,60,61,62,63,64,65,66,67,68,69,70,71,72,73,0,1,2,3,4,5,6,7,8,9,10,11,12,13,14,15,16,17,18,19,20,21,22,23,24,25,26,27,28,29,30,31,32,33,34,35,36,37,38,39,40,41,42,43,44,45,46,47,48,49,50,51,53,54,55,56,57,58,59,60,61,62,63,64,65,66,67,68,69,70,71,72,73,0,1,2,3,4,6,7,8,9,10,11,12,13,14,15,16,17,18,19,20,21,22,23,24,25,26,27,28,29,30,31,32,33,34,35,36,37,38,39,40,41,42,43,44,45,46,47,48,49,50,51,53,54,55,56,57,58,59,60,61,62,63,64,65,66,67,68,69,70,71,72,73,2,3,1,2,3,4,5,6,7,8,9,10,11,12,13,14,15,16,17,18,19,20,21,22,23,24,25,26,27,28,29,30,31,32,33,34,35,36,37,38,39,40,41,42,43,44,45,46,47,48,49,50,51,52,53,54,55,56,57,58,59,60,61,62,63,64,65,66,67,68,69,70,71,72,73,2,8,13,47,1,2,3,4,5,6,7,8,9,10,11,12,13,14,15,16,17,18,19,20,21,22,23,24,25,26,27,28,29,30,31,32,33,34,35,36,37,38,39,40,41,42,43,44,45,46,47,48,49,50,51,52,53,54,55,57,58,59,60,61,62,63,64,65,66,67,68,69,70,3,3,3],"categories_nodes":[1,2,4,11,12,14,15,17,27,33,34,39,44,54,57,58,59,61,62],"categories_segments":[0,65,111,178,246,250,275,347,420,493,566,638,640,713,714,717,786,787,788],"categories_sizes":[65,46,67,68,4,25,72,73,73,73,72,2,73,1,3,69,1,1,1],"default_left":[0,0,1,0,0,0,0,0,0,0,0,0,1,0,1,0,0,0,0,0,0,0,0,0,0,0,0,0,0,0,0,0,0,0,0,0,0,0,0,0,0,0,0,0,0,0,0,0,0,0,0,0,0,0,0,0,0,1,0,0,0,0,0,0,0,0,0,0,0,0,0,0,0,0,0,0,0,0,0,0,0,0,0,0,0,0,0,0,0,0,0,0,0,0,0,0,0,0,0,0,0,0,0,0,0,0,0,0,0,0,0,0,0,0,0,0,0,0,0,0,0,0,0,0,0],"id":3,"left_children":[1,3,5,7,9,11,13,15,17,19,21,23,25,27,29,31,33,35,37,39,41,43,45,47,49,51,53,55,57,59,61,63,65,67,69,71,73,75,77,79,81,83,85,87,89,91,-1,93,95,97,99,101,103,105,107,109,111,113,115,117,119,121,123,-1,-1,-1,-1,-1,-1,-1,-1,-1,-1,-1,-1,-1,-1,-1,-1,-1,-1,-1,-1,-1,-1,-1,-1,-1,-1,-1,-1,-1,-1,-1,-1,-1,-1,-1,-1,-1,-1,-1,-1,-1,-1,-1,-1,-1,-1,-1,-1,-1,-1,-1,-1,-1,-1,-1,-1,-1,-1,-1,-1,-1,-1],"loss_changes":[2.8626186E10,8.868059E9,8.624239E9,5.38292E9,4.5910582E8,4.0945009E9,1.910231E9,1.123543E9,8.969564E8,2.5539994E8,7.324297E7,2.2272492E9,5.497989E8,5.876764E8,1.2254095E9,5.846661E8,3.8159462E8,4.3434086E8,4.516956E8,1.0368045E8,5.929651E7,6.2913396E7,2.7353452E7,1.01543706E9,9.961025E8,3.2553485E8,3.0543334E8,4.2385965E8,1.088441E8,9.340575E8,1.9813171E8,2.0582758E8,2.6617651E8,8.675149E7,3.471145E8,1.2708045E8,1.7639834E8,6.737651E7,2.0472627E8,7.112314E7,1.66994E7,5.8104224E7,2.0811232E7,3.1636616E7,1.6268964E7,1.8684158E7,0E0,5.1722906E8,2.7178387E8,3.088996E8,6.798801E8,2.0118346E8,3.1751456E7,1.8807168E8,1.1784672E8,2.395849E8,6.570958E7,4.749824E7,4.962242E7,3.679652E8,8.242355E7,6.618419E7,8.202547E7,0E0,0E0,0E0,0E0,0E0,0E0,0E0,0E0,0E0,0E0,0E0,0E0,0E0,0E0,0E0,0E0,0E0,0E0,0E0,0E0,0E0,0E0,0E0,0E0,0E0,0E0,0E0,0E0,0E0,0E0,0E0,0E0,0E0,0E0,0E0,0E0,0E0,0E0,0E0,0E0,0E0,0E0,0E0,0E0,0E0,0E0,0E0,0E0,0E0,0E0,0E0,0E0,0E0,0E0,0E0,0E0,0E0,0E0,0E0,0E0,0E0,0E0],"parents":[2147483647,0,0,1,1,2,2,3,3,4,4,5,5,6,6,7,7,8,8,9,9,10,10,11,11,12,12,13,13,14,14,15,15,16,16,17,17,18,18,19,19,20,20,21,21,22,22,23,23,24,24,25,25,26,26,27,27,28,28,29,29,30,30,31,31,32,32,33,33,34,34,35,35,36,36,37,37,38,38,39,39,40,40,41,41,42,42,43,43,44,44,45,45,47,47,48,48,49,49,50,50,51,51,52,52,53,53,54,54,55,55,56,56,57,57,58,58,59,59,60,60,61,61,62,62],"right_children":[2,4,6,8,10,12,14,16,18,20,22,24,26,28,30,32,34,36,38,40,42,44,46,48,50,52,54,56,58,60,62,64,66,68,70,72,74,76,78,80,82,84,86,88,90,92,-1,94,96,98,100,102,104,106,108,110,112,114,116,118,120,122,124,-1,-1,-1,-1,-1,-1,-1,-1,-1,-1,-1,-1,-1,-1,-1,-1,-1,-1,-1,-1,-1,-1,-1,-1,-1,-1,-1,-1,-1,-1,-1,-1,-1,-1,-1,-1,-1,-1,-1,-1,-1,-1,-1,-1,-1,-1,-1,-1,-1,-1,-1,-1,-1,-1,-1,-1,-1,-1,-1,-1,-1,-1],"split_conditions":[9E0,1E-45,1E-45,1E0,1E-45,4.4E1,3E0,3E0,1E0,5E1,1E0,1E-45,1E-45,5.2E1,1E-45,1E-45,1E0,1E-45,2E0,1E0,1E0,4E0,1E0,3E1,2E0,1E0,1E0,1E-45,4E0,4E0,2.7E1,1.42E2,2E0,1E-45,1E-45,5E0,1.5E2,1E0,1.8E2,1E-45,4E0,1.2E0,4E0,1E0,1E-45,1.58E2,7.656495E1,1E0,1E0,1E0,1E0,1E0,2.5E2,1E0,1E-45,3E1,1E0,1E-45,1E-45,1E-45,1E0,1E-45,1E-45,8.972041E1,1.4473189E2,4.8055843E1,7.216107E1,1.6655804E2,5.70341E1,2.0214487E2,9.966214E1,2.2083536E2,1.1700221E2,1.0762267E2,1.6197955E2,2.6724576E2,1.6323209E2,2.4839151E2,3.5049582E2,9.390629E1,1.9952852E2,2.8828745E1,7.3754776E1,1.6563341E1,4.678521E1,4.7691376E1,1.0992163E2,-1.3003044E1,5.03451E0,1.516978E1,-5.4052672E0,9.184241E0,4.786068E1,6.244884E1,1.5266026E2,1.852152E1,6.5744484E1,-8.845603E0,2.9364902E1,1.2908035E1,7.180524E1,-1.5253113E1,1.192853E2,4.4989048E1,-7.450822E0,-5.442586E1,-3.3553806E1,-3.7239625E0,-2.6460926E1,2.1452068E2,6.38373E1,-1.4193217E1,1.7520393E1,-2.4124014E1,-5.5131752E1,1.9487959E1,-3.3661655E1,-3.8961273E1,-5.825749E1,-1.2384331E1,1.4847798E1,-5.4041164E1,-7.1293816E1,-7.2021706E1,-9.168967E1],"split_indices":[0,32,32,26,32,1,1,19,9,5,26,32,32,4,32,32,28,32,28,23,26,28,7,0,28,9,24,32,28,28,1,4,28,32,32,28,4,0,4,16,28,31,25,9,32,4,0,26,9,26,9,26,5,28,17,4,28,32,32,16,9,16,16,0,0,0,0,0,0,0,0,0,0,0,0,0,0,0,0,0,0,0,0,0,0,0,0,0,0,0,0,0,0,0,0,0,0,0,0,0,0,0,0,0,0,0,0,0,0,0,0,0,0,0,0,0,0,0,0,0,0,0,0,0,0],"split_type":[0,1,1,0,1,0,0,0,0,0,0,1,1,0,1,1,0,1,0,0,0,0,0,0,0,0,0,1,0,0,0,0,0,1,1,0,0,0,0,1,0,0,0,0,1,0,0,0,0,0,0,0,0,0,1,0,0,1,1,1,0,1,1,0,0,0,0,0,0,0,0,0,0,0,0,0,0,0,0,0,0,0,0,0,0,0,0,0,0,0,0,0,0,0,0,0,0,0,0,0,0,0,0,0,0,0,0,0,0,0,0,0,0,0,0,0,0,0,0,0,0,0,0,0,0],"sum_hessian":[6.8471E4,1.3654E4,5.4817E4,8.915E3,4.739E3,3.4681E4,2.0136E4,7.604E3,1.311E3,2.071E3,2.668E3,2.2914E4,1.1767E4,2.615E3,1.7521E4,7.061E3,5.43E2,9.43E2,3.68E2,1.82E2,1.889E3,2.472E3,1.96E2,4.818E3,1.8096E4,4.185E3,7.582E3,1.046E3,1.569E3,1.2824E4,4.697E3,2.121E3,4.94E3,1.38E2,4.05E2,3.2E2,6.23E2,1.39E2,2.29E2,9E1,9.2E1,1.784E3,1.05E2,1.986E3,4.86E2,1.74E2,2.2E1,1.79E3,3.028E3,1.0398E4,7.698E3,3.882E3,3.03E2,4.995E3,2.587E3,2.68E2,7.78E2,1.311E3,2.58E2,1.0944E4,1.88E3,2.485E3,2.212E3,1.932E3,1.89E2,1.828E3,3.112E3,2.1E1,1.17E2,2.84E2,1.21E2,2.83E2,3.7E1,2.91E2,3.32E2,2.1E1,1.18E2,1.21E2,1.08E2,6.8E1,2.2E1,5.9E1,3.3E1,1.608E3,1.76E2,8.9E1,1.6E1,1.703E3,2.83E2,3.55E2,1.31E2,1.34E2,4E1,1.614E3,1.76E2,2.685E3,3.43E2,9.84E3,5.58E2,7.173E3,5.25E2,3.855E3,2.7E1,2.71E2,3.2E1,1.586E3,3.409E3,8.48E2,1.739E3,2.9E1,2.39E2,2.32E2,5.46E2,1.173E3,1.38E2,2.03E2,5.5E1,7.16E3,3.784E3,1.542E3,3.38E2,1.608E3,8.77E2,1.226E3,9.86E2],"tree_param":{"num_deleted":"0","num_feature":"34","num_nodes":"125","size_leaf_vector":"1"}},{"base_weights":[-3.9304547E0,-2.6164194E2,2.0588855E3,8.1031604E2,-5.142221E2,3.7432844E3,1.4868212E3,1.3278036E3,3.000717E2,-7.787903E2,-7.557567E1,2.9276636E3,5.466579E3,1.0490333E3,3.0289292E3,1.047177E3,1.6073812E3,2.5380228E2,3.2420422E3,-1.0576357E3,-5.7394525E2,3.179997E2,-2.770019E2,2.436342E3,3.8483928E3,4.8098076E3,6.2101743E3,1.9198245E3,8.358988E2,2.7918518E3,5.4828413E3,1.7456477E3,9.552514E2,1.54542E3,2.8140889E3,-1.560299E2,4.9440906E2,1.7247552E2,1.1980493E2,-8.4845074E2,-1.3076837E3,-1.745517E2,-7.724911E2,1.0713837E3,2.3506694E2,-3.267959E2,5.491601E2,3.75703E3,2.1979902E3,4.1261733E3,2.0002234E3,5.0298027E3,3.4410652E3,5.890158E3,5.314926E2,1.5082708E3,2.4218936E3,1.626219E3,6.6019574E2,2.3190356E3,3.486784E3,4.1376543E3,4.9185822E2,1.4079585E2,7.8833E1,5.6504616E1,3.7292816E1,1.084696E2,7.3523125E1,2.0766277E2,1.10572266E2,1.5603185E1,-1.352447E1,1.8251785E1,4.1060818E1,-3.3261787E1,-5.436855E1,-5.7149685E1,-7.751144E1,3.882935E1,-1.5465434E1,-2.3749504E1,-4.530232E1,4.0977737E1,1.0401129E2,2.5557598E1,3.2037213E0,-2.9364435E1,-9.683425E0,3.1007465E1,-6.7854576E0,2.545236E2,1.6597136E2,9.381815E1,1.284444E2,2.998702E2,1.9175327E2,6.437443E1,1.3029527E2,2.3185628E2,2.7281418E2,1.1702213E2,2.3985562E2,3.0875833E2,2.080786E2,8.6797386E1,5.7547237E1,1.0850844E2,1.627693E2,1.963482E2,7.436581E1,2.0679853E1,4.5802402E1,1.3126921E2,9.7582085E1,1.6496696E2,2.4035356E2,1.1991536E2,2.335452E2],"categories":[0,1,2,3,4,5,6,7,8,9,11,12,13,14,15,16,17,18,19,20,21,22,23,24,25,26,28,29,30,31,32,33,35,36,37,38,39,40,41,42,43,44,46,47,48,49,51,53,55,56,57,58,59,60,61,62,63,64,65,66,67,68,69,70,71,72,7,9,16,17,18,19,20,0,1,2,3,4,6,7,8,9,10,11,12,13,14,15,16,17,18,19,20,21,22,23,24,25,26,27,28,29,30,31,32,33,34,35,36,37,38,39,40,41,42,43,44,45,46,47,48,50,51,52,53,54,55,56,57,58,59,60,61,62,63,64,65,66,67,68,69,70,71,72,73,0,1,2,3,4,5,6,7,8,9,10,11,0,2,3,4,8,9,12,13,16,18,19,26,31,33,36,37,40,41,43,47,53,55,57,62,63,67,68,70,6,7,8,9,16,17,18,19,20,0,1,2,3,4,6,7,8,9,10,11,12,13,14,15,16,17,18,19,20,21,22,23,24,25,26,27,28,29,30,31,32,33,34,35,36,37,38,39,40,41,42,43,44,45,46,47,48,49,50,51,52,53,54,55,56,57,58,59,60,61,62,63,64,65,66,67,68,69,70,71,72,73,0,1,2,3,4,6,7,8,9,10,11,12,13,14,15,16,17,18,19,20,21,22,23,24,25,26,27,28,29,30,31,32,33,34,35,36,37,38,39,40,41,42,43,44,45,46,47,48,49,50,51,53,54,55,56,57,58,59,60,61,62,63,64,65,66,67,68,69,70,71,72,73,0,1,2,3,4,6,7,8,9,10,11,12,13,14,15,16,17,18,19,20,21,22,23,24,25,26,27,28,29,30,31,32,33,34,35,36,37,38,39,40,41,42,43,44,45,46,47,48,49,50,51,53,54,55,56,57,58,59,60,61,62,63,64,65,66,67,68,69,70,71,72,73,0,1,2,3,4,5,6,7,8,9,10,15,16,17,18,19,20,0,1,2,3,4,5,6,7,8,9,10,11,12,0,1,2,3,4,5,6,7,8,9,10,11,12,14,15,16,17,18,19,20,0,1,2,3,4,5,6,7,8,9,11,12,13,14,15,16,17,18,19,20,21,22,23,24,25,26,28,29,30,31,32,33,34,35,36,37,38,39,40,41,42,43,44,46,47,48,49,50,51,53,55,56,57,58,59,60,61,62,63,64,65,66,67,68,69,70,71,72,0,1,2,3,4,5,6,7,8,9,10,11,12,13,14,15,16,17,18,19,20,21,22,23,24,25,26,27,28,29,30,31,32,33,34,35,36,37,38,39,40,41,42,43,44,45,46,47,48,49,50,51,53,54,55,56,57,58,59,60,61,62,63,64,65,66,67,68,69,70,71,72,73,0,1,2,3,4,5,6,7,8,9,10,11,12,13,15,16,17,18,19,21,22,23,24,25,26,27,28,29,30,31,32,33,34,35,36,37,38,39,40,41,42,47,63,72,17,18,19,20,17,18,19,20,6,7,8,13,14,15,20,26,34,38,40,47,48,56,67,1,2,3,4,6,7,8,9,10,11,12,13,14,15,16,17,18,19,20,21,22,34,0,1,2,3,4,6,7,8,9,10,11,12,13,14,15,16,17,18,19,20,21,22,23,24,25,26,27,28,29,30,31,32,33,34,35,36,37,38,39,40,41,42,43,44,45,46,47,48,49,50,51,53,54,55,56,57,58,59,60,61,62,63,64,65,66,67,68,69,70,71,72,73,0,1,2,3,4,5,6,7,8,9,10,12,17,18,19,20],"categories_nodes":[3,10,13,18,19,20,23,24,25,28,30,31,32,34,35,39,40,42,46,53,59],"categories_segments":[0,66,73,145,157,185,194,267,339,411,428,441,461,529,602,646,650,654,669,691,763],"categories_sizes":[66,7,72,12,28,9,73,72,72,17,13,20,68,73,44,4,4,15,22,72,16],"default_left":[0,0,0,0,0,0,0,0,0,0,0,0,0,0,0,0,0,0,1,1,0,0,0,0,0,0,0,0,0,0,1,0,0,0,0,1,0,0,0,0,1,0,1,0,0,0,1,0,0,0,0,0,0,0,0,0,0,0,0,0,0,0,0,0,0,0,0,0,0,0,0,0,0,0,0,0,0,0,0,0,0,0,0,0,0,0,0,0,0,0,0,0,0,0,0,0,0,0,0,0,0,0,0,0,0,0,0,0,0,0,0,0,0,0,0,0,0,0,0],"id":4,"left_children":[1,3,5,7,9,11,13,15,17,19,21,23,25,27,29,31,33,35,37,39,41,43,45,47,49,51,53,55,57,59,61,63,65,67,69,71,73,-1,-1,75,77,79,81,83,85,87,89,91,93,95,97,99,101,103,-1,105,107,109,111,113,115,117,-1,-1,-1,-1,-1,-1,-1,-1,-1,-1,-1,-1,-1,-1,-1,-1,-1,-1,-1,-1,-1,-1,-1,-1,-1,-1,-1,-1,-1,-1,-1,-1,-1,-1,-1,-1,-1,-1,-1,-1,-1,-1,-1,-1,-1,-1,-1,-1,-1,-1,-1,-1,-1,-1,-1,-1,-1],"loss_changes":[3.6226662E10,1.6401965E10,7.2868413E9,3.0498514E9,5.6894986E9,2.679851E9,3.8119025E9,4.4826624E8,7.911421E8,1.7461821E9,1.4624205E9,5.8051994E8,2.704773E8,8.15573E8,7.113206E8,1.822866E8,2.103122E8,5.650047E8,7.53024E6,6.762568E8,1.3980462E9,3.8993702E8,5.021445E8,2.6025677E8,2.2379674E8,8.236186E7,3.404841E8,1.7508045E8,4.90358E8,3.668183E8,5.9775155E8,5.5606656E7,9.192883E7,1.2463667E8,1.0299392E8,1.1366927E8,1.5233158E8,0E0,0E0,3.080571E8,2.3378227E8,7.5081875E8,4.675031E8,1.5555558E8,2.6560931E8,3.9900378E8,3.382528E7,5.837645E7,8.166579E7,1.9053414E8,2.2978064E7,2.20928E7,6.1904896E7,1.0633523E8,0E0,3.688973E7,7.434189E7,1.996494E8,1.8240115E8,7.163546E7,9.798093E7,6.763584E7,0E0,0E0,0E0,0E0,0E0,0E0,0E0,0E0,0E0,0E0,0E0,0E0,0E0,0E0,0E0,0E0,0E0,0E0,0E0,0E0,0E0,0E0,0E0,0E0,0E0,0E0,0E0,0E0,0E0,0E0,0E0,0E0,0E0,0E0,0E0,0E0,0E0,0E0,0E0,0E0,0E0,0E0,0E0,0E0,0E0,0E0,0E0,0E0,0E0,0E0,0E0,0E0,0E0,0E0,0E0,0E0,0E0],"parents":[2147483647,0,0,1,1,2,2,3,3,4,4,5,5,6,6,7,7,8,8,9,9,10,10,11,11,12,12,13,13,14,14,15,15,16,16,17,17,18,18,19,19,20,20,21,21,22,22,23,23,24,24,25,25,26,26,27,27,28,28,29,29,30,30,31,31,32,32,33,33,34,34,35,35,36,36,39,39,40,40,41,41,42,42,43,43,44,44,45,45,46,46,47,47,48,48,49,49,50,50,51,51,52,52,53,53,55,55,56,56,57,57,58,58,59,59,60,60,61,61],"right_children":[2,4,6,8,10,12,14,16,18,20,22,24,26,28,30,32,34,36,38,40,42,44,46,48,50,52,54,56,58,60,62,64,66,68,70,72,74,-1,-1,76,78,80,82,84,86,88,90,92,94,96,98,100,102,104,-1,106,108,110,112,114,116,118,-1,-1,-1,-1,-1,-1,-1,-1,-1,-1,-1,-1,-1,-1,-1,-1,-1,-1,-1,-1,-1,-1,-1,-1,-1,-1,-1,-1,-1,-1,-1,-1,-1,-1,-1,-1,-1,-1,-1,-1,-1,-1,-1,-1,-1,-1,-1,-1,-1,-1,-1,-1,-1,-1,-1,-1,-1],"split_conditions":[2.25E3,8E0,9E0,1E-45,1.5E3,2.8E3,3.55E3,1.75E3,2.05E3,1.2E3,1E-45,1.45E2,3E0,1E-45,1E0,5.2E1,1.82E2,1.2E3,1E-45,1E-45,1E-45,4.8E1,1E0,1E-45,1E-45,1E-45,3.95E3,2.75E3,1E-45,4E3,1E-45,1E-45,1E-45,5E1,1E-45,1E-45,1.5E3,1.7247552E2,1.1980493E2,1E-45,1E-45,4.5E1,1E-45,1.2E0,2.6E1,1.7E3,1E-45,1E0,2E0,1E0,2.35E3,1.33E2,3.65E3,1E-45,5.314926E2,1.58E2,1E0,3.8E1,2.45E3,1E-45,1.9E2,8.6E1,4.9185822E2,1.4079585E2,7.8833E1,5.6504616E1,3.7292816E1,1.084696E2,7.3523125E1,2.0766277E2,1.10572266E2,1.5603185E1,-1.352447E1,1.8251785E1,4.1060818E1,-3.3261787E1,-5.436855E1,-5.7149685E1,-7.751144E1,3.882935E1,-1.5465434E1,-2.3749504E1,-4.530232E1,4.0977737E1,1.0401129E2,2.5557598E1,3.2037213E0,-2.9364435E1,-9.683425E0,3.1007465E1,-6.7854576E0,2.545236E2,1.6597136E2,9.381815E1,1.284444E2,2.998702E2,1.9175327E2,6.437443E1,1.3029527E2,2.3185628E2,2.7281418E2,1.1702213E2,2.3985562E2,3.0875833E2,2.080786E2,8.6797386E1,5.7547237E1,1.0850844E2,1.627693E2,1.963482E2,7.436581E1,2.0679853E1,4.5802402E1,1.3126921E2,9.7582085E1,1.6496696E2,2.4035356E2,1.1991536E2,2.335452E2],"split_indices":[30,0,0,32,30,30,30,30,30,30,18,4,19,32,9,5,4,30,18,32,18,4,9,32,32,32,30,30,18,30,18,18,32,5,32,32,30,0,0,18,18,4,32,31,0,30,32,0,19,0,30,5,30,32,0,4,9,5,30,18,4,4,0,0,0,0,0,0,0,0,0,0,0,0,0,0,0,0,0,0,0,0,0,0,0,0,0,0,0,0,0,0,0,0,0,0,0,0,0,0,0,0,0,0,0,0,0,0,0,0,0,0,0,0,0,0,0,0,0],"split_type":[0,0,0,1,0,0,0,0,0,0,1,0,0,1,0,0,0,0,1,1,1,0,0,1,1,1,0,0,1,0,1,1,1,0,1,1,0,0,0,1,1,0,1,0,0,0,1,0,0,0,0,0,0,1,0,0,0,0,0,1,0,0,0,0,0,0,0,0,0,0,0,0,0,0,0,0,0,0,0,0,0,0,0,0,0,0,0,0,0,0,0,0,0,0,0,0,0,0,0,0,0,0,0,0,0,0,0,0,0,0,0,0,0,0,0,0,0,0,0],"sum_hessian":[6.8143E4,6.0576E4,7.567E3,1.1551E4,4.9025E4,1.917E3,5.65E3,5.734E3,5.817E3,3.058E4,1.8445E4,1.303E3,6.14E2,4.402E3,1.248E3,2.864E3,2.87E3,5.728E3,8.9E1,1.2949E4,1.7631E4,6.244E3,1.2201E4,8.52E2,4.51E2,3.3E2,2.84E2,8.64E2,3.538E3,1.14E3,1.08E2,3.31E2,2.533E3,2.732E3,1.38E2,2.119E3,3.609E3,6.9E1,2E1,7.053E3,5.896E3,5.855E3,1.1776E4,6.18E2,5.626E3,1.1508E4,6.93E2,1.28E2,7.24E2,3.91E2,6E1,2.82E2,4.8E1,2.67E2,1.7E1,4.77E2,3.87E2,6.42E2,2.896E3,6.81E2,4.59E2,8.4E1,2.4E1,4.3E1,2.88E2,1.378E3,1.155E3,2.9E2,2.442E3,4.1E1,9.7E1,4.16E2,1.703E3,2.587E3,1.022E3,3.994E3,3.059E3,3.515E3,2.381E3,7.26E2,5.129E3,3.65E3,8.126E3,4.96E2,1.22E2,2.151E3,3.475E3,3.891E3,7.617E3,6.28E2,6.5E1,2.9E1,9.9E1,3.91E2,3.33E2,5E1,3.41E2,2.9E1,3.1E1,1.53E2,1.29E2,2.8E1,2E1,2.27E2,4E1,2.89E2,1.88E2,3E2,8.7E1,3.5E1,6.07E2,1.476E3,1.42E3,3.68E2,3.13E2,4.05E2,5.4E1,2.1E1,6.3E1],"tree_param":{"num_deleted":"0","num_feature":"34","num_nodes":"119","size_leaf_vector":"1"}},{"base_weights":[5.519577E0,-2.4499214E2,1.9752128E3,7.876184E2,-4.8940872E2,3.62372E3,1.4159229E3,1.1276914E3,5.8637745E1,-7.40732E2,-7.307445E1,2.8773013E3,5.239117E3,1.0274965E3,2.85604E3,6.7387714E2,1.4187045E3,-1.727129E2,3.5381247E2,-4.1574475E2,-9.0819006E2,1.769827E2,-4.5453073E2,2.2549136E3,3.8072493E3,4.998237E3,7.1383E3,1.8966539E3,8.1670496E2,2.6709324E3,7.6423945E3,1.7645886E3,5.613007E2,1.1851519E3,2.1147156E3,-2.3770302E2,5.7946204E2,3.216294E2,9.625122E2,2.1428397E2,-5.335625E2,-1.3346442E3,-8.0524585E2,-1.5848799E1,4.0156277E2,-7.6709674E2,-3.3402643E2,3.647164E3,1.8240853E3,3.0648984E3,4.741889E3,8.630301E1,5.13777E3,8.775797E3,5.0730435E3,1.4463606E3,2.4267637E3,4.4040564E2,1.3043638E3,3.8264805E3,2.433802E3,1.980032E2,6.737232E2,1.967048E2,7.81105E1,4.01381E1,1.5524779E1,5.1315865E1,7.768255E1,1.3981413E2,9.090797E1,-2.8055151E1,-6.6958117E0,2.0197403E1,1.0418522E2,1.0704612E1,2.5448004E1,1.4252772E1,9.696329E1,3.1441496E1,-7.0239806E0,1.314656E2,-2.7546179E1,-6.004488E1,-8.13021E1,-2.9778488E1,-4.894121E1,-1.4785466E1,6.0050616E0,3.1254745E0,2.8152716E1,-2.4698753E1,-4.6134705E1,-2.0867056E1,7.4878983E0,1.3368309E2,2.0799388E2,6.9638275E1,1.1106464E2,2.1942198E2,1.4226215E2,1.9165617E2,2.7109818E2,2.1705399E2,2.8039462E2,5.579521E2,3.0280508E2,2.933242E2,1.956474E2,6.409633E1,1.0732456E2,1.6068636E2,1.00172455E2,3.6641235E1,3.181337E0,4.0002316E1,8.0403984E1,1.5978271E2,2.7305933E2,8.77961E1,1.543869E2],"categories":[0,1,2,3,4,6,7,8,9,11,12,13,14,15,16,17,18,19,21,23,24,25,26,28,29,30,31,32,33,35,36,37,38,39,40,41,42,43,44,46,47,48,49,51,53,55,57,58,60,61,62,63,64,65,66,67,68,69,70,71,72,0,1,2,3,4,6,7,8,9,10,11,12,13,14,15,16,17,18,19,20,21,22,23,24,25,26,27,28,29,30,31,32,33,34,35,36,37,38,39,40,41,42,43,44,45,46,47,48,50,51,52,53,54,55,56,57,58,59,60,61,62,63,64,65,66,67,68,69,70,71,72,73,0,1,2,3,4,6,7,8,9,10,11,12,13,14,15,16,17,18,19,20,21,22,23,24,25,26,27,28,29,30,31,32,33,34,35,36,37,38,39,40,41,42,43,44,45,46,47,48,49,50,51,52,53,54,55,56,57,58,59,60,61,62,63,64,65,66,67,68,69,70,71,72,73,0,1,2,3,4,6,7,8,9,10,11,12,13,14,15,16,17,18,19,20,21,22,23,24,25,26,27,28,29,30,31,32,33,34,35,36,37,38,39,40,41,42,43,44,45,46,47,48,49,0,1,2,3,4,6,7,8,9,10,11,12,13,14,15,16,17,18,19,20,21,22,23,24,25,26,27,28,29,30,31,32,33,34,35,36,37,38,39,40,41,42,43,44,45,46,47,48,50,51,52,53,54,55,56,57,58,59,60,61,62,63,64,65,66,67,68,69,70,71,72,73,0,1,2,0,1,2,3,4,5,6,7,8,9,11,12,13,14,15,16,17,18,19,21,22,23,24,25,26,28,29,30,31,32,33,35,36,37,38,39,40,41,42,43,44,46,47,48,49,51,53,55,56,57,58,59,60,61,62,63,64,65,66,67,68,69,70,71,72,0,1,2,3,4,5,6,7,8,9,10,11,12,13,14,15,16,17,18,19,20,21,22,23,24,25,26,27,28,29,30,31,32,33,34,35,36,37,38,39,40,41,42,43,44,45,46,47,48,49,50,51,53,54,55,56,57,58,59,60,61,62,63,64,65,66,67,68,69,70,71,72,73,0,1,2,3,4,5,6,7,8,0,1,2,3,4,5,6,7,8,9,10,11,12,13,14,15,16,17,18,19,20,21,22,23,24,25,26,27,28,29,30,31,32,33,34,35,36,37,38,39,40,41,42,43,44,45,46,47,48,50,51,52,53,55,56,57,58,59,60,61,62,63,64,65,66,67,68,69,70,71,72,73,2,3,0,14,34,56,0,1,2,3,4,6,7,8,9,10,11,12,13,14,15,16,17,18,19,20,21,22,23,24,25,26,27,28,29,30,31,32,33,34,35,36,37,38,39,40,41,42,43,44,45,46,47,48,49,50,51,52,53,54,55,56,57,58,59,60,61,62,63,64,65,66,67,68,69,70,71,72,73,0,1,2],"categories_nodes":[3,13,23,26,29,31,32,34,36,40,42,45,49,54],"categories_segments":[0,61,133,206,255,327,330,395,468,477,549,551,555,628],"categories_sizes":[61,72,73,49,72,3,65,73,9,72,2,4,73,3],"default_left":[0,0,0,1,0,0,0,0,0,0,0,0,0,0,0,0,0,0,0,0,0,0,0,0,0,0,1,0,0,0,0,0,0,0,0,0,1,0,0,0,0,0,0,0,0,1,0,0,0,0,0,0,0,0,1,0,0,0,0,0,0,0,0,0,0,0,0,0,0,0,0,0,0,0,0,0,0,0,0,0,0,0,0,0,0,0,0,0,0,0,0,0,0,0,0,0,0,0,0,0,0,0,0,0,0,0,0,0,0,0,0,0,0,0,0,0,0,0,0,0,0],"id":5,"left_children":[1,3,5,7,9,11,13,15,17,19,21,23,25,27,29,31,33,35,37,39,41,43,45,47,49,51,53,55,57,59,61,63,65,67,69,71,73,75,77,79,81,83,85,87,89,91,93,95,97,99,101,-1,103,105,107,109,111,113,115,117,119,-1,-1,-1,-1,-1,-1,-1,-1,-1,-1,-1,-1,-1,-1,-1,-1,-1,-1,-1,-1,-1,-1,-1,-1,-1,-1,-1,-1,-1,-1,-1,-1,-1,-1,-1,-1,-1,-1,-1,-1,-1,-1,-1,-1,-1,-1,-1,-1,-1,-1,-1,-1,-1,-1,-1,-1,-1,-1,-1,-1],"loss_changes":[3.3725524E10,1.5304382E10,7.10528E9,2.877138E9,5.1303834E9,2.3397806E9,3.2190915E9,1.04421376E9,2.522519E8,1.6635648E9,1.7607128E9,7.6583424E8,2.4612557E8,8.298624E8,1.0631547E9,3.7891686E8,7.8117274E8,1.0137638E8,3.1484704E7,7.7201715E8,8.847176E8,4.8286957E8,2.7504128E8,4.7560294E8,3.5666637E8,2.4224973E8,1.8206387E8,2.07744E8,6.699553E8,3.1375155E8,9.130424E8,1.207431E8,1.6968134E8,2.0981709E8,2.394839E8,6.3932656E7,4.2720856E7,3.0974784E7,5.3045584E7,2.4112918E8,4.8252288E8,1.5090125E8,5.910569E8,2.2831781E8,2.8200397E8,8.594061E7,2.127591E8,8.321306E7,1.024416E8,7.502157E7,1.2445338E8,0E0,1.7303962E8,1.6576102E8,6.499776E6,5.262368E7,1.2848051E8,2.2735936E8,2.4240563E8,1.8775987E8,4.2944614E8,0E0,0E0,0E0,0E0,0E0,0E0,0E0,0E0,0E0,0E0,0E0,0E0,0E0,0E0,0E0,0E0,0E0,0E0,0E0,0E0,0E0,0E0,0E0,0E0,0E0,0E0,0E0,0E0,0E0,0E0,0E0,0E0,0E0,0E0,0E0,0E0,0E0,0E0,0E0,0E0,0E0,0E0,0E0,0E0,0E0,0E0,0E0,0E0,0E0,0E0,0E0,0E0,0E0,0E0,0E0,0E0,0E0,0E0,0E0,0E0],"parents":[2147483647,0,0,1,1,2,2,3,3,4,4,5,5,6,6,7,7,8,8,9,9,10,10,11,11,12,12,13,13,14,14,15,15,16,16,17,17,18,18,19,19,20,20,21,21,22,22,23,23,24,24,25,25,26,26,27,27,28,28,29,29,30,30,31,31,32,32,33,33,34,34,35,35,36,36,37,37,38,38,39,39,40,40,41,41,42,42,43,43,44,44,45,45,46,46,47,47,48,48,49,49,50,50,52,52,53,53,54,54,55,55,56,56,57,57,58,58,59,59,60,60],"right_children":[2,4,6,8,10,12,14,16,18,20,22,24,26,28,30,32,34,36,38,40,42,44,46,48,50,52,54,56,58,60,62,64,66,68,70,72,74,76,78,80,82,84,86,88,90,92,94,96,98,100,102,-1,104,106,108,110,112,114,116,118,120,-1,-1,-1,-1,-1,-1,-1,-1,-1,-1,-1,-1,-1,-1,-1,-1,-1,-1,-1,-1,-1,-1,-1,-1,-1,-1,-1,-1,-1,-1,-1,-1,-1,-1,-1,-1,-1,-1,-1,-1,-1,-1,-1,-1,-1,-1,-1,-1,-1,-1,-1,-1,-1,-1,-1,-1,-1,-1,-1,-1],"split_conditions":[2.25E3,8E0,7E0,1E-45,1.5E3,2.8E3,3.55E3,1.45E3,1.3E3,1.8E1,3.7E1,-1.2493335E-2,3.85E3,1E-45,6E0,4.8E1,1.2578848E-2,1E0,1E0,4.8E1,1E3,-3.991851E-2,1E0,1E-45,1.45E2,-9.3718335E-2,1E-45,2.75E3,-2.8763318E-2,1E-45,6.2E1,1E-45,1E-45,2E3,1E-45,9.5E2,1E-45,4E0,1.58E2,2E0,1E-45,4E1,1E-45,1.7E3,1E0,1E-45,2.5980065E-2,1E0,2.35E3,1E-45,2E0,8.630301E1,2E0,1E0,1E-45,3E0,1.1E1,3.3E1,2.35E3,1E0,2E0,1.980032E2,6.737232E2,1.967048E2,7.81105E1,4.01381E1,1.5524779E1,5.1315865E1,7.768255E1,1.3981413E2,9.090797E1,-2.8055151E1,-6.6958117E0,2.0197403E1,1.0418522E2,1.0704612E1,2.5448004E1,1.4252772E1,9.696329E1,3.1441496E1,-7.0239806E0,1.314656E2,-2.7546179E1,-6.004488E1,-8.13021E1,-2.9778488E1,-4.894121E1,-1.4785466E1,6.0050616E0,3.1254745E0,2.8152716E1,-2.4698753E1,-4.6134705E1,-2.0867056E1,7.4878983E0,1.3368309E2,2.0799388E2,6.9638275E1,1.1106464E2,2.1942198E2,1.4226215E2,1.9165617E2,2.7109818E2,2.1705399E2,2.8039462E2,5.579521E2,3.0280508E2,2.933242E2,1.956474E2,6.409633E1,1.0732456E2,1.6068636E2,1.00172455E2,3.6641235E1,3.181337E0,4.0002316E1,8.0403984E1,1.5978271E2,2.7305933E2,8.77961E1,1.543869E2],"split_indices":[30,0,0,32,30,30,30,30,30,1,1,33,30,32,28,4,33,26,26,4,30,33,28,32,4,33,32,30,33,32,0,16,32,30,32,30,32,28,4,1,32,1,16,30,28,32,33,28,30,32,28,0,28,27,17,28,1,1,30,9,28,0,0,0,0,0,0,0,0,0,0,0,0,0,0,0,0,0,0,0,0,0,0,0,0,0,0,0,0,0,0,0,0,0,0,0,0,0,0,0,0,0,0,0,0,0,0,0,0,0,0,0,0,0,0,0,0,0,0,0,0],"split_type":[0,0,0,1,0,0,0,0,0,0,0,0,0,1,0,0,0,0,0,0,0,0,0,1,0,0,1,0,0,1,0,1,1,0,1,0,1,0,0,0,1,0,1,0,0,1,0,0,0,1,0,0,0,0,1,0,0,0,0,0,0,0,0,0,0,0,0,0,0,0,0,0,0,0,0,0,0,0,0,0,0,0,0,0,0,0,0,0,0,0,0,0,0,0,0,0,0,0,0,0,0,0,0,0,0,0,0,0,0,0,0,0,0,0,0,0,0,0,0,0,0],"sum_hessian":[6.8347E4,6.0636E4,7.711E3,1.1605E4,4.9031E4,1.952E3,5.759E3,7.913E3,3.692E3,3.0574E4,1.8457E4,1.337E3,6.15E2,4.537E3,1.222E3,3.093E3,4.82E3,2.07E3,1.622E3,1.0398E4,2.0176E4,1.1149E4,7.308E3,8.03E2,5.34E2,5.49E2,6.6E1,8.84E2,3.653E3,1.178E3,4.4E1,2.88E2,2.805E3,3.611E3,1.209E3,1.906E3,1.64E2,1.542E3,8E1,1.638E3,8.76E3,3.921E3,1.6255E4,5.999E3,5.15E3,2.032E3,5.276E3,1.88E2,6.15E2,3E2,2.34E2,2.3E1,5.26E2,3.5E1,3.1E1,4.8E2,4.04E2,2.063E3,1.59E3,1.98E2,9.8E2,2.8E1,1.6E1,2.3E1,2.65E2,1.428E3,1.377E3,2.526E3,1.085E3,3.64E2,8.45E2,4.62E2,1.444E3,1.48E2,1.6E1,9.81E2,5.61E2,4.8E1,3.2E1,7.55E2,8.83E2,4.7E1,8.713E3,2.691E3,1.23E3,7.364E3,8.891E3,1.961E3,4.038E3,1.662E3,3.488E3,7.39E2,1.293E3,4.501E3,7.75E2,6.7E1,1.21E2,2.97E2,3.18E2,4E1,2.6E2,1.03E2,1.31E2,1.99E2,3.27E2,1.7E1,1.8E1,1.6E1,1.5E1,3.91E2,8.9E1,1.39E2,2.65E2,1.161E3,9.02E2,5.99E2,9.91E2,1.45E2,5.3E1,4.83E2,4.97E2],"tree_param":{"num_deleted":"0","num_feature":"34","num_nodes":"121","size_leaf_vector":"1"}},{"base_weights":[3.9821522E0,-2.032681E2,2.1991545E3,7.8194476E2,-4.4342786E2,3.954612E3,1.6312286E3,2.892377E2,1.2752489E3,-6.8248663E2,1.4444738E1,3.1336E3,5.083922E3,1.2042142E3,2.729817E3,-3.8313427E1,5.1901624E2,1.0729462E3,2.1399136E3,-9.668182E2,-4.9941315E2,2.5219034E2,-3.5202927E2,2.605779E3,4.0089111E3,4.6745996E3,6.294368E3,8.137474E2,1.6589028E3,2.4808281E3,5.1591597E3,-1.2186242E2,7.886986E2,1.1222722E3,4.3053223E2,8.852957E2,1.4708503E3,1.4778331E3,2.80517E3,-8.052698E2,-1.2165914E3,-2.492798E2,-7.931364E2,1.8192455E2,1.00683E3,-4.8094376E2,-2.59379E1,9.8607056E2,2.8087334E3,4.6151616E3,3.1646277E3,3.8370823E3,5.140775E3,1.8451778E2,6.7369033E3,1.1382273E3,2.71527E2,1.5171965E3,2.9864446E3,1.6060718E3,2.9166582E3,4.0620435E3,5.0836792E2,-2.7085318E1,-1.836538E0,3.310059E1,1.087041E2,4.8476715E1,1.6794206E2,1.7297758E1,3.8839573E1,4.1162617E1,8.4230644E1,1.4810358E2,7.15202E1,6.9930695E1,1.943369E2,1.2406329E2,2.0154706E2,-5.224657E1,-3.1517344E1,-6.629335E1,-4.6626335E1,2.0888065E1,-1.6831257E1,-5.2401253E1,-3.310577E1,-7.4728684E0,1.6010334E1,4.2074894E1,9.967495E1,-3.930384E1,-1.7910309E1,-4.6442933E0,4.069615E1,3.7182835E1,5.747868E1,1.4960576E2,7.201992E1,1.8105951E2,2.6615353E2,1.6942546E2,7.12237E1,1.7123909E2,2.393947E2,2.2827725E2,2.7962253E2,2.9890063E2,3.9114664E2,8.4088974E1,4.5489162E1,-6.7079964E0,2.0282269E1,5.4029522E1,9.7351364E1,2.5935226E2,1.13631004E2,7.2386795E1,2.0548135E2,1.2637319E2,1.8783192E2,1.6725584E2,2.4339519E2],"categories":[0,1,2,3,4,5,6,7,8,9,10,13,15,0,1,2,3,4,5,6,7,8,9,10,15,16,17,18,19,20],"categories_nodes":[37,55],"categories_segments":[0,13],"categories_sizes":[13,17],"default_left":[0,0,0,0,0,0,0,0,0,0,0,0,0,0,0,0,0,0,0,0,0,0,0,0,0,0,0,0,0,0,0,0,0,0,0,0,0,0,0,0,0,0,0,0,0,0,0,0,0,0,0,0,0,0,0,0,0,0,0,0,0,0,0,0,0,0,0,0,0,0,0,0,0,0,0,0,0,0,0,0,0,0,0,0,0,0,0,0,0,0,0,0,0,0,0,0,0,0,0,0,0,0,0,0,0,0,0,0,0,0,0,0,0,0,0,0,0,0,0,0,0,0,0],"id":6,"left_children":[1,3,5,7,9,11,13,15,17,19,21,23,25,27,29,31,33,35,37,39,41,43,45,47,49,51,53,55,57,59,61,63,65,67,69,71,73,75,77,79,81,83,85,87,89,91,93,95,97,99,101,103,105,-1,107,109,111,113,115,117,119,121,-1,-1,-1,-1,-1,-1,-1,-1,-1,-1,-1,-1,-1,-1,-1,-1,-1,-1,-1,-1,-1,-1,-1,-1,-1,-1,-1,-1,-1,-1,-1,-1,-1,-1,-1,-1,-1,-1,-1,-1,-1,-1,-1,-1,-1,-1,-1,-1,-1,-1,-1,-1,-1,-1,-1,-1,-1,-1,-1,-1,-1],"loss_changes":[3.1104473E10,1.4781514E10,5.8736763E9,2.9755889E9,5.49789E9,1.3201285E9,2.08802E9,4.6116378E8,1.06788864E9,1.7172326E9,1.501297E9,3.7625446E8,2.7033088E8,5.6891136E8,7.4148454E8,1.7470178E8,1.9173267E8,3.690455E8,5.0633984E8,5.2050944E8,1.4747863E9,5.539848E8,2.8500454E8,1.6981197E8,1.4560307E8,1.583104E8,1.479936E8,3.0406643E8,2.7445248E8,4.2726707E8,5.905759E8,8.204375E7,3.927901E7,1.5388358E8,9.174656E7,1.6588826E8,9.154227E7,1.0581888E8,2.1908582E8,3.284731E8,1.5626803E8,6.3194374E8,3.0764902E8,4.382188E8,1.4350643E8,1.816942E8,1.0814386E8,1.52324E6,1.1262208E8,1.0737946E8,4.737779E7,4.907008E7,4.981555E7,0E0,5.790515E7,1.3282317E8,3.5366548E7,2.497449E8,2.1127142E8,1.4428698E8,2.3732582E8,3.917952E7,0E0,0E0,0E0,0E0,0E0,0E0,0E0,0E0,0E0,0E0,0E0,0E0,0E0,0E0,0E0,0E0,0E0,0E0,0E0,0E0,0E0,0E0,0E0,0E0,0E0,0E0,0E0,0E0,0E0,0E0,0E0,0E0,0E0,0E0,0E0,0E0,0E0,0E0,0E0,0E0,0E0,0E0,0E0,0E0,0E0,0E0,0E0,0E0,0E0,0E0,0E0,0E0,0E0,0E0,0E0,0E0,0E0,0E0,0E0,0E0,0E0],"parents":[2147483647,0,0,1,1,2,2,3,3,4,4,5,5,6,6,7,7,8,8,9,9,10,10,11,11,12,12,13,13,14,14,15,15,16,16,17,17,18,18,19,19,20,20,21,21,22,22,23,23,24,24,25,25,26,26,27,27,28,28,29,29,30,30,31,31,32,32,33,33,34,34,35,35,36,36,37,37,38,38,39,39,40,40,41,41,42,42,43,43,44,44,45,45,46,46,47,47,48,48,49,49,50,50,51,51,52,52,54,54,55,55,56,56,57,57,58,58,59,59,60,60,61,61],"right_children":[2,4,6,8,10,12,14,16,18,20,22,24,26,28,30,32,34,36,38,40,42,44,46,48,50,52,54,56,58,60,62,64,66,68,70,72,74,76,78,80,82,84,86,88,90,92,94,96,98,100,102,104,106,-1,108,110,112,114,116,118,120,122,-1,-1,-1,-1,-1,-1,-1,-1,-1,-1,-1,-1,-1,-1,-1,-1,-1,-1,-1,-1,-1,-1,-1,-1,-1,-1,-1,-1,-1,-1,-1,-1,-1,-1,-1,-1,-1,-1,-1,-1,-1,-1,-1,-1,-1,-1,-1,-1,-1,-1,-1,-1,-1,-1,-1,-1,-1,-1,-1,-1,-1],"split_conditions":[2.35E3,1E1,7E0,1.45E3,1.6E3,2.8E3,3.55E3,1.2E3,3.3071503E-2,1.2E3,3.7E1,-1.1617726E-2,1E0,-2.789712E-2,1E0,1E0,5E1,2E3,1.8E3,2.7E1,2.9E1,6.705761E-2,-1.3341862E-2,-1.3118348E-1,2.5E3,-3.5688974E-2,1.18E2,3.6E1,1E0,1E0,4.15E3,9E2,1E0,1E0,2.4351677E-2,1E0,4E1,1E-45,3E0,1E3,1E0,4.5E1,-1.05210476E-1,1E0,4E0,1E0,5E0,-1.9591354E-1,2.75E3,2E0,2.75E3,3.65E3,2E0,1.8451778E2,3.4E3,1E-45,1E0,2E0,5.9E1,7.3E1,4.25E3,3.85E3,5.0836792E2,-2.7085318E1,-1.836538E0,3.310059E1,1.087041E2,4.8476715E1,1.6794206E2,1.7297758E1,3.8839573E1,4.1162617E1,8.4230644E1,1.4810358E2,7.15202E1,6.9930695E1,1.943369E2,1.2406329E2,2.0154706E2,-5.224657E1,-3.1517344E1,-6.629335E1,-4.6626335E1,2.0888065E1,-1.6831257E1,-5.2401253E1,-3.310577E1,-7.4728684E0,1.6010334E1,4.2074894E1,9.967495E1,-3.930384E1,-1.7910309E1,-4.6442933E0,4.069615E1,3.7182835E1,5.747868E1,1.4960576E2,7.201992E1,1.8105951E2,2.6615353E2,1.6942546E2,7.12237E1,1.7123909E2,2.393947E2,2.2827725E2,2.7962253E2,2.9890063E2,3.9114664E2,8.4088974E1,4.5489162E1,-6.7079964E0,2.0282269E1,5.4029522E1,9.7351364E1,2.5935226E2,1.13631004E2,7.2386795E1,2.0548135E2,1.2637319E2,1.8783192E2,1.6725584E2,2.4339519E2],"split_indices":[30,0,0,30,30,30,30,30,33,30,1,33,9,33,9,26,4,30,30,1,1,33,33,33,30,33,4,1,26,28,30,30,7,26,33,26,4,18,19,30,20,4,33,28,28,28,28,33,30,28,30,30,28,0,30,18,28,28,4,0,30,30,0,0,0,0,0,0,0,0,0,0,0,0,0,0,0,0,0,0,0,0,0,0,0,0,0,0,0,0,0,0,0,0,0,0,0,0,0,0,0,0,0,0,0,0,0,0,0,0,0,0,0,0,0,0,0,0,0,0,0,0,0],"split_type":[0,0,0,0,0,0,0,0,0,0,0,0,0,0,0,0,0,0,0,0,0,0,0,0,0,0,0,0,0,0,0,0,0,0,0,0,0,1,0,0,0,0,0,0,0,0,0,0,0,0,0,0,0,0,0,1,0,0,0,0,0,0,0,0,0,0,0,0,0,0,0,0,0,0,0,0,0,0,0,0,0,0,0,0,0,0,0,0,0,0,0,0,0,0,0,0,0,0,0,0,0,0,0,0,0,0,0,0,0,0,0,0,0,0,0,0,0,0,0,0,0,0,0],"sum_hessian":[6.8367E4,6.247E4,5.897E3,1.2243E4,5.0227E4,1.44E3,4.457E3,6.126E3,6.117E3,3.2998E4,1.7229E4,8.36E2,6.04E2,3.211E3,1.246E3,2.526E3,3.6E3,4.959E3,1.158E3,1.2923E4,2.0075E4,1.045E4,6.779E3,5.24E2,3.12E2,4.55E2,1.49E2,1.729E3,1.482E3,1.132E3,1.14E2,2.295E3,2.31E2,4.59E2,3.141E3,3.372E3,1.587E3,5.82E2,5.76E2,7.85E3,5.073E3,1.0843E4,9.232E3,9.561E3,8.89E2,4.858E3,1.921E3,5.9E1,4.65E2,1.79E2,1.33E2,1.66E2,2.89E2,2.3E1,1.26E2,1.081E3,6.48E2,1.341E3,1.41E2,3.78E2,7.54E2,9.5E1,1.9E1,3.86E2,1.909E3,2.13E2,1.8E1,4.31E2,2.8E1,2.526E3,6.15E2,3.131E3,2.41E2,4E1,1.547E3,5.65E2,1.7E1,4.58E2,1.18E2,3.31E3,4.54E3,3.661E3,1.412E3,1.255E3,9.588E3,3.132E3,6.1E3,2.815E3,6.746E3,7.63E2,1.26E2,1.392E3,3.466E3,1.78E3,1.41E2,2.6E1,3.3E1,4.09E2,5.6E1,7.7E1,1.02E2,1.17E2,1.6E1,1.19E2,4.7E1,1.32E2,1.57E2,7.8E1,4.8E1,3.18E2,7.63E2,1.61E2,4.87E2,6.67E2,6.74E2,3.3E1,1.08E2,3.57E2,2.1E1,5.18E2,2.36E2,5.3E1,4.2E1],"tree_param":{"num_deleted":"0","num_feature":"34","num_nodes":"123","size_leaf_vector":"1"}},{"base_weights":[-2.4685395E0,-1.942364E2,2.0430012E3,7.557208E2,-4.167329E2,3.649824E3,1.5166299E3,1.2093469E3,2.5118967E2,-6.081937E2,1.0236196E2,2.8911174E3,4.676107E3,1.1228154E3,2.5239026E3,9.224484E2,1.4591079E3,2.0680038E2,3.139283E3,-9.151752E2,-4.3915744E2,3.460249E2,-2.2577777E2,3.6158503E3,2.4465366E3,3.7681501E3,5.0875044E3,1.8939991E3,9.1992615E2,1.6454308E3,2.942854E3,1.6631183E3,8.482569E2,1.364459E3,2.4311306E3,-1.438224E2,4.0780917E2,2.7726462E3,1.7503165E2,-6.067492E2,-1.0792771E3,-2.0244864E2,-7.289541E2,2.4212299E2,7.931949E2,-5.1880896E2,-1.2028857E2,3.4168164E3,3.268379E2,2.638908E3,1.2879607E3,3.0857322E3,4.278262E3,4.0792996E3,5.521915E3,1.8091527E3,2.3328484E2,1.5086006E3,7.172455E2,2.932594E3,1.210946E3,2.4669163E3,3.6731313E3,1.3886037E2,7.3175255E1,5.1284603E1,3.2251705E1,6.53872E1,1.0781036E2,1.0078915E2,1.8940076E2,9.058314E0,-1.2837825E1,1.708154E1,4.720333E1,1.0459841E2,1.51317E2,-1.959007E1,-5.0409E1,-4.842881E1,-6.927769E1,1.14140236E2,-1.1382331E1,-1.8799917E1,-4.4311085E1,3.566128E1,7.839837E0,6.586676E1,3.1370651E1,-1.1822058E1,-3.2757027E1,-8.378718E0,2.3874588E1,1.3506087E2,1.9208037E2,1.0115847E2,1.4574542E2,8.0508705E1,4.9439194E1,1.9767148E2,7.354163E1,2.2723766E2,1.22261925E2,1.861694E2,3.043503E2,3.0570874E2,2.464189E2,1.0156292E2,5.0561108E1,5.673108E1,9.849203E1,3.059914E1,6.7583275E1,1.1306339E2,1.8430544E2,5.1019524E1,2.0856937E2,1.9318529E2,1.1618711E2,3.6677615E2,1.6607047E2],"categories":[0,1,2,3,4,5,6,7,8,9,11,12,13,14,15,16,17,18,19,21,23,24,25,26,28,29,30,31,32,33,35,36,37,38,39,40,41,42,43,44,46,47,48,49,51,53,55,56,57,58,59,60,61,62,63,64,65,66,67,68,69,70,72,0,1,2,3,4,6,7,8,9,11,12,13,14,15,16,17,18,19,20,21,22,23,24,25,26,27,28,29,30,31,32,33,34,35,36,37,38,39,40,41,42,43,44,45,46,47,48,49,50,51,52,53,54,55,56,57,58,59,60,61,62,63,64,65,66,67,68,69,70,71,72,73,0,1,2,3,4,5,6,7,8,9,10,15,16,17,18,19,20,0,2,3,4,5,7,8,9,12,13,15,16,18,19,20,23,26,28,31,33,36,37,38,40,41,43,44,47,53,55,57,59,62,63,67,68,70,0,1,2,3,4,6,7,8,9,10,11,12,13,14,15,16,17,18,19,20,21,22,23,24,25,26,27,28,29,30,31,32,33,34,35,36,37,38,39,40,41,42,43,44,45,46,47,48,50,51,52,53,54,55,56,57,58,59,60,61,62,63,64,65,66,67,68,69,70,71,72,73,0,1,2,3,4,6,7,8,9,10,11,12,13,14,15,16,17,18,19,20,21,22,23,24,25,26,27,28,29,30,31,32,33,34,35,36,37,38,39,40,41,42,43,44,45,46,47,48,50,51,52,53,54,55,56,57,58,59,60,61,62,63,64,65,66,67,68,69,70,71,72,73,0,1,2,3,4,5,6,7,8,9,10,11,12,14,15,16,17,18,19,20,0,1,2,3,4,5,6,7,8,9,11,12,13,14,15,16,17,18,19,21,22,23,24,25,26,28,29,30,31,32,33,34,35,36,37,38,39,40,41,42,43,44,46,47,48,49,50,51,53,55,56,57,58,59,60,61,62,63,64,65,66,67,68,69,70,71,72,0,1,2,3,4,6,7,8,9,10,11,12,13,15,16,17,18,19,20,21,22,23,24,25,26,27,28,29,30,31,32,33,34,35,36,37,38,39,40,41,42,47,63,72,18,19,20,0,1,2,3,4,5,6,7,8,9,10,11,12,13,14,15,16,17,18,19,20,21,23,24,25,26,27,28,29,30,31,32,33,34,35,36,37,38,39,40,41,42,43,44,45,46,47,48,50,52,53,55,56,57,58,59,60,61,62,63,64,65,66,67,68,69,70,71,72,73,7,8,14,20,26,34,38,40,47,56,67,0,1,2,3,4,5,6,7,8,9,10,14,15,16,17,18,19,20,2,3,0,1,2,3,4,5,6,7,8,9,10,11,0,1,2,3,4,6,7,8,9,10,11,12,13,14,15,16,17,18,19,20,21,22,23,24,25,26,27,28,29,30,31,32,33,34,35,36,37,38,39,40,41,42,43,44,45,46,47,48,49,50,51,52,53,54,55,56,57,58,59,60,61,62,63,64,65,66,67,68,69,70,71,72,73,0,1,2,3,4,5,6,7,8,9,10,11,12,14,15,16,17,18,19,20],"categories_nodes":[3,11,13,19,28,29,31,32,35,40,41,42,44,45,52,61,62],"categories_segments":[0,63,135,152,189,261,333,353,420,464,467,537,548,566,568,580,653],"categories_sizes":[63,72,17,37,72,72,20,67,44,3,70,11,18,2,12,73,20],"default_left":[0,0,0,1,0,0,0,0,0,0,0,0,0,0,0,0,0,0,0,1,0,0,0,0,0,0,0,0,0,0,0,1,0,0,0,1,0,0,0,0,1,0,1,0,0,0,0,0,0,0,0,0,1,0,0,0,0,0,0,0,0,0,0,0,0,0,0,0,0,0,0,0,0,0,0,0,0,0,0,0,0,0,0,0,0,0,0,0,0,0,0,0,0,0,0,0,0,0,0,0,0,0,0,0,0,0,0,0,0,0,0,0,0,0,0,0,0,0,0,0,0],"id":7,"left_children":[1,3,5,7,9,11,13,15,17,19,21,23,25,27,29,31,33,35,37,39,41,43,45,47,49,51,53,55,57,59,61,63,65,67,69,71,73,75,-1,77,79,81,83,85,87,89,91,93,-1,95,97,99,101,103,105,107,-1,109,111,113,115,117,119,-1,-1,-1,-1,-1,-1,-1,-1,-1,-1,-1,-1,-1,-1,-1,-1,-1,-1,-1,-1,-1,-1,-1,-1,-1,-1,-1,-1,-1,-1,-1,-1,-1,-1,-1,-1,-1,-1,-1,-1,-1,-1,-1,-1,-1,-1,-1,-1,-1,-1,-1,-1,-1,-1,-1,-1,-1,-1],"loss_changes":[2.6830268E10,1.3218271E10,4.953307E9,2.7159076E9,5.0359675E9,1.112406E9,1.7496914E9,4.4643226E8,7.1983706E8,1.9204465E9,1.0917903E9,2.5987072E8,2.0980429E8,4.955031E8,4.518917E8,1.5855309E8,3.0387405E8,3.9022634E8,1.555136E6,6.646067E8,1.637547E9,3.638827E8,1.7981235E8,1.607936E8,1.1249715E8,5.467981E7,1.6098509E8,1.470057E8,2.9934784E8,2.2182758E8,2.825467E8,5.4645696E7,9.482214E7,1.3391309E8,1.5862003E8,7.411178E7,1.2456211E8,1.78512E6,0E0,3.9367616E8,2.8949504E8,8.235163E8,5.954396E8,2.5554374E8,1.275145E8,5.9128416E7,1.210607E8,7.990477E7,0E0,6.972774E7,5.7342E6,1.1609338E8,4.213171E7,7.02295E7,7.181107E7,1.1190157E8,0E0,1.0885107E8,1.2438675E8,4.275603E7,1.666745E8,9.321395E7,3.9943475E8,0E0,0E0,0E0,0E0,0E0,0E0,0E0,0E0,0E0,0E0,0E0,0E0,0E0,0E0,0E0,0E0,0E0,0E0,0E0,0E0,0E0,0E0,0E0,0E0,0E0,0E0,0E0,0E0,0E0,0E0,0E0,0E0,0E0,0E0,0E0,0E0,0E0,0E0,0E0,0E0,0E0,0E0,0E0,0E0,0E0,0E0,0E0,0E0,0E0,0E0,0E0,0E0,0E0,0E0,0E0,0E0,0E0,0E0],"parents":[2147483647,0,0,1,1,2,2,3,3,4,4,5,5,6,6,7,7,8,8,9,9,10,10,11,11,12,12,13,13,14,14,15,15,16,16,17,17,18,18,19,19,20,20,21,21,22,22,23,23,24,24,25,25,26,26,27,27,28,28,29,29,30,30,31,31,32,32,33,33,34,34,35,35,36,36,37,37,39,39,40,40,41,41,42,42,43,43,44,44,45,45,46,46,47,47,49,49,50,50,51,51,52,52,53,53,54,54,55,55,57,57,58,58,59,59,60,60,61,61,62,62],"right_children":[2,4,6,8,10,12,14,16,18,20,22,24,26,28,30,32,34,36,38,40,42,44,46,48,50,52,54,56,58,60,62,64,66,68,70,72,74,76,-1,78,80,82,84,86,88,90,92,94,-1,96,98,100,102,104,106,108,-1,110,112,114,116,118,120,-1,-1,-1,-1,-1,-1,-1,-1,-1,-1,-1,-1,-1,-1,-1,-1,-1,-1,-1,-1,-1,-1,-1,-1,-1,-1,-1,-1,-1,-1,-1,-1,-1,-1,-1,-1,-1,-1,-1,-1,-1,-1,-1,-1,-1,-1,-1,-1,-1,-1,-1,-1,-1,-1,-1,-1,-1,-1],"split_conditions":[2.35E3,7E0,7E0,1E-45,1.7E3,2.8E3,3.55E3,1.75E3,2.05E3,1.2E3,3.2E1,1E-45,1.25E2,1E-45,1E0,5E1,3E0,1.2E3,2E0,1E-45,3.1E1,4E0,1E0,4E0,2.75E3,3.15E3,1E0,6E0,1E-45,1E-45,4.1E3,1E-45,1E-45,1E0,2.25E3,1E-45,1E0,2E0,1.7503165E2,4E1,1E-45,1E-45,1E-45,2E0,1E-45,1E-45,1E0,1E0,3.268379E2,2E0,2E0,2.85E3,1E-45,3.85E3,2E0,4.7E1,2.3328484E2,2.75E3,3.15E3,8.6E1,8E1,1E-45,1E-45,1.3886037E2,7.3175255E1,5.1284603E1,3.2251705E1,6.53872E1,1.0781036E2,1.0078915E2,1.8940076E2,9.058314E0,-1.2837825E1,1.708154E1,4.720333E1,1.0459841E2,1.51317E2,-1.959007E1,-5.0409E1,-4.842881E1,-6.927769E1,1.14140236E2,-1.1382331E1,-1.8799917E1,-4.4311085E1,3.566128E1,7.839837E0,6.586676E1,3.1370651E1,-1.1822058E1,-3.2757027E1,-8.378718E0,2.3874588E1,1.3506087E2,1.9208037E2,1.0115847E2,1.4574542E2,8.0508705E1,4.9439194E1,1.9767148E2,7.354163E1,2.2723766E2,1.22261925E2,1.861694E2,3.043503E2,3.0570874E2,2.464189E2,1.0156292E2,5.0561108E1,5.673108E1,9.849203E1,3.059914E1,6.7583275E1,1.1306339E2,1.8430544E2,5.1019524E1,2.0856937E2,1.9318529E2,1.1618711E2,3.6677615E2,1.6607047E2],"split_indices":[30,0,0,32,30,30,30,30,30,30,1,32,5,18,28,5,19,30,28,32,1,28,28,28,30,30,28,28,32,32,30,18,32,9,30,32,9,0,0,1,18,32,32,1,18,16,9,28,0,19,0,30,18,30,0,0,0,30,30,5,0,32,18,0,0,0,0,0,0,0,0,0,0,0,0,0,0,0,0,0,0,0,0,0,0,0,0,0,0,0,0,0,0,0,0,0,0,0,0,0,0,0,0,0,0,0,0,0,0,0,0,0,0,0,0,0,0,0,0,0,0],"split_type":[0,0,0,1,0,0,0,0,0,0,0,1,0,1,0,0,0,0,0,1,0,0,0,0,0,0,0,0,1,1,0,1,1,0,0,1,0,0,0,0,1,1,1,0,1,1,0,0,0,0,0,0,1,0,0,0,0,0,0,0,0,1,1,0,0,0,0,0,0,0,0,0,0,0,0,0,0,0,0,0,0,0,0,0,0,0,0,0,0,0,0,0,0,0,0,0,0,0,0,0,0,0,0,0,0,0,0,0,0,0,0,0,0,0,0,0,0,0,0,0,0],"sum_hessian":[6.8398E4,6.2536E4,5.862E3,1.1867E4,5.0669E4,1.445E3,4.417E3,6.248E3,5.619E3,3.7016E4,1.3653E4,8.33E2,6.12E2,3.177E3,1.24E3,2.91E3,3.338E3,5.535E3,8.4E1,1.3143E4,2.3873E4,7.835E3,5.818E3,3.14E2,5.19E2,1.94E2,4.18E2,6.6E2,2.517E3,4.02E2,8.38E2,2.63E2,2.647E3,3.044E3,2.94E2,2.017E3,3.518E3,4.6E1,3.8E1,4.566E3,8.577E3,1.3141E4,1.0732E4,6.359E3,1.476E3,1.539E3,4.279E3,2.96E2,1.8E1,4.44E2,7.5E1,8.6E1,1.08E2,1.29E2,2.89E2,6.42E2,1.8E1,6.43E2,1.874E3,1E2,3.02E2,5.1E2,3.28E2,3.8E1,2.25E2,1.411E3,1.236E3,2.843E3,2.01E2,2.27E2,6.7E1,5.2E2,1.497E3,3.133E3,3.85E2,1.5E1,3.1E1,2.975E3,1.591E3,6.303E3,2.274E3,1.31E2,1.301E4,3.309E3,7.423E3,9.74E2,5.385E3,3.53E2,1.123E3,5.02E2,1.037E3,3.966E3,3.13E2,1.13E2,1.83E2,1.4E2,3.04E2,3.4E1,4.1E1,5.5E1,3.1E1,9.3E1,1.5E1,1.12E2,1.7E1,1.4E2,1.49E2,5.01E2,1.41E2,3.57E2,2.86E2,1.609E3,2.65E2,5.5E1,4.5E1,2.85E2,1.7E1,4.5E1,4.65E2,2.7E1,3.01E2],"tree_param":{"num_deleted":"0","num_feature":"34","num_nodes":"121","size_leaf_vector":"1"}},{"base_weights":[1.7642394E0,-2.0946634E2,1.6954543E3,4.0794217E2,-5.0871667E2,3.0829639E3,1.21632E3,1.7220335E2,9.7463214E2,-7.2439307E2,-1.4183255E2,2.4345713E3,4.4778975E3,8.595453E2,2.4870125E3,3.824093E2,-2.3472696E2,1.265251E3,4.0774832E2,-5.442736E2,-9.114925E2,2.6814822E2,-3.1883078E2,2.1023052E3,3.4810256E3,3.9290515E3,5.1354053E3,7.7079877E2,2.2095127E3,2.2440635E3,4.902975E3,-5.265079E1,5.5375085E2,-4.9388055E2,-8.145365E1,1.1812461E3,2.1106118E3,1.0209822E3,2.8381064E2,-7.511718E2,-3.5220197E2,-1.2597443E3,-8.131254E2,4.325477E1,5.18056E2,-3.630542E2,4.7365372E2,1.8239292E3,2.7991643E3,2.9641184E3,4.050892E3,3.1554683E3,4.2473286E3,4.4539087E3,5.8827505E3,1.0083747E3,3.6399957E2,4.4762773E3,1.7976215E3,1.4107552E3,2.6527573E3,3.7943196E3,4.7632333E2,-6.243779E0,4.6783195E1,2.539944E1,7.441148E1,-2.7810059E1,-1.3546019E0,1.611371E1,-1.1107978E1,4.763078E1,7.176744E1,5.928951E1,1.1597875E2,4.5381535E1,1.0658998E2,-5.906913E-1,2.25812E1,-3.8940132E1,6.063935E0,-8.220115E0,-2.5555393E1,-6.7919426E1,-4.3064903E1,-4.5439156E1,-2.7795568E1,1.4595636E1,-5.7721057E0,4.639906E1,1.622189E1,-2.301023E1,-4.6959834E0,6.800972E1,1.8524336E1,7.736309E1,1.15840576E2,1.4420245E2,7.250255E1,1.5891466E2,9.25777E1,1.4060785E2,2.2322574E2,1.7209233E2,8.541121E1,2.2337886E2,1.572316E2,3.2927106E2,2.0164085E2,3.114138E2,1.777269E2,2.626422E1,6.030136E1,1.3226481E1,6.473232E1,1.7513237E2,2.8893295E2,1.3492636E2,7.732861E1,5.5232754E1,9.091775E1,1.149129E2,1.7372174E2,2.0999402E2,8.790142E1],"categories":[2,3,4,5,6,7,8,9,10,15,16,17,18,19,20,0,2,3,4,5,6,7,8,9,10,14,15,16,17,18,19,20,9,17,18,19,20,0,1,2,3,4,5,6,7,8,9,10,11,12,14,15,16,17,19,20,1,2,3],"categories_nodes":[7,8,9,46,52],"categories_segments":[0,15,32,37,56],"categories_sizes":[15,17,5,19,3],"default_left":[0,0,0,0,0,0,0,0,0,0,0,0,0,0,0,0,0,0,0,0,0,0,0,0,0,0,0,0,0,0,0,0,0,0,0,0,0,0,0,0,0,0,0,0,0,0,0,0,0,0,0,0,1,0,0,0,0,0,0,0,0,0,0,0,0,0,0,0,0,0,0,0,0,0,0,0,0,0,0,0,0,0,0,0,0,0,0,0,0,0,0,0,0,0,0,0,0,0,0,0,0,0,0,0,0,0,0,0,0,0,0,0,0,0,0,0,0,0,0,0,0,0,0,0,0],"id":8,"left_children":[1,3,5,7,9,11,13,15,17,19,21,23,25,27,29,31,33,35,37,39,41,43,45,47,49,51,53,55,57,59,61,63,65,67,69,71,73,75,77,79,81,83,85,87,89,91,93,95,97,99,101,103,105,107,109,111,113,115,117,119,121,123,-1,-1,-1,-1,-1,-1,-1,-1,-1,-1,-1,-1,-1,-1,-1,-1,-1,-1,-1,-1,-1,-1,-1,-1,-1,-1,-1,-1,-1,-1,-1,-1,-1,-1,-1,-1,-1,-1,-1,-1,-1,-1,-1,-1,-1,-1,-1,-1,-1,-1,-1,-1,-1,-1,-1,-1,-1,-1,-1,-1,-1,-1,-1],"loss_changes":[2.4455698E10,1.1229532E10,5.0354586E9,2.6505408E9,3.23917E9,1.7482813E9,2.5529472E9,1.1988358E9,9.597952E8,8.683305E8,1.0999666E9,4.5512448E8,2.0211814E8,5.2567808E8,7.138888E8,6.8888896E8,1.895894E8,2.711255E8,1.4996771E8,5.2182963E8,4.321147E8,2.5687987E8,3.7120794E8,1.91211E8,8.195994E7,7.031091E7,1.1487898E8,3.9897293E8,2.4497549E8,3.7905613E8,5.3794995E8,1.8656354E8,2.827671E8,5.159155E7,1.7054909E8,2.0237363E8,6.430848E7,3.986816E7,8.166297E7,1.52544E8,2.0329242E8,1.0821427E8,2.4214426E8,9.501691E7,1.7153274E8,2.6215398E8,5.071465E7,9.541581E7,2.8685056E7,3.4861696E7,6.378829E7,3.680992E7,4.375373E7,1.0717926E8,8.163584E7,2.4838912E8,1.4082893E8,3.1748992E7,4.807213E7,4.4404416E7,2.1135206E8,6.859392E7,0E0,0E0,0E0,0E0,0E0,0E0,0E0,0E0,0E0,0E0,0E0,0E0,0E0,0E0,0E0,0E0,0E0,0E0,0E0,0E0,0E0,0E0,0E0,0E0,0E0,0E0,0E0,0E0,0E0,0E0,0E0,0E0,0E0,0E0,0E0,0E0,0E0,0E0,0E0,0E0,0E0,0E0,0E0,0E0,0E0,0E0,0E0,0E0,0E0,0E0,0E0,0E0,0E0,0E0,0E0,0E0,0E0,0E0,0E0,0E0,0E0,0E0,0E0],"parents":[2147483647,0,0,1,1,2,2,3,3,4,4,5,5,6,6,7,7,8,8,9,9,10,10,11,11,12,12,13,13,14,14,15,15,16,16,17,17,18,18,19,19,20,20,21,21,22,22,23,23,24,24,25,25,26,26,27,27,28,28,29,29,30,30,31,31,32,32,33,33,34,34,35,35,36,36,37,37,38,38,39,39,40,40,41,41,42,42,43,43,44,44,45,45,46,46,47,47,48,48,49,49,50,50,51,51,52,52,53,53,54,54,55,55,56,56,57,57,58,58,59,59,60,60,61,61],"right_children":[2,4,6,8,10,12,14,16,18,20,22,24,26,28,30,32,34,36,38,40,42,44,46,48,50,52,54,56,58,60,62,64,66,68,70,72,74,76,78,80,82,84,86,88,90,92,94,96,98,100,102,104,106,108,110,112,114,116,118,120,122,124,-1,-1,-1,-1,-1,-1,-1,-1,-1,-1,-1,-1,-1,-1,-1,-1,-1,-1,-1,-1,-1,-1,-1,-1,-1,-1,-1,-1,-1,-1,-1,-1,-1,-1,-1,-1,-1,-1,-1,-1,-1,-1,-1,-1,-1,-1,-1,-1,-1,-1,-1,-1,-1,-1,-1,-1,-1,-1,-1,-1,-1,-1,-1],"split_conditions":[2.25E3,5E0,1.2E1,1.7E3,1.5E3,2.8E3,3.55E3,1E-45,1E-45,1E-45,3.2E1,1E0,1E0,1E0,1E0,1.2E3,1.3E3,1E0,2.5E1,1.2E3,1.05E3,2E0,1E0,1E0,1E0,2E0,2E0,3.7E1,2E0,1E0,4.15E3,1E0,1E0,1E0,4.7E1,3E0,1.8E3,1E0,1E0,1E0,3E1,1E0,1E0,2E1,1.9E1,2E3,1E-45,2.4E3,5E0,5E0,2E0,6E0,1E-45,1E0,4E0,1E0,3.15E3,4.2E1,3E0,3.95E3,4.25E3,4E0,4.7632333E2,-6.243779E0,4.6783195E1,2.539944E1,7.441148E1,-2.7810059E1,-1.3546019E0,1.611371E1,-1.1107978E1,4.763078E1,7.176744E1,5.928951E1,1.1597875E2,4.5381535E1,1.0658998E2,-5.906913E-1,2.25812E1,-3.8940132E1,6.063935E0,-8.220115E0,-2.5555393E1,-6.7919426E1,-4.3064903E1,-4.5439156E1,-2.7795568E1,1.4595636E1,-5.7721057E0,4.639906E1,1.622189E1,-2.301023E1,-4.6959834E0,6.800972E1,1.8524336E1,7.736309E1,1.15840576E2,1.4420245E2,7.250255E1,1.5891466E2,9.25777E1,1.4060785E2,2.2322574E2,1.7209233E2,8.541121E1,2.2337886E2,1.572316E2,3.2927106E2,2.0164085E2,3.114138E2,1.777269E2,2.626422E1,6.030136E1,1.3226481E1,6.473232E1,1.7513237E2,2.8893295E2,1.3492636E2,7.732861E1,5.5232754E1,9.091775E1,1.149129E2,1.7372174E2,2.0999402E2,8.790142E1],"split_indices":[30,1,0,30,30,30,30,18,18,18,0,9,26,26,9,30,30,26,0,30,30,28,9,26,26,28,28,1,25,28,30,26,26,9,0,28,30,26,28,26,0,20,20,0,0,30,18,30,0,28,28,0,17,0,0,28,30,0,25,30,30,25,0,0,0,0,0,0,0,0,0,0,0,0,0,0,0,0,0,0,0,0,0,0,0,0,0,0,0,0,0,0,0,0,0,0,0,0,0,0,0,0,0,0,0,0,0,0,0,0,0,0,0,0,0,0,0,0,0,0,0,0,0,0,0],"split_type":[0,0,0,0,0,0,0,1,1,1,0,0,0,0,0,0,0,0,0,0,0,0,0,0,0,0,0,0,0,0,0,0,0,0,0,0,0,0,0,0,0,0,0,0,0,0,1,0,0,0,0,0,1,0,0,0,0,0,0,0,0,0,0,0,0,0,0,0,0,0,0,0,0,0,0,0,0,0,0,0,0,0,0,0,0,0,0,0,0,0,0,0,0,0,0,0,0,0,0,0,0,0,0,0,0,0,0,0,0,0,0,0,0,0,0,0,0,0,0,0,0,0,0,0,0],"sum_hessian":[6.8356E4,6.0777E4,7.579E3,1.9841E4,4.0936E4,1.944E3,5.635E3,1.4013E4,5.828E3,2.578E4,1.5156E4,1.329E3,6.15E2,4.401E3,1.234E3,9.24E3,4.773E3,3.852E3,1.976E3,1.3137E4,1.2643E4,4.57E3,1.0586E4,1.011E3,3.18E2,3.39E2,2.76E2,4.131E3,2.7E2,1.123E3,1.11E2,2.611E3,6.629E3,1.773E3,3E3,3.506E3,3.46E2,3.31E2,1.645E3,6.323E3,6.814E3,2.782E3,9.861E3,2.406E3,2.164E3,1.0027E4,5.59E2,7.25E2,2.86E2,1.7E2,1.48E2,1.02E2,2.37E2,1.48E2,1.28E2,2.607E3,1.524E3,4E1,2.3E2,3.71E2,7.52E2,9.1E1,2E1,2.434E3,1.77E2,6.321E3,3.08E2,1.564E3,2.09E2,7.75E2,2.225E3,1.848E3,1.658E3,6.5E1,2.81E2,3.02E2,2.9E1,5.96E2,1.049E3,6.129E3,1.94E2,3.124E3,3.69E3,2.228E3,5.54E2,7.186E3,2.675E3,9.37E2,1.469E3,6.93E2,1.471E3,7.367E3,2.66E3,5.7E1,5.02E2,4.67E2,2.58E2,2.68E2,1.8E1,1.41E2,2.9E1,3.9E1,1.09E2,8.4E1,1.8E1,1.95E2,4.2E1,2.2E1,1.26E2,1.1E2,1.8E1,7.58E2,1.849E3,1.378E3,1.46E2,2.5E1,1.5E1,4.8E1,1.82E2,2.14E2,1.57E2,5.28E2,2.24E2,7.5E1,1.6E1],"tree_param":{"num_deleted":"0","num_feature":"34","num_nodes":"125","size_leaf_vector":"1"}},{"base_weights":[5.8274884E0,-1.9778714E2,1.6261986E3,6.190639E2,-4.01361E2,2.9365376E3,1.163246E3,2.3346208E2,1.0386824E3,-7.6297186E2,-2.0199045E2,2.3530798E3,4.1692676E3,8.188482E2,2.4065789E3,-5.40929E1,4.446773E2,8.749787E2,1.7770863E3,-6.0595355E2,-1.0208979E3,2.931126E-1,-5.0046628E2,1.7730096E3,3.2532783E3,3.9540774E3,5.9441846E3,3.8621606E2,1.1354058E3,2.2246572E3,6.540021E3,-1.301703E2,7.507174E2,1.01842523E3,3.643966E2,7.352196E2,1.2645338E3,1.217688E3,2.1609517E3,-9.090676E2,-4.6267087E2,-1.1154745E3,-7.5778955E2,-1.7162358E2,2.5094644E2,-6.985531E2,-3.17251E2,1.2563369E3,2.3350137E3,2.7795623E3,4.24593E3,2.648506E3,4.2488037E3,7.3964146E3,2.0095648E2,8.5108435E2,1.2041978E2,1.4198905E3,6.925919E2,1.4679572E3,2.5816484E3,3.3400986E3,5.8767847E2,-2.5940409E1,-2.4613893E0,6.5761215E1,2.7911703E1,4.402311E1,1.6532527E2,1.1705272E1,3.1189137E1,6.7193214E1,3.3799774E1,1.2102538E2,6.072173E1,5.6031643E1,1.1756657E2,8.806662E1,1.4080206E2,-4.9964634E1,-2.6168116E1,-9.825543E0,-2.7984564E1,-6.85383E1,-5.0668747E1,-2.0761496E1,-4.3679955E1,-1.5292737E1,6.5613246E0,3.8316425E1,8.529653E0,-4.1018093E1,-2.2228737E1,-3.0063437E1,-1.0455606E1,5.317175E1,7.641192E1,1.2842775E2,5.0900047E1,1.1309375E2,1.8814386E2,1.5262581E2,2.397462E2,7.793989E1,1.6332938E2,2.4706413E2,1.8394753E2,2.1541191E2,4.6530807E2,1.075324E2,3.6312244E1,-7.189458E0,1.6476822E1,5.7748817E1,9.27682E1,3.1548649E1,1.365941E2,5.931145E1,1.2859238E2,1.24621826E2,3.384692E2,1.0664286E2,2.175432E2],"categories":[0,1,2,3,4,5,6,7,8,9,10,16,17,18,19,20,0,1,2,3,4,5,6,7,8,9,10,11,12,13,14,15,15,16,17,18,19,20,0],"categories_nodes":[27,30,40,53],"categories_segments":[0,16,32,38],"categories_sizes":[16,16,6,1],"default_left":[0,0,0,0,0,0,0,0,0,0,0,0,0,0,0,0,0,0,0,0,0,0,0,0,0,0,0,0,0,0,1,0,0,0,0,0,0,0,0,0,0,0,0,0,0,0,0,0,0,0,0,0,0,1,0,0,0,0,0,0,0,0,0,0,0,0,0,0,0,0,0,0,0,0,0,0,0,0,0,0,0,0,0,0,0,0,0,0,0,0,0,0,0,0,0,0,0,0,0,0,0,0,0,0,0,0,0,0,0,0,0,0,0,0,0,0,0,0,0,0,0,0,0],"id":9,"left_children":[1,3,5,7,9,11,13,15,17,19,21,23,25,27,29,31,33,35,37,39,41,43,45,47,49,51,53,55,57,59,61,63,65,67,69,71,73,75,77,79,81,83,85,87,89,91,93,95,97,99,101,103,105,107,-1,109,111,113,115,117,119,121,-1,-1,-1,-1,-1,-1,-1,-1,-1,-1,-1,-1,-1,-1,-1,-1,-1,-1,-1,-1,-1,-1,-1,-1,-1,-1,-1,-1,-1,-1,-1,-1,-1,-1,-1,-1,-1,-1,-1,-1,-1,-1,-1,-1,-1,-1,-1,-1,-1,-1,-1,-1,-1,-1,-1,-1,-1,-1,-1,-1,-1],"loss_changes":[2.2535942E10,1.0090696E10,4.6221005E9,1.9585766E9,3.5018388E9,1.4214881E9,2.4113705E9,3.8326822E8,6.991836E8,6.985175E8,1.8905773E9,7.007396E8,2.2017638E8,6.0420864E8,9.0434816E8,1.6375984E8,1.671984E8,2.5751526E8,2.2305357E8,4.6572467E8,1.6167168E8,8.043458E8,4.5884262E8,2.3662362E8,2.3695258E8,2.0884582E8,1.5757978E8,2.3058454E8,3.2012365E8,3.1280896E8,8.115725E8,7.68247E7,2.436584E7,1.3787782E8,1.0776371E8,1.2511002E8,6.9568E7,4.4676096E7,1.5787136E8,1.1932928E8,1.8813952E8,1.2377549E8,6.826931E7,4.5013818E8,3.1435725E8,1.8763827E8,2.0175315E8,2.1033408E7,1.1857024E8,1.7525555E8,9.608832E7,6.764909E7,1.6531558E8,1.781193E8,0E0,1.0859696E8,6.574022E7,1.7678515E8,1.238095E8,1.1450598E8,2.801367E8,3.0988032E7,0E0,0E0,0E0,0E0,0E0,0E0,0E0,0E0,0E0,0E0,0E0,0E0,0E0,0E0,0E0,0E0,0E0,0E0,0E0,0E0,0E0,0E0,0E0,0E0,0E0,0E0,0E0,0E0,0E0,0E0,0E0,0E0,0E0,0E0,0E0,0E0,0E0,0E0,0E0,0E0,0E0,0E0,0E0,0E0,0E0,0E0,0E0,0E0,0E0,0E0,0E0,0E0,0E0,0E0,0E0,0E0,0E0,0E0,0E0,0E0,0E0],"parents":[2147483647,0,0,1,1,2,2,3,3,4,4,5,5,6,6,7,7,8,8,9,9,10,10,11,11,12,12,13,13,14,14,15,15,16,16,17,17,18,18,19,19,20,20,21,21,22,22,23,23,24,24,25,25,26,26,27,27,28,28,29,29,30,30,31,31,32,32,33,33,34,34,35,35,36,36,37,37,38,38,39,39,40,40,41,41,42,42,43,43,44,44,45,45,46,46,47,47,48,48,49,49,50,50,51,51,52,52,53,53,55,55,56,56,57,57,58,58,59,59,60,60,61,61],"right_children":[2,4,6,8,10,12,14,16,18,20,22,24,26,28,30,32,34,36,38,40,42,44,46,48,50,52,54,56,58,60,62,64,66,68,70,72,74,76,78,80,82,84,86,88,90,92,94,96,98,100,102,104,106,108,-1,110,112,114,116,118,120,122,-1,-1,-1,-1,-1,-1,-1,-1,-1,-1,-1,-1,-1,-1,-1,-1,-1,-1,-1,-1,-1,-1,-1,-1,-1,-1,-1,-1,-1,-1,-1,-1,-1,-1,-1,-1,-1,-1,-1,-1,-1,-1,-1,-1,-1,-1,-1,-1,-1,-1,-1,-1,-1,-1,-1,-1,-1,-1,-1,-1,-1],"split_conditions":[2.25E3,1.3E1,1.3E1,1.45E3,1.3E3,2.8E3,3.55E3,1.2E3,3.3071503E-2,3E1,3.9E1,-1.1617726E-2,3.85E3,-4.6509355E-2,6E0,1E0,5E1,2E3,1.65E3,1E3,1E0,1.7E3,-6.8290845E-2,2.4E3,3E0,-5.9774015E-2,-1.7821647E-2,1E-45,3.2E1,1E0,1E-45,9E2,8.8E1,1E0,4E0,4.9E1,4.5E1,1E0,9.8504454E-2,1E0,1E-45,1E3,6.3E1,-1.1617726E-2,2E0,1.7E3,1E0,-6.529161E-2,2.75E3,1E0,1E0,1.25E2,2E0,1E-45,2.0095648E2,4.8E1,2.4E3,2.65E3,1E0,1E0,6.7E3,-4.073245E-2,5.8767847E2,-2.5940409E1,-2.4613893E0,6.5761215E1,2.7911703E1,4.402311E1,1.6532527E2,1.1705272E1,3.1189137E1,6.7193214E1,3.3799774E1,1.2102538E2,6.072173E1,5.6031643E1,1.1756657E2,8.806662E1,1.4080206E2,-4.9964634E1,-2.6168116E1,-9.825543E0,-2.7984564E1,-6.85383E1,-5.0668747E1,-2.0761496E1,-4.3679955E1,-1.5292737E1,6.5613246E0,3.8316425E1,8.529653E0,-4.1018093E1,-2.2228737E1,-3.0063437E1,-1.0455606E1,5.317175E1,7.641192E1,1.2842775E2,5.0900047E1,1.1309375E2,1.8814386E2,1.5262581E2,2.397462E2,7.793989E1,1.6332938E2,2.4706413E2,1.8394753E2,2.1541191E2,4.6530807E2,1.075324E2,3.6312244E1,-7.189458E0,1.6476822E1,5.7748817E1,9.27682E1,3.1548649E1,1.365941E2,5.931145E1,1.2859238E2,1.24621826E2,3.384692E2,1.0664286E2,2.175432E2],"split_indices":[30,0,0,30,30,30,30,30,33,1,1,33,30,33,28,26,5,30,30,30,20,30,33,30,19,33,33,18,1,28,18,30,5,26,28,5,5,26,33,9,18,30,5,33,1,30,28,33,30,26,28,5,0,3,0,5,30,30,26,22,30,33,0,0,0,0,0,0,0,0,0,0,0,0,0,0,0,0,0,0,0,0,0,0,0,0,0,0,0,0,0,0,0,0,0,0,0,0,0,0,0,0,0,0,0,0,0,0,0,0,0,0,0,0,0,0,0,0,0,0,0,0,0],"split_type":[0,0,0,0,0,0,0,0,0,0,0,0,0,0,0,0,0,0,0,0,0,0,0,0,0,0,0,1,0,0,1,0,0,0,0,0,0,0,0,0,1,0,0,0,0,0,0,0,0,0,0,0,0,1,0,0,0,0,0,0,0,0,0,0,0,0,0,0,0,0,0,0,0,0,0,0,0,0,0,0,0,0,0,0,0,0,0,0,0,0,0,0,0,0,0,0,0,0,0,0,0,0,0,0,0,0,0,0,0,0,0,0,0,0,0,0,0,0,0,0,0,0,0],"sum_hessian":[6.8303E4,6.0679E4,7.624E3,1.2105E4,4.8574E4,1.989E3,5.635E3,6.309E3,5.796E3,1.7262E4,3.1312E4,1.352E3,6.37E2,4.414E3,1.221E3,2.672E3,3.637E3,4.746E3,1.05E3,1.0732E4,6.53E3,1.8664E4,1.2648E4,8.24E2,5.28E2,5.71E2,6.6E1,1.866E3,2.548E3,1.171E3,5E1,2.442E3,2.3E2,4.45E2,3.192E3,3.495E3,1.251E3,4.29E2,6.21E2,3.443E3,7.289E3,4.801E3,1.729E3,1.1071E4,7.593E3,6.076E3,6.572E3,4.31E2,3.93E2,3.6E2,1.68E2,1.07E2,4.64E2,3.6E1,3E1,6.78E2,1.188E3,1.55E3,9.98E2,3.77E2,7.94E2,3.2E1,1.8E1,4.2E2,2.022E3,5.7E1,1.73E2,4.21E2,2.4E1,2.126E3,1.066E3,3.08E2,3.187E3,5E1,1.201E3,3.97E2,3.2E1,3.88E2,2.33E2,2.789E3,6.54E2,1.948E3,5.341E3,1.368E3,3.433E3,4.38E2,1.291E3,7.671E3,3.4E3,1.023E3,6.57E3,4.105E3,1.971E3,1.811E3,4.761E3,2.55E2,1.76E2,3.33E2,6E1,2.38E2,1.22E2,5.5E1,1.13E2,4E1,6.7E1,2.06E2,2.58E2,1.5E1,2.1E1,5.8E1,6.2E2,5.25E2,6.63E2,9.66E2,5.84E2,9.7E2,2.8E1,3.02E2,7.5E1,7.79E2,1.5E1,1.6E1,1.6E1],"tree_param":{"num_deleted":"0","num_feature":"34","num_nodes":"123","size_leaf_vector":"1"}},{"base_weights":[2.4949982E0,-1.6426193E2,1.7849897E3,4.121734E2,-4.397348E2,3.1842993E3,1.331484E3,1.222508E2,9.003787E2,-6.520404E2,-1.09647804E2,2.5291025E3,4.052692E3,1.0019212E3,2.3273838E3,3.576455E2,-2.1390237E2,7.5755115E2,1.8427368E3,-1.0262131E3,-5.714223E2,8.5221466E1,-3.5010266E2,2.0478225E3,3.3121482E3,3.1608948E3,4.4528447E3,1.778235E3,8.28528E2,2.0947622E3,5.175565E3,1.1171489E3,2.7070056E2,1.806511E2,-2.308238E2,9.417723E2,2.7046378E2,2.2892798E3,1.0742834E3,-1.1045643E3,-5.5525165E2,-3.9479208E2,-7.6530804E2,6.341238E2,1.5054571E1,-4.2101086E2,1.057416E2,1.5597705E3,2.479064E3,2.6659922E3,3.904962E3,1.8975491E3,3.532199E3,4.029172E3,5.4204785E3,1.6727432E3,2.5598262E2,5.528074E2,1.2770073E3,1.2889727E3,2.4868901E3,3.9033484E3,5.08975E2,4.907768E1,1.582408E2,-2.4033706E0,2.1062025E1,-2.4415167E1,-1.6071533E0,9.661424E1,4.254533E1,-6.84495E-3,2.7607992E1,9.50592E1,1.563527E2,4.484205E1,1.3876804E2,-5.0077755E1,-6.799969E1,5.4692074E1,-3.0193668E1,-3.130957E1,-1.4732239E1,-4.3342133E1,-2.6708181E1,7.8012514E0,4.1836933E1,-4.881663E0,1.5533523E1,-2.6974329E1,-9.679599E0,2.147915E0,3.847885E1,3.4939342E1,8.7161125E1,1.05536415E2,1.6444084E2,1.6224872E2,9.839569E1,2.5236736E2,1.7828539E2,5.9808624E1,1.1955314E2,2.0190263E2,1.4301877E2,1.1883911E2,2.0831165E2,2.3633833E2,3.388224E2,7.330969E1,1.3985316E2,5.2223793E1,1.8494284E1,4.6892956E1,8.3218376E1,5.7372597E1,1.8548499E2,1.509685E2,1.0208638E2,2.5192976E2,1.1676287E2],"categories":[5,7,8,9,15,16,17,18,19,20,0,1,2,3,4,5,6,7,8,9,10,14,15,16,17,18,19,20,0,1,2,3,0,2,3,0],"categories_nodes":[1,13,48,49,52,54],"categories_segments":[0,10,28,29,32,35],"categories_sizes":[10,18,1,3,3,1],"default_left":[0,0,0,0,0,0,0,0,0,0,0,0,0,0,0,0,0,0,0,0,0,0,0,0,0,0,0,0,0,0,0,0,0,0,0,0,0,0,0,0,0,0,0,0,0,0,0,0,1,1,0,0,1,0,1,0,0,0,0,0,0,0,0,0,0,0,0,0,0,0,0,0,0,0,0,0,0,0,0,0,0,0,0,0,0,0,0,0,0,0,0,0,0,0,0,0,0,0,0,0,0,0,0,0,0,0,0,0,0,0,0,0,0,0,0,0,0,0,0,0,0],"id":10,"left_children":[1,3,5,7,9,11,13,15,17,19,21,23,25,27,29,31,33,35,37,39,41,43,45,47,49,51,53,55,57,59,61,63,65,-1,67,69,71,73,75,77,79,81,83,85,87,89,91,93,95,97,99,101,103,105,107,109,-1,111,113,115,117,119,-1,-1,-1,-1,-1,-1,-1,-1,-1,-1,-1,-1,-1,-1,-1,-1,-1,-1,-1,-1,-1,-1,-1,-1,-1,-1,-1,-1,-1,-1,-1,-1,-1,-1,-1,-1,-1,-1,-1,-1,-1,-1,-1,-1,-1,-1,-1,-1,-1,-1,-1,-1,-1,-1,-1,-1,-1,-1,-1],"loss_changes":[2.026694E10,9.90088E9,3.6973507E9,2.8536548E9,2.956505E9,8.0166605E8,1.444096E9,1.0011334E9,1.0096799E9,7.7390336E8,7.738775E8,3.0073856E8,2.043218E8,4.444818E8,7.146491E8,4.9106387E8,3.38283E8,5.8524544E8,3.365701E8,1.672832E8,7.2318054E8,3.513607E8,2.3900915E8,1.0305114E8,1.0795187E8,8.383104E7,1.5034266E8,2.043415E8,3.3439923E8,3.1719014E8,4.822853E8,2.0902144E8,3.2047946E8,0E0,2.6543395E8,4.244324E8,1.3659912E8,1.9694054E8,1.0768374E8,1.0125312E8,5.2858816E7,2.5605082E8,2.3587123E8,1.0003293E8,2.6952694E8,1.7228083E8,4.1478016E7,3.6847616E7,7.299226E7,5.464448E7,4.3624704E7,1.3062272E7,3.8746624E7,5.7135616E7,8.555085E7,1.3221658E8,0E0,1.5070758E8,1.3388429E8,1.1016602E8,1.5525965E8,1.0750496E8,0E0,0E0,0E0,0E0,0E0,0E0,0E0,0E0,0E0,0E0,0E0,0E0,0E0,0E0,0E0,0E0,0E0,0E0,0E0,0E0,0E0,0E0,0E0,0E0,0E0,0E0,0E0,0E0,0E0,0E0,0E0,0E0,0E0,0E0,0E0,0E0,0E0,0E0,0E0,0E0,0E0,0E0,0E0,0E0,0E0,0E0,0E0,0E0,0E0,0E0,0E0,0E0,0E0,0E0,0E0,0E0,0E0,0E0,0E0],"parents":[2147483647,0,0,1,1,2,2,3,3,4,4,5,5,6,6,7,7,8,8,9,9,10,10,11,11,12,12,13,13,14,14,15,15,16,16,17,17,18,18,19,19,20,20,21,21,22,22,23,23,24,24,25,25,26,26,27,27,28,28,29,29,30,30,31,31,32,32,34,34,35,35,36,36,37,37,38,38,39,39,40,40,41,41,42,42,43,43,44,44,45,45,46,46,47,47,48,48,49,49,50,50,51,51,52,52,53,53,54,54,55,55,57,57,58,58,59,59,60,60,61,61],"right_children":[2,4,6,8,10,12,14,16,18,20,22,24,26,28,30,32,34,36,38,40,42,44,46,48,50,52,54,56,58,60,62,64,66,-1,68,70,72,74,76,78,80,82,84,86,88,90,92,94,96,98,100,102,104,106,108,110,-1,112,114,116,118,120,-1,-1,-1,-1,-1,-1,-1,-1,-1,-1,-1,-1,-1,-1,-1,-1,-1,-1,-1,-1,-1,-1,-1,-1,-1,-1,-1,-1,-1,-1,-1,-1,-1,-1,-1,-1,-1,-1,-1,-1,-1,-1,-1,-1,-1,-1,-1,-1,-1,-1,-1,-1,-1,-1,-1,-1,-1,-1,-1],"split_conditions":[2.35E3,1E-45,7E0,1.6E3,1.5E3,2.8E3,3.6E3,3E0,4.7217682E-2,1E3,3.7E1,-1.2493335E-2,1.25E2,1E-45,1E0,4.5E1,2.5E1,5E0,1E1,1E0,3.1E1,1.9E1,3.3071503E-2,1.26E2,1.4E2,-5.7968732E-2,1E0,6E0,-1.7076785E-2,1E0,2E0,1E0,1.2E3,1.806511E2,1.2E3,4.5E1,2E0,1.4E2,5E0,4E1,4.1E1,-1.0095659E-1,-2.9657952E-2,1E0,-6.63277E-4,1.95E3,5E0,-1.3118348E-1,1E-45,1E-45,1E0,-9.3718335E-2,1E-45,-8.6238906E-2,1E-45,1E0,2.5598262E2,3.4E1,